-1.910448814643628257e+00,-1.709356317973018902e+00,5.306660612966431767e-01,-7.347357191534608090e-01,4.860241444357926710e-01,-6.450838284200149930e-01,-1.364056078088236035e+00,-1.354890396316673851e+00,2.901746897946366199e-01,-5.658821819117649220e-03,-4.274534610650021493e-01,-2.222763778430105752e+00,1.158634268945504031e+00,-1.927962577129137767e+00,-1.493190165869788255e-01,2.179924613163546077e-01
7.411648475791146051e-01,4.523024392616570855e-01,-2.457538492022756760e+00,-1.454657103422328568e+00,4.137916106354851409e-01,7.719007962569661707e-01,4.727525710950573612e-01,1.185545383624686311e+00,3.235432491452268633e-01,5.481110736378550508e-01,-1.486904253823432498e+00,1.017308772478161094e+00,1.833010571568093550e+00,-4.496323351944750968e-01,9.290228158382575485e-02,-3.841980712265904430e-01
-1.047461427248278509e+00,-4.537144719540289230e-03,1.304889310886417908e+00,5.584478517910607120e-01,2.533991278933170888e-01,3.127856406386715360e-01,-1.211193807138522205e+00,-1.316681178599514501e+00,-5.476694037200152687e-01,2.714697648251808773e-02,-1.225869714124741439e+00,-8.812602822881324682e-01,2.259345143566634795e-01,8.910846349302639080e-01,-8.134797295010922635e-01,3.898811661977974463e-01
-5.233833651492760669e-02,1.560205086587537759e-01,-1.057861728101742310e-01,1.741443107784828581e-01,-9.774133517931526960e-01,-9.510312533882137043e-01,1.046118533121663585e+00,1.819592608740890627e-01,1.047631212243478771e+00,-1.061345431761870461e+00,4.664990402933642984e-03,7.076138643655975891e-01,-1.750708871982113557e+00,1.775708761572577510e-01,-7.587308523364723334e-02,3.111802356071844966e-01
-5.459319862971786508e-01,1.568157668317821773e+00,-1.250808226819587032e+00,-1.983680438301769766e-01,7.685216314076664945e-01,1.034320679143884369e+00,-2.873572282091170216e-01,-1.843112227213820897e-01,6.763963276531022029e-01,9.043991882059401188e-01,3.142820145116705377e-01,-9.308978673756213018e-01,-2.137734643506661869e-01,2.247431198541773034e-01,6.648346057294511890e-01,-1.867540431778566545e-01
-6.397975895055020290e-01,-1.375680147789068108e+00,8.172914313679401355e-01,2.862165080804173756e-01,-3.730520272988067654e-01,2.959220341497443424e-02,5.517084734736088514e-01,2.852812103292649004e-01,1.180018507705229425e+00,-3.760237552811495632e-01,3.062677111827606380e-01,-3.465575240533522172e-01,9.672761003072600783e-01,-3.531755454984549653e-02,7.122423057607218944e-01,-4.452638298157848840e-01
2.186621267948424041e+00,1.512262558370975229e+00,5.634244462022037769e-01,4.654229662482230190e-02,-7.001483657165761265e-01,-6.914861674632875044e-01,4.504979004583619107e-01,6.071119100760196119e-01,-9.697400960695633509e-01,5.218089366696566644e-01,2.471423576792939059e-01,-3.463865025688715460e-01,-1.662570204530478546e-01,3.756085107823957103e-01,7.064636805844982659e-01,-9.150137499338897862e-02
4.564991842644165465e-01,-1.761417210723466686e+00,-5.605907993188709026e-01,6.000375651217671608e-02,-4.449690177355129506e-01,9.227232246481865685e-01,-2.616709685981132849e-01,1.002045821085763150e-01,7.061589743524108176e-01,1.181322565038649852e+00,4.229242843248379180e-01,-1.391794335020958839e-01,-5.896550678098896325e-01,1.224481917063314551e+00,-1.063637919053244341e+00,1.205431799444000918e+00
4.006062661275072156e-01,1.227166399929582041e-01,5.123998904877929278e-02,1.223263669360117323e+00,3.662473157232998267e-01,2.178941802940642880e+00,-1.204915687844658967e+00,-1.689615003316363273e+00,1.192966378326667964e+00,5.790599485837399918e-01,-7.776315416645759315e-01,1.465692512692143845e+00,1.147091535311258320e-01,-1.241025193659939102e-01,-5.462147007787743203e-01,8.280824655828425418e-02
1.691902871974535705e+00,4.206690674799870022e-01,-4.176555420240053718e-02,-1.128018290443789207e+00,-2.798202179701664849e-01,1.484944672694891388e+00,-4.423705352782412170e-01,-2.324023872877390984e-01,4.402305857364366415e-01,9.278915355395384035e-01,-1.768991076529904394e+00,1.822634591786283176e+00,-8.946928761235800609e-01,-9.905669221489494802e-01,-3.917827999181983656e-01,-1.119614406159977094e+00
9.321877596279959377e-01,3.567814350471687490e-02,-9.768545169213892487e-01,-4.185409815216791785e-01,-1.214739109054603583e+00,3.627054608251931711e-01,1.053304039353208488e+00,-2.113426668273188813e+00,-1.546533250265478721e+00,-1.522874909242338537e-01,-1.989128081735811737e-01,-8.441833849383499899e-01,-6.205116054227101108e-01,5.143288669858653295e-01,5.064722852485837867e-01,1.254573830906413612e+00
8.919422065081700213e-01,2.082576504677580598e+00,-2.422969237862717673e+00,-3.572794193282661790e-01,6.936017048742371127e-01,-6.312687757867460614e-02,-2.217903150987725169e+00,-3.814476782682788558e-01,-7.177230297921786129e-01,-6.418006779820031316e-01,9.947013465498419915e-01,-2.405851606879945426e-01,2.144028657486757083e+00,-1.077396967735759326e+00,1.612013341532648969e+00,-9.439661686705266286e-01
-2.437416931043690393e+00,-3.408750009955627824e-01,1.413627929542699446e+00,5.147371237436559888e-01,2.465489300355358515e-01,-7.110273188518281273e-01,-1.029695043353406669e+00,1.507043608233248566e+00,8.527831673581017791e-01,1.094348986228968146e+00,1.563207833451792705e+00,-2.979695890756421939e-01,1.162366229477457935e+00,-2.515301057074158742e+00,-2.726423022062356427e-01,6.960747791409889196e-01
4.412646261425742789e-01,-1.888426262127075095e+00,-5.913133205215360261e-02,-2.689402502330831002e-01,5.619704785943909625e-02,1.156252977278849015e+00,1.705561865916456421e+00,-1.108500818129137672e-01,7.386770076689690434e-01,1.395798511560617294e+00,1.405816997905153243e-01,-7.708781188949558327e-01,1.318277715058059352e-01,-2.241641311505097711e+00,-1.429426898016020464e-01,1.775364669186029198e+00
6.860976718252232986e-01,-4.765106922492481356e-01,-9.510614067815044148e-01,-6.040776087115240500e-01,3.543806498941830530e-01,1.469180561565495147e+00,-9.850315812365123547e-02,1.598634816979568107e+00,5.235862541770333056e-01,-7.392088036162407505e-01,-3.156877564481614939e-01,-2.623769876969044845e-01,3.082903067811729736e-01,2.312887579952954464e+00,-5.098952695143414982e-01,-1.568944767980115784e-01
-3.738960608143666597e-01,7.103751355669450929e-01,1.526780290762531189e+00,2.861173437401384190e-01,-1.518496956314276058e+00,-1.587465455143860060e+00,-1.347822634187471502e+00,3.385144770104164813e-01,-1.670487001546997030e+00,-7.165849433733727514e-01,-1.669728683915497891e+00,7.427686784003844078e-01,-1.262296925819943239e+00,-9.320735442693115491e-01,1.503424902563433641e+00,-1.457429570977903932e+00
-6.488235213343918062e-01,-1.560913267778553992e+00,-2.464593938893469005e-01,1.035797127957148955e+00,6.827987078161530665e-02,-6.105414797941660643e-01,4.522040465894366923e-01,7.457393733357262633e-01,-2.554273736163105823e+00,1.214054679426244121e+00,-1.032462224498780445e+00,-7.957610064473458200e-02,-1.583957491637626447e-01,8.794760831763356324e-01,-1.525522760231300623e+00,6.627820418846995798e-01
-7.414407938488007943e-01,-6.196732772094032393e-01,8.470214883096428560e-01,1.871281303876083657e-01,1.222301342202179564e+00,1.493028339940896787e+00,-1.278918906822360535e+00,3.361915776819442980e-01,-3.894003778398247295e-01,2.242491401276748508e+00,8.503896636402292764e-01,-7.604270792373030163e-01,-4.389916543967723947e-03,1.618627941108045531e+00,5.341023183837012578e-01,-6.009238344673606402e-01
4.009600851146092326e-01,4.611122632347015582e-01,1.489140457880933632e-01,2.229129206917402684e+00,-7.436917696280068713e-01,-1.235954956130071114e+00,-9.565434226634533799e-01,9.864083736964532889e-01,1.016054208391558022e+00,-4.935161079773820458e-01,-1.744435117135966218e+00,8.676062139245112048e-01,-1.461637962270644908e-01,2.510261220599375176e-01,-1.323773558785169335e+00,1.759003167556996816e+00
-1.199368204001834526e+00,-5.750792567114725307e-01,-8.322605711786231764e-01,1.040339604561143494e+00,6.984134165161627328e-01,1.052325333549886555e+00,-9.297639337782972468e-01,5.735931732752046486e-01,-6.575325170370238670e-01,-6.075334511428139850e-01,-4.819899233028385188e-01,-7.272120470677643223e-01,3.406516232653289955e-01,-1.815437924717555884e-01,-1.584178748297204731e+00,-1.258221419201717373e+00
-6.627431775430508987e-01,1.315631876966661729e+00,4.591898068733499816e-01,2.442031270654116404e-01,7.711517468350129745e-01,-4.701332735322155676e-01,1.258804068674098664e+00,-6.405252288758631618e-01,8.740420835103260289e-02,1.604324435762428447e+00,-9.880515996189104602e-03,1.343096029508503486e+00,5.550225377739509414e-01,3.016579332729043550e-01,1.122458255183644171e+00,9.004359596086931594e-01
2.374824329277349211e+00,2.083168601567271683e+00,7.595822101374701818e-01,7.816801696562694080e-01,2.222212224885931509e+00,-1.296448961403106059e+00,-1.004808369221993791e+00,3.571017388649828650e-01,2.696107833216552230e-01,-2.333066698834676544e-01,1.074903821433685014e+00,-3.941492734296230677e-02,-3.212080022816955482e-01,-1.801982493666144824e+00,2.523261488624926052e+00,-7.320469975057791734e-01
-1.350104451107426273e+00,9.310742986524089826e-02,-5.842211522568122595e-01,9.901450750382655430e-01,2.874506171405412647e-01,-8.124956056454127884e-01,5.611302047405298810e-01,1.707468501434556973e+00,2.761203270386966557e-01,-3.062630779113050927e+00,5.724717608095115651e-01,-1.014345477148935304e+00,7.612352824915206151e-01,-1.298626766820385262e-02,-7.777460625965986196e-01,7.494071304851723792e-01
3.030829753668363158e-01,1.402645709708270072e-01,-3.501989222126420942e-01,-4.745209853401253230e-01,-1.362703231887784305e+00,4.544740248199285459e-01,-4.088951303449014918e-02,-5.711802474635361282e-01,-1.560998586757713635e+00,-8.530397024873997980e-01,1.489692296999260535e+00,-2.569897048506626369e-01,1.635223720678964376e+00,-1.527900988940825266e+00,1.703890366789975186e-01,-3.911331270590985287e-01
4.690820263943840801e-02,1.629892710935057831e+00,-2.107889974144223078e-01,-7.519256478601288318e-01,-1.836665647664126044e-01,1.998300058988979749e-02,-4.408663168058047366e-01,2.527661560466225144e+00,-7.245397357248355430e-01,6.928166997143131445e-01,8.124727717559328266e-02,4.834534124597001936e-01,-8.133668147981959473e-02,-9.986506229010641000e-01,-2.360051285453429737e-01,-6.968508098339992740e-01
9.126492269565575910e-01,-1.326768749363126387e+00,3.916462445076064891e-01,-5.560610013874826008e-01,-1.152899992118465583e-01,1.999142151604241802e+00,-1.945640724127048582e+00,-1.264961802230686327e+00,9.307795642310096040e-01,-4.952038804361134638e-01,-1.671269148491491552e-01,-9.208560871939273085e-01,2.314529836303799160e-01,-2.889885311599899032e-01,5.507123207116997321e-01,-8.450515796362015886e-01
2.240682212013553887e+00,1.407843645919592823e-01,-3.057444927332176210e+00,8.936116921393606749e-02,4.118582884587059789e-01,5.961980925985286284e-01,-9.539582047231423001e-01,4.940662916951060052e-02,-1.849403708388844270e-01,1.041265716511394324e+00,9.502474805902891841e-01,-1.093298814939460684e-01,-1.179534925807733670e+00,7.663942178782459091e-01,-1.093243758647591379e+00,-5.893845257062007015e-01
7.921875672484912645e-01,-2.822676325751994675e+00,2.093606665837537684e-01,8.804147083280204622e-02,7.495191280622833796e-01,1.382930645481976084e+00,2.289587536548999269e-01,-1.497353643542215229e-01,-1.061639540427806061e+00,-1.810122597116823884e-01,-2.730241961154362962e-02,8.057326558902859759e-01,-1.571727260306781532e-02,2.685920906956351106e-01,-9.447819849383560786e-01,9.963006904512906603e-01
1.663553944434446707e+00,4.125908466604999991e-01,-1.379399335568513019e+00,-2.148491422613697299e+00,4.779613152628956474e-01,1.162660805882307580e+00,-7.971251020689972266e-01,1.035719748042126076e+00,2.460183953652519850e+00,5.441670374144725875e-01,2.797908327653014227e-01,-7.993102001310243843e-01,9.221947633975843273e-01,1.919341482219807826e+00,5.702398274157604030e-01,4.582967458641330066e-02
-6.163779137479942216e-01,-7.362302032105103589e-01,-7.005711474031321995e-01,-1.690406314668292831e+00,6.022306110623443232e-01,1.473988302237165260e-01,8.116350141843895472e-01,1.252983290941729111e+00,-6.856842521339029384e-01,1.655468705614232761e+00,-6.232573157080466553e-01,5.329298668715898302e-01,4.156934307653968319e-01,-9.372452560426449697e-01,2.588384065448215421e-01,-1.967339015150443293e-01
-8.314713605762932280e-01,-1.075767674905654114e-01,-1.061299411046593200e+00,1.101906578725757146e+00,-1.175416274850057258e-01,4.029915189608189729e-01,1.292827867242023032e+00,-2.204046190611235467e-01,-2.668166239307743215e-01,3.912834121938931209e-01,-1.201687044465395759e+00,6.229990955939667119e-01,-6.216979713309390698e-01,4.416689321371418120e-01,-5.221086150353525523e-01,-3.016838852060344522e-01
-9.163595302064610204e-02,-6.351830192471439318e-01,1.501630796108753552e-01,8.089045398551552440e-03,-2.388468120439749320e+00,6.791311435232374460e-01,5.084956884960808443e-01,-1.947899320469580919e+00,5.793686294498440192e-01,1.758151573646344001e+00,1.806407674312746403e+00,-1.949640271613209963e-01,-5.290357021852255814e-02,-8.808462451993779307e-01,-3.912222128555674638e-01,-2.986372759205672134e-01
1.250621451350105717e+00,4.604591617726440378e-02,1.210207096515816261e+00,-1.307640588226949285e+00,3.183351621488411110e-01,6.470115057871330677e-01,-3.742869833118325218e-01,-5.014220430300729836e-01,5.683091279805939644e-01,-8.374075655223489623e-01,-4.858459717697137248e-01,1.350434231406244523e+00,-1.470832900638361140e+00,-3.872906418248797666e-01,1.544218994456363570e+00,2.523504371035871219e-01
-3.049314053150133930e-01,1.643525190085560750e-01,-1.125692325414286543e+00,5.051516365840000855e-01,-1.084396388570909364e+00,-7.141499992116515649e-01,6.525565505655910314e-01,5.733375333103720717e-01,4.631418548246672984e-01,8.343794882255322065e-01,9.039282648008063470e-01,6.690311512084287093e-01,1.486417245919774421e+00,-2.086987493239370328e-01,-4.263214650016087792e-01,6.053631858212086270e-01
4.137254643642521157e-01,-1.128189265952719511e+00,-1.225667880266694709e+00,-8.381682306271880378e-01,-1.211623618581844086e+00,2.060444578956640016e-01,7.340193146648996692e-01,8.657949935019627619e-01,1.029734535724177391e+00,-5.715658890130584924e-01,4.786697052613157061e-02,8.460242801431360204e-01,5.944385849220081841e-01,2.903428909393261370e-01,-5.505475787299130008e-01,2.152721583880846112e-01
7.340682870610796273e-01,3.160548139927102929e-01,9.471770897096674080e-01,-1.844732012626622009e-01,1.934035808512384991e+00,-1.123050491219699465e+00,1.066672656497026361e+00,-1.180893296339407428e+00,-8.573864728703353699e-02,-1.754798031125337221e-01,-1.123013404372584567e+00,2.088038689810014781e-01,-3.464187617580337664e-01,6.567703988865628562e-01,2.629849222073427639e-01,-1.318529442792949480e+00
8.436166856396021263e-01,1.206418032689239972e+00,-8.107168465355937270e-01,-1.980587126622231020e+00,1.258998761789271725e+00,1.615652783012527571e+00,-1.580498258390677480e+00,-2.125170627369664444e+00,-5.973232026922152826e-01,-7.899591204700490144e-02,-4.200091026569680586e-01,1.335694351005388025e+00,-1.497557554196048413e+00,1.703316267723417710e+00,-3.719311031154948211e-02,-4.577253382361668455e-01
1.002347573814922899e-01,-5.724426680084689911e-01,1.385719088910954078e+00,1.112270487382648748e-01,5.298508811080182568e-01,6.067823591565089103e-01,-1.009540488843517214e-01,2.066352989698947873e+00,3.496578733398297834e-01,-1.838006025750289929e+00,1.674089339813495281e+00,8.392389473751002971e-01,-1.805585860387850516e-01,4.925610882765601994e-01,-6.978851631904776642e-01,5.275897693902541485e-01
7.514262156689894834e-01,1.489409018095590564e+00,7.138290118431949161e-01,4.866792762292526664e-01,5.013821708265224775e-01,-3.131640422116140354e-01,-5.599963645487824326e-01,-2.256116490380635220e-01,1.290197332406961106e+00,1.213031453986337826e+00,3.778257684158397023e-01,-6.209270779119486772e-01,-1.481549310541919073e+00,-3.787475850014239698e-01,-1.712731314617968181e-01,-7.091744311605482354e-01
9.951670041923309507e-01,5.047930843088287156e-02,-2.391163864676452366e+00,-1.304488108649980160e-01,1.157839049349067118e+00,-6.260559525466950770e-02,-1.650196379027820681e-01,-5.302536487316830138e-01,-1.916023137760354891e-02,-4.667507872021789406e-01,-1.401708799559967078e+00,-1.591214799827206372e-01,-1.832237009996932731e+00,-2.555094319818860260e-01,2.855392363185138213e-02,-5.882915972744150457e-01
7.171657511216429359e-01,-8.304685885186214866e-01,-2.508189802647068589e+00,-3.896834745070690831e-01,1.341975275652046662e+00,8.756531600881347632e-01,1.416018121739638369e+00,1.488176396861801587e+00,-7.006918480070504218e-01,2.318848485930487258e-02,-8.708972315132573749e-01,3.816025394601444964e-01,-2.109322047984242054e+00,-5.772207525128452144e-01,-3.424537960674277626e-01,-9.920001179852621087e-01
6.430564719064238988e-01,6.819402100009201995e-01,3.172864713716967433e-01,1.642146207033061134e-01,-6.326460330108628627e-01,7.416321268018024604e-01,1.369308286181187384e+00,-1.259215801690752423e+00,6.571271034473986639e-01,7.845324959009021271e-01,6.948929137448662807e-01,-1.438949436209004284e+00,-1.261107834561521868e+00,4.681039132317875717e-01,-1.728609594081443879e+00,4.566846539638974578e-01
-5.082678992946486618e-01,8.628589006740322587e-01,3.278660026162592556e-01,1.959330272184909294e-01,-6.792698448265634958e-01,7.282379949794802743e-01,2.772088675443147923e-02,-1.245702427963409686e+00,5.228287499211297096e-01,1.843277972078028570e+00,1.385407310720073948e+00,-6.381348732259488621e-01,1.633577453510034028e+00,-1.100441738610628883e+00,-2.407108059077664564e+00,-5.018979227430985235e-01
-8.986355005176714927e-01,-1.427629733649174448e-02,-5.277246596202290752e-01,3.664093699683118044e-01,-3.474249679106377608e-01,6.266106312907117337e-02,9.578202486984211950e-01,9.815381301308917505e-01,-1.511467759335752614e+00,2.014367439483135888e-02,-1.096045528981933082e+00,-5.845878815725488176e-01,-7.004185834965725999e-02,7.971834969741540267e-01,-1.643725302293106427e+00,-3.912842981176867796e-01
-5.700535861641270463e-01,-6.563100384679066909e-03,1.323159072051723895e-01,-1.132203039186272520e+00,3.539157777367066271e-01,1.059502594134659748e-01,6.348976851974744706e-01,1.412765473393173821e+00,-1.602379797177185150e+00,-3.534238705535970304e-01,9.796139547350742882e-01,-1.802106039377399105e+00,-9.203400792641681649e-01,-3.511705125133072758e-01,1.624983495861315630e+00,-8.588103046941371055e-01
-1.243956970798179684e+00,-5.323497880105089453e-03,-2.678759201003487189e-01,-1.832735880570201425e+00,-1.346231485085910951e+00,-1.711154720314008448e-01,1.986256104186308269e+00,2.821297918358416923e-01,-8.859074971155440625e-01,1.626478511209713540e+00,2.900263015496229890e+00,1.672412875260586296e-01,6.425126446853215434e-01,-2.240295916987100067e-01,2.130327714688435403e+00,-1.760894012368428019e+00
1.529774725833598845e-02,9.288284413460300426e-01,7.861341749424792802e-01,-3.051775621471374267e-01,-7.567905502006769813e-01,-1.138724951556848275e+00,4.499426942218610059e-01,-1.628575420301399124e+00,2.667136182348279760e-01,-1.356501172113547593e+00,-6.142297083542971325e-01,1.934550527338703141e-01,-1.330278723069915417e-02,2.448264590569877996e-01,-1.031031297117575241e+00,-2.597541800163276071e-01
-3.439572092285610450e-01,-2.832752675036705470e-01,-3.748748893293246676e-01,6.147039779329592779e-01,2.205281110536106315e+00,1.897926526635524969e+00,-2.014831512992405205e-01,8.649031509282038843e-02,7.320483308910720188e-01,-2.372125961338199751e+00,1.198823017984140815e+00,1.491220027651401825e+00,-1.069505664309443826e+00,1.852006612050595413e-01,-3.422366407449315417e-01,1.118981394471416646e+00
-1.338585717377763107e+00,2.641586152809159982e-01,-7.555520480643551640e-01,-2.877190238778654097e-01,1.979550053986019881e-02,-1.943686749344283315e+00,-1.583856516460511454e-01,3.372347794077801830e-01,-9.120057423699956534e-01,5.387970112632489705e-02,1.160183579336249604e+00,7.754773680979460959e-01,-8.508978483058804443e-02,-1.550839014866030929e+00,3.686397903749143445e-01,-8.394446446674090900e-01
-1.705989571741849675e-01,2.446209731097301054e-01,-6.745430520486596082e-01,-1.233213227447337745e+00,3.414795560465196389e-01,1.081848368432002105e-01,8.582910094350850727e-01,1.416056254889969335e+00,-1.615579346428160479e+00,-2.635648916674232289e+00,-4.103884337573812657e-01,-1.822446119180624491e+00,-1.047045312633456238e+00,-1.601823579867392766e+00,1.254217358915765024e+00,1.827920063741076850e+00
-1.026156458885492784e+00,9.519377797395809360e-01,-5.611868855925545851e-01,-8.278634899125402180e-01,-3.590916170135859398e-01,-7.072823906367357027e-01,-2.726571033848221651e-02,1.178954643323284479e+00,1.344929808498376567e-01,6.227882657480892092e-01,3.615355810946520032e-01,-2.692658128004904228e+00,1.969768797142029682e-01,1.697320827052372527e+00,8.401352847377759892e-01,-2.233564698254099368e-01
-1.587223233142412981e-01,-5.561199936717632630e-02,7.275005860155309145e-01,8.094511356279011638e-01,-7.180911051563173761e-03,4.169909633429343399e-01,-4.487720696328191261e-01,-8.037311573400331977e-01,-6.139867525894270317e-01,-2.788713250074279504e-01,-6.998521606971821463e-01,-1.101196504220824761e-02,1.708854765893683680e-01,1.099169040052420332e+00,-4.022838880596383837e-01,1.610727893488903106e+00
-4.110354449754099471e-01,-5.455273194823004879e-01,1.018338979273663236e+00,2.566280560918655085e-01,-6.467832089501557302e-01,1.650274224285223079e+00,-1.223248484803860947e+00,-1.138459138430252482e+00,1.670857530682959169e+00,3.586172961933226655e-01,-9.501932787950858605e-01,-5.056653263698186462e-01,4.867416302172130615e-01,-7.443380634381313588e-01,-1.828152050289251207e+00,-5.709862357564260416e-01
1.033864086810623473e+00,-7.030852738567614502e-01,-4.629277668122299683e-01,4.693454375577021387e-01,2.323717867984984586e+00,2.859601088277267111e-01,-1.115044098961073482e+00,6.164256026079270034e-01,-1.168053838587158055e-01,1.133950472265293996e+00,-3.420094263234880749e-01,-4.891360986122815779e-01,1.065040179024285827e+00,-4.697304949141535291e-01,1.152851787226621294e+00,2.745150738710278038e-01
-5.002454187074018011e-01,-4.384461216297371178e-01,-8.042698489937740725e-01,-1.485832724915011616e+00,4.107564215012141640e-01,3.933797683834187042e-01,-1.461554515576555024e+00,-4.854205850484869522e-01,1.020812784052024108e-01,9.001802085823374933e-01,2.447754923972721708e-01,-5.527934222832924238e-01,1.100289321437894208e-01,-6.971289252156216421e-01,1.033915554248840296e+00,-1.670778153304846914e+00
-3.426337737153236085e-01,-1.542948050075940047e+00,1.385403589045652584e-01,2.237620097098026728e-01,9.025487453103228086e-01,-7.778714454718780313e-01,-5.849988114713901011e-01,1.037290824651469379e+00,4.411721816307828115e-01,2.299617270446921768e+00,-1.912273265174412318e-01,1.989853502984610389e-01,1.055639072645415455e+00,2.085897830403349307e-01,-3.725497216758751895e-01,8.931792909685860593e-01
-9.398928408401235890e-01,8.357393767468315193e-01,-1.762794619221202952e+00,6.077455309617735280e-01,6.590103207099936578e-01,-2.003073001865515401e+00,-8.222168491552654945e-01,-6.225853389841178309e-01,-7.977984401110929102e-01,2.165567642017835137e+00,-5.995647245959618843e-01,1.430266034158477195e+00,-2.884272969479070858e-01,6.727600447542486650e-02,-1.536126287878431862e+00,2.603498022092126107e-01
-1.199967546048174086e-02,-7.526949869249788261e-01,3.386880227889041972e-01,4.029814373232829539e-01,1.042837598074435546e+00,-7.066641691632641331e-01,6.205821479329377555e-01,-7.807060322988610412e-01,4.308006708798822748e-01,-1.978668133355302006e+00,1.705807209341447583e+00,3.387392342983926441e-01,-1.202043340516014769e-03,1.060101356958216945e+00,-3.443923853351675834e-01,-1.333598062943298634e+00
9.758151560185338580e-01,6.525104181002303605e-01,-1.827950139299409915e-01,5.569474985636388986e-01,-7.188590259183611497e-01,-6.198100914660373828e-01,-1.930121867421741993e-02,-9.972544929276727643e-01,-1.239795201294163096e+00,1.661043988745058639e-02,-6.517824663560602971e-01,2.697769684580945793e+00,3.547035382883012011e-01,-1.465106222803106206e+00,2.505760697252508162e-01,-2.038258979669028026e+00
-1.589579873439337598e+00,-3.669173270918216212e-02,-1.419857400761871835e+00,1.427514956463401763e+00,-1.556475917255836228e+00,-7.714398580797656724e-01,-8.274438260974587012e-01,-3.152884277599501961e-01,1.108879665446848906e+00,5.745566066893078583e-01,1.559442713489857857e+00,8.604645344508868865e-01,1.813091444305292343e+00,1.441776395115161202e+00,-7.599158965694359502e-02,3.311375260901071038e-01
9.186447416804496280e-01,1.944948741413825344e+00,1.138646902142259471e-01,-9.699752239674236387e-01,-5.771537519758339618e-01,-2.887785369615826769e-01,1.556195718106047954e+00,1.361757249279764714e+00,5.115771806145106293e-01,-1.019517012856751281e-01,5.053286195126294178e-01,3.769096528148347947e-01,-1.772181698571851927e-01,-2.687708876734666297e-01,-3.314210339832070890e-02,1.261263883004709596e+00
-9.051572984151038392e-01,6.199994636066085141e-01,4.638953251344137829e-01,-2.800607760698451965e-01,-7.544171303766560310e-01,5.838212351479589446e-02,-6.261809062224859938e-03,-4.950647495851128732e-01,2.092388532174353777e-01,-2.025399455680568117e+00,-8.700269493908590057e-01,2.669082463479119927e-01,9.695677584792683490e-01,1.042105978215927653e+00,-7.362724554836993507e-01,4.508509400885581941e-01
3.054409381333266227e-01,-5.041325732850253649e-01,-1.155331670893836149e+00,2.193353797078980261e+00,2.534182990664048396e-01,6.657416306821044572e-01,7.244717218001310854e-01,1.742111085282429306e+00,-1.256069979620893784e-01,7.349384754928514063e-01,7.541221305825965837e-01,-9.424274465448886917e-02,-1.750121551232242112e+00,-1.078973196854678518e+00,4.451133339311195147e-01,-1.051460396538730135e+00
-2.270696856871854408e-01,6.512619698199696439e-01,-2.218459101592066940e+00,8.961330387279713428e-01,4.071615763042782388e-02,3.958222383129157002e-02,-5.886775054435591237e-01,-4.081386434860982682e-02,2.015947315729238909e+00,1.569035790515491247e+00,-1.410298144304614476e-01,1.027180459612799135e+00,1.080207806069746063e-01,5.987865127580069835e-01,-2.369824567818208827e+00,-1.052743227471335308e+00
1.518351841301693206e+00,-5.287624407818126704e-01,-1.364789583015135477e-01,-4.973206782659588820e-01,6.600733596259354963e-01,-1.371044719165852799e+00,3.181350484493197101e-02,-3.231920331338585806e-01,2.698392375625315864e-01,-4.082321792973122587e-01,-1.753810747744589393e-01,-3.870853501730227575e-01,1.465703823958618424e+00,4.159422953656200517e-01,-7.677467708168905780e-02,-2.215278318699251126e-01
2.264678567634202111e-01,7.291527616919172283e-01,-1.929523745201472684e-01,-1.695298632942934036e+00,1.005371996168769738e-02,-1.511129441153729325e-01,-3.663796054951055647e-01,7.497542171823259327e-01,1.453922282084879170e+00,1.704186245360607144e+00,-8.134334064303604395e-01,3.813252446430520082e-01,6.599142789910869555e-02,3.847457728452652326e-01,4.440084357555031946e-01,-2.947508035769781376e-01
2.077793813468451933e+00,3.714478262502670103e-01,-1.991216765344868134e-01,-1.760292276974094294e+00,-8.668451518285404944e-01,-1.800940935192890446e+00,-1.256022270697969123e+00,-1.326199071543190611e+00,-8.845447757985446247e-01,-1.859893771363656079e+00,1.773494355542431233e-01,3.893089058149641901e-01,-1.074282525243758224e-01,2.267730696989392225e+00,4.532912406134055328e-01,9.242376042087944166e-01
-1.977518892193683264e+00,1.589649570133355727e+00,9.962413995396359745e-01,1.824158093059600194e+00,-2.872238317899099780e+00,4.224752033528090811e-01,1.492049100098749026e+00,-8.510739205220183567e-01,6.020726989908734561e-01,-7.728924382540308669e-01,1.167543561335414370e+00,-6.745505108239112646e-01,-1.899536812891541582e-01,2.371192512251101003e-01,4.254880066969947694e-01,7.375109987606168760e-01
1.477419120038208744e+00,-2.226945509721161454e+00,-8.233626893736067931e-01,3.660897576180114910e-01,1.057731657692552174e+00,1.816319733802796987e-01,-2.909373122016032931e-01,-5.483459213769374951e-01,-8.912157493898914540e-02,-1.611900421563292607e+00,1.199814617445286169e+00,1.944942690429985799e+00,6.427474999153727220e-01,1.288144288971318385e+00,-3.618796937130341340e-01,2.023399872051596660e+00
-3.338757073831559175e-01,-5.055495938295920810e-01,9.961587888107161781e-01,3.789425494035973396e-01,-4.312619624239690808e-01,9.424295682140351182e-01,5.156055426483938664e-01,-6.740360119884627466e-01,1.870393587989259254e+00,-3.722492681707507689e-01,5.713674808006612427e-01,4.390450884966086709e-01,-1.424654047464891660e-01,4.392846176399932134e-01,-4.851316334358780902e-02,1.073330656050206056e+00
9.784564571889169393e-01,-3.127574993246228230e-01,-1.252981938477433665e+00,8.106637667442354589e-01,-3.239532008799112517e-01,-1.558414448514070738e+00,1.071106339824667575e-01,1.863427838861995589e+00,-1.029022840861148591e+00,3.413776700907753588e-03,-7.887433218055341089e-02,-2.426139207582246327e-01,-3.014696530654085160e-01,1.208431818876314567e+00,-5.117525372366164005e-01,-1.955632074350737382e+00
-7.913004077540140013e-01,-9.222414011330939410e-01,1.048887407763911428e+00,1.404296912749414705e+00,-1.875703166927066359e-02,2.835713089485333849e-01,5.264369190086350958e-01,3.144291391643633804e-01,-6.228247976249516871e-01,4.308079266243782235e-01,-6.116456307481549226e-01,2.887394975660849128e-01,-2.373628994100974721e-01,2.777041021003028853e-01,1.444580566000206456e+00,-4.318293896884393968e-02
7.024125828818484907e-01,-6.449211319281324961e-01,-6.589753143399669222e-01,-1.246307692683646717e+00,-9.150276525665813621e-01,-1.605502579586359779e+00,4.900362478272272670e-01,1.031586905119268982e+00,-8.887630232401130120e-03,1.946542563904274603e+00,-8.874403243370887484e-01,8.961815317104920853e-01,5.718083513625756842e-01,8.442796753280061572e-02,1.825241381671647289e+00,8.517867456302887774e-01
-1.366123436932935586e+00,-1.444125929395537966e+00,1.057765730839935303e+00,1.694769373735009577e+00,1.916366782163535287e+00,8.469361778575036359e-01,-1.859822570963615140e+00,-4.682258333674154671e-01,1.479587803166645399e+00,5.879342738319524031e-01,4.668843115433716773e-01,1.052573950784203127e+00,1.360412450537195284e+00,3.000665441429369307e-01,2.836568618026427124e-01,-7.095538918176975685e-01
6.171011784768923869e-01,-5.878234181617854048e-01,2.855593711989372063e-01,1.200395276753682738e+00,5.774272179729008636e-01,7.712044558707840114e-01,6.866735290104046818e-01,-1.550549562037029760e+00,4.300493575577830629e-01,-9.643821391944960020e-01,9.561017195801991830e-01,4.150831798559047048e-01,1.564094713074712262e+00,-3.997012176028308383e-01,-1.944658816309038363e+00,-1.475380834152975940e+00
6.714388403780237324e-02,-3.149010135033871172e-01,1.128219363432135941e-01,3.378712167994059046e-01,4.262179312817740984e-01,2.275407597477562049e+00,3.692089084322145998e-01,5.399356215198222175e-01,-1.122335037596734253e+00,-1.246013677704085332e+00,-1.337173900834684348e+00,-2.889088680897720918e-02,6.439111224639225695e-01,6.652020146072341600e-01,-1.614625049346102292e-01,-2.589693828781107765e-01
-1.136156421741985750e-01,-7.047960223439584393e-01,5.907990548297282762e-01,-2.908406779574556067e-01,-2.669544188359025960e-01,-1.026796297167126726e+00,-1.296827720916646776e-01,4.988392079563490622e-01,1.177620276166845503e+00,1.127138294059968349e-01,7.648967702470327312e-01,-7.683312543190098376e-01,4.093910413918713798e-01,-4.490018583311978784e-01,-2.080403081685783528e-01,7.476552748220732791e-01
3.701685290291367725e-01,-1.769993504162354458e+00,-2.140091055538693166e-01,-2.889786146182598669e-03,3.210331390772852345e+00,-6.304824540394846633e-01,-6.710091010008883972e-01,-2.444034203041927922e-01,-6.648133456658837925e-01,2.004965951992669027e+00,-7.598144625839909905e-01,7.667391792293573038e-01,-4.352793714630822097e-01,1.334638902071700883e+00,-1.352031752392503172e+00,7.602870765154629007e-01
-8.099786545436059582e-01,-4.620464316483102740e-01,-1.243902145197036457e+00,1.220598007639674742e+00,-3.025777340483011835e-01,-6.550137583086412807e-02,-7.694413123631356211e-01,1.253345651552834505e+00,-4.282042308030818978e-01,-4.422555197256417547e-01,-1.436205255558856253e+00,-1.362784662220419551e-01,-8.821854361416450185e-01,-9.587198928078224935e-02,-9.631386923133275491e-02,9.431101337843452725e-01
-6.586571838354449149e-01,6.600484266002805411e-02,-1.680766168782427128e+00,6.007227626318881741e-01,-1.933519372341161224e+00,-3.928672289941633616e-02,2.254114091749978843e-01,-1.084660175415987915e+00,-3.398692444685614822e-01,-2.484508635948683430e-01,1.513666905526822037e-01,-1.761239525153213581e+00,-7.838349301001953373e-01,-1.609010071462910307e+00,8.494840198436504064e-01,-7.883743849164239759e-01
9.380466601338154353e-01,-1.508415750070069228e+00,1.881702756438577984e-01,-5.966514268941472965e-01,1.537907867822779995e+00,-1.045208549765425321e+00,3.040320704403437491e-01,4.350947515697810575e-01,-8.247938166493455903e-01,-3.290418725700681724e-01,4.252909748733556761e+00,-7.761174782711982578e-01,6.408054645954189832e-01,3.762498686765238243e-01,-1.506489348591631083e+00,-4.736194481381734711e-01
5.585213628260283780e-01,2.282277949130899208e-01,4.724778801766197356e-01,-1.525120372530429202e+00,5.833346683151490186e-01,1.918244324338100881e-01,-1.299993393691434740e+00,-4.846437315301798110e-01,9.073790065393320114e-01,-8.207251734247933417e-01,-3.067852570740577378e-01,-8.594446115384705154e-01,1.809865844796197387e-01,-9.563124563439101555e-01,-3.959667424136301128e-01,-1.591271982479421032e+00
-1.690098542106266977e-01,-5.639276181268035870e-01,7.874904467511637529e-01,-7.207853784733857516e-01,-8.623846025877214272e-01,-3.960867936053177191e-02,-2.174621024841351336e+00,1.396343396526926961e+00,-6.150876616183288403e-01,1.640206246420476410e-01,-1.110485472056373935e+00,-1.249844679083082832e+00,8.858338776113702240e-01,-6.627538547513455169e-01,-2.163567879515503112e+00,-9.474253836171879495e-02
9.724789476061772575e-01,-2.458061790243583067e-01,-1.207090667811537704e-01,-1.546336667182664604e+00,-6.560403413875600664e-01,1.760170590826840298e-01,-8.676985632871017096e-01,7.499827593417136562e-01,1.219374826275619883e+00,-1.175367806011413219e+00,2.004974704444808076e+00,-1.113271640959183489e-01,1.180796238172488577e+00,-2.693914027265524314e-01,-6.818653745539718924e-01,-2.666140411488652440e+00
-1.363207756957293793e+00,5.129458094712390226e-01,-1.218683432996780169e+00,-1.357890180865418239e+00,-2.813618405541934431e-01,1.496536831333899809e+00,-5.104817269569625893e-01,4.645621164258440516e-01,5.328739242164598489e-01,-8.492536393527408967e-01,1.319667831626261778e+00,3.963354150582186763e-01,5.470358512548654240e-01,-4.065063055864390207e-02,1.458573280369424574e-01,2.622200260234365921e+00
-6.568031498954741698e-01,-9.681823546331838615e-02,-7.273766284694382911e-01,1.512217597486769316e+00,1.411406921343818788e-01,5.234088277999853211e-01,2.688463901509980380e-01,1.333345726627655825e+00,-2.965966335422420830e-01,-7.414588803280207363e-02,-5.611625442023084887e-01,3.180190466981396291e-01,1.248273040888391083e+00,-4.700813132807036832e-01,-1.154015048408596700e+00,-3.473826754841984887e-01
5.385894112734306294e-01,-1.477242505803044170e-01,1.190409302069865616e+00,-1.750726346094460206e+00,-1.487066485582615005e+00,-1.046943802249171274e+00,6.067222736940749428e-01,1.149574179646747130e+00,2.456618734958281591e-01,1.502758406142972625e+00,3.467198418205281740e-01,1.075630857411882024e+00,-3.114608995838730188e-01,1.306713165810513111e+00,-6.158246422938909448e-02,-1.029964526013743997e+00
-9.975842155546329471e-01,-5.874507084411286773e-01,-1.195140335834512374e-01,4.061112275767987667e-02,3.317369856271790152e-01,-6.406884209552241582e-01,-1.184478287819733078e+00,-4.091395301310921662e-01,1.141249649844605196e+00,-7.179759172547506285e-01,-3.699830188929863484e-01,3.206972913083773746e-01,6.576886581876173477e-01,3.826547573313007211e-01,-9.699738444080101551e-01,-3.129398265695363945e-01
8.772067397685477941e-01,7.292611203175196621e-01,-2.382143695041380571e+00,-1.018377418492400155e+00,-9.876223114022804062e-01,4.027722115102018718e-01,3.837111907892171159e-01,2.287021322969614578e-01,1.636851009813580227e-01,5.072947916056363971e-01,-1.074887517215107113e+00,-1.329354432950061060e+00,-1.554606501919739037e+00,1.592675266991969041e+00,-4.985034987706226106e-01,1.276618099382368143e+00
-1.549452551854265447e+00,-2.687898318247317064e-01,-2.794805636453626008e+00,1.057356720490069346e+00,8.635937951519127020e-01,-7.067847005484212408e-01,3.869747119643281996e-01,-3.001374790541889714e-01,2.488628625388563387e-01,7.819819186687061441e-01,8.060611246174225197e-01,7.124818992677360574e-02,1.130933538775390268e+00,4.527661291762186124e-01,-8.285618783630571693e-01,1.098943532198226380e+00
1.924516181901371470e-01,4.667917509003621790e-01,-8.362761176108238909e-03,3.137588477719613356e-02,-8.192777565767838110e-01,1.190300669780035348e+00,9.284867130508913657e-01,-1.148118368484801088e+00,-2.269116919127590393e+00,8.111723108978395602e-02,-1.459691236954715921e+00,9.723346124749445707e-01,-8.916529937849987375e-01,-1.952257388292263585e+00,-7.342704775441794007e-01,-3.355322213854903812e-01
-1.675535106904316729e-01,1.650633009690426256e+00,-7.717589526642274489e-01,3.641517809311269338e-01,2.747799654063156627e-01,1.263024514885802696e-01,1.645664018078360213e-01,-3.196972350692761089e-01,3.712253169110532602e-01,4.353952646062356213e-01,-7.155857760490308417e-01,-3.299350750771329333e-01,7.990688435457210526e-01,-1.134532775150308703e+00,3.378382977100852780e-01,1.093997381214810938e+00
-9.360675088053143078e-01,3.257665506983006831e-01,-8.380660778174505721e-01,-1.643506881761186644e+00,-1.762955996739321129e+00,1.087099942961084587e+00,-1.024126100824529928e+00,4.129882930162684374e-03,-1.301700164383817526e+00,-5.363881113378701215e-01,-8.554657198090486192e-01,-3.708062599569380557e-01,6.159659421582267536e-01,-8.443778571131449473e-01,-5.979326689164238956e-02,1.213857879893288860e+00
-4.825320751170680822e-01,1.831897397131444505e+00,6.018297455871534085e-01,-1.194767766535845599e+00,2.422196629573727111e-01,-7.831657580348325154e-02,-1.517961245138462090e+00,6.521536399814816809e-01,-1.109479862335293721e+00,6.426191752910463961e-01,1.269157316848408934e+00,-6.856198856601756209e-01,-4.036995137911811860e-01,-1.159255802717943817e+00,3.736119729369120623e-01,-1.106354160934638786e+00
6.471709162350581801e-01,9.347271311485741974e-01,-6.401325335062330035e-01,3.600144941488245265e-01,9.616113229427910580e-01,-1.305310570816831772e+00,5.152989321929266620e-01,-6.948476747663433484e-01,-4.554581044124319522e-01,-6.893499248880911034e-01,-7.859800792482264375e-01,1.946810962077963059e-01,1.667521511394621569e+00,-5.605774548737956220e-01,-1.367497145684162918e+00,-1.089556376083961942e+00
9.374711608581686173e-01,-4.459484615444817557e-01,-1.672024269246952244e+00,-2.045862668831026188e+00,4.527090813528120705e-01,-5.572833725221841839e-01,-8.290009610445681076e-01,-1.679239350010465648e+00,-1.553505118889629832e+00,1.245376825036710738e-01,-2.303196446555988985e-01,-9.791577126582322599e-01,-8.032591196416082324e-01,7.201742797454817602e-01,2.156692158373902379e-01,-1.032554892206554165e+00
-4.037538289618484710e-01,2.134898081506377832e+00,-9.940909823111535593e-01,-1.938201003150674118e-01,6.076621129107092623e-01,-4.232723388062664682e-01,2.308144466498583680e-01,-8.708505432128569312e-01,2.625543068726120532e-01,9.857060982150219752e-01,-4.609493418332060721e-01,3.961270535685721406e-01,-3.869296992383002010e-02,-2.712904695035082692e-01,-8.813190080386892888e-02,1.194914253381417282e-02
7.920380652064064053e-01,5.854466453756125288e-01,8.277855039318110508e-01,-7.433245773892132036e-01,5.920354436973542800e-01,-1.756816538447789178e+00,-1.260853061547374754e+00,-1.431241137195057300e+00,2.364213974491562731e-01,-1.476091900334552065e+00,-6.007539365624222638e-01,-6.178106045819402592e-01,-1.808089642789419749e+00,5.302956653822130662e-01,-9.798179459687478277e-01,1.334316821563353850e+00
-6.580657501947020371e-01,-1.099422795721814783e+00,-5.657373615800264099e-01,-2.928390563102945543e-01,-7.622165806527847476e-01,7.988221868595907216e-01,-6.650460015525454238e-02,-1.351742657744217979e+00,-1.609453198542195318e-01,6.113550855217662061e-01,3.846762907792594666e-01,1.505224678795078264e+00,3.108123298992193986e-02,-4.381177629668209783e-01,-2.373161340334582203e-01,-7.615151039720087223e-01
2.170284117385151035e+00,3.408155022813594281e-01,-1.121971524455111779e-01,-1.837922378263306955e-01,-1.294367701802501269e-01,-1.003565411406363239e+00,6.730002712736391501e-01,-8.048568374122457847e-01,-1.553832681631539536e+00,7.707499324190838497e-01,-8.224474263873313706e-01,1.841766443729281777e+00,1.182096336795757763e+00,9.261942951220039633e-02,1.313687906694262608e+00,5.441506038688513902e-01
4.403039028963849355e-01,2.823519170814532964e-01,1.112018124922955931e+00,-1.359934375857014155e+00,1.006074018839251849e+00,1.392082961827269871e+00,-1.243731445708917915e+00,3.933852525270482327e-03,1.895368822275187881e+00,-1.333232925286871540e+00,-2.135005862111768737e-01,1.672921546899123424e+00,1.211376194351036606e+00,1.165785057467586538e+00,1.784185641589661531e+00,-2.062807775373597385e-01
-1.115676041660659479e+00,1.535594830645695907e+00,6.361679702366074274e-01,1.387211930695814166e-01,-6.690925924934454372e-01,9.688769540216745080e-01,-1.006731659369464738e-01,9.787041911068673494e-01,-1.656159340343654973e+00,1.104619580088540109e+00,-1.717004267800753325e+00,8.824159477035639076e-01,-3.945310897675303741e-01,-2.316115344323780578e-01,7.359781277388476040e-02,1.693896219594269281e+00
1.121017599580218516e+00,3.146035122839886178e+00,-1.190111761242392152e+00,-9.490934867804284858e-01,4.054865943637398495e-01,-8.455390267798048587e-01,5.695828399091900501e-02,-9.329566485512812424e-01,-1.123099262034164436e+00,-3.873807514570253296e-01,-8.211739067740467801e-01,-4.520176005621243109e-01,-3.025938366242389432e-02,1.644189027127638036e+00,-6.746092108630378226e-01,-2.852269162838957373e-01
2.511466765953516145e-01,-3.737603200210324328e-01,1.546207076055361972e-02,-1.235944670712501470e+00,-1.920359148435805408e-01,-2.522562272893975107e-03,1.664629023514064554e-01,-8.007450960868907064e-01,-5.466134859758019493e-01,9.037966472726165490e-01,-8.624317446287170785e-01,1.476740785202962092e-01,-8.118863914913609925e-01,1.284640275620655636e+00,-2.302685112676723656e-01,7.651678009535042291e-01
1.846367934172099101e+00,2.133998503296453686e-01,6.324837208873130834e-01,1.896863673345939194e+00,-3.474977528744153665e-01,2.557089724014731114e-01,3.458710068371487756e-01,2.473499968127472470e-01,-1.541324480646579509e-01,9.619533531360133227e-02,1.417160570205583836e+00,-3.692983095956359207e-01,1.873787762045755201e-01,2.386003622952628245e-01,6.791510840393756299e-01,-9.166767279851270045e-01
-6.433983114124302016e-01,5.972149391028683807e-01,2.889103924372016241e-01,3.116978508085824565e-02,1.188794369382234262e+00,-4.169559856996534752e-01,1.665938958895455846e+00,1.047319767022496295e+00,-1.294373666580261872e-01,-6.563043023095777029e-01,1.201379760117231132e+00,1.018162419170705046e+00,1.044706694757331356e+00,-6.328930731041535473e-01,-1.046302280308970323e+00,-1.084235836590392577e+00
-6.108991088000075287e-01,2.380751083134858004e-01,3.323641777408257170e-01,-6.939737190020442981e-01,-1.207007006200689236e+00,5.103771123453653552e-02,7.718032190040026164e-01,9.738325151264263235e-01,-9.620667501015679468e-01,-7.177092549327435123e-01,-1.649592779708988433e+00,-1.307952732220175607e-01,-1.453385530436262174e+00,1.004278214229797239e+00,1.103709967488048838e+00,7.436217618128726503e-01
1.081639868129794513e+00,-9.769141873951713295e-01,5.117027819064408067e-01,-6.962106197794619700e-01,7.960793265395100793e-01,8.256145323708828920e-01,-8.881960296857448200e-02,-4.525873899327924055e-01,-5.419189399698904896e-01,-9.334269694345005697e-02,-1.246776838619831698e-02,-3.513602826203497398e-01,4.645271001929726640e-01,2.239600849966380536e-01,-5.739942049998254803e-02,1.184820827729095027e+00
3.193344570400059035e-01,-4.368446446019664808e-01,6.551610831172897109e-01,-1.517087321387354359e+00,-1.916040215083685938e+00,-2.269425801142166688e-01,2.321784676648456225e-01,-6.008533679534290295e-01,-6.322498668238163422e-01,-4.866620660110748120e-01,4.093663538107017996e-01,4.368487154409533280e-01,3.642454288947384877e-01,-9.457633360282293733e-01,1.344025733495554320e+00,1.784349734146448485e+00
1.094474979141109167e-01,-9.964027366030153710e-02,2.315730670352516007e-01,8.126672831624198734e-02,3.625346924890560651e-01,1.410891439741967401e+00,1.004062425462191710e+00,1.139408510065011759e+00,-7.647302703557803394e-01,-9.051081178519267967e-01,-9.140650557678303700e-01,-6.537301474680156099e-01,6.665286457935349906e-01,-2.601430513147278134e-01,-5.015836942032215751e-01,-5.606421063037844155e-01
1.338798023221378641e-01,-1.860773591910092950e+00,-2.585592165759942884e-01,1.765842517325159344e-01,-1.252501397131349448e+00,-2.508938789874703978e+00,1.111056025601051322e+00,1.996111920229681536e+00,-1.331524420342862669e+00,3.798288448599720368e-01,-1.747513814346880467e+00,-8.464917704471947024e-01,7.929883692439045895e-01,-5.633456599462000058e-01,9.582857381597935653e-01,2.166675919467053735e-01
5.281682776130720569e-01,-1.732670755263597540e-02,-2.373066127384759749e-01,-1.939238820808604880e+00,4.515278104846773798e-03,1.154731415875881906e+00,-2.655688536533941102e-01,1.508452914389407651e+00,4.127971868107827569e-01,-2.433910404060669330e-01,1.140103410037164089e+00,4.844572618519060181e-01,1.068806018321298623e+00,4.169372172968286439e-01,-7.036105301446211602e-01,5.113655921366434542e-01
1.374923067109506958e+00,-5.153938115588599933e-01,-1.916150269097079140e-01,-7.306511589297838283e-01,2.716183164357426350e-01,4.569301957661756064e-02,-6.583319631132948935e-01,-1.693493033684654980e+00,-2.736594530417308518e-02,-1.387233483994166239e+00,1.555234701483515503e-02,1.067046207146032932e+00,-1.036198579531300012e+00,1.038437385405746705e+00,-6.669409553614434882e-01,7.031217028117378587e-02
1.011485853955848002e+00,-1.079153292841457334e+00,5.221555306857643686e-01,-1.351394778525764617e-01,-1.307583279211100846e+00,-1.262678117654618237e+00,-6.683774815783322110e-01,-9.779300166244619952e-01,-1.713796240562756035e-01,2.348421724243421327e-01,-3.951583464042448535e-01,3.146005902867337611e-01,1.009576264757474195e+00,-1.806032864017788064e+00,5.508791867908633400e-01,6.857441545009496098e-02
9.454740745401568613e-01,-2.313190585656594411e+00,2.592157825336703914e-01,3.641366223260344981e-01,6.806544685773459058e-01,-1.361089338379271485e+00,-6.680104280035015218e-01,3.959058682722418343e-01,-2.199457663505186122e+00,7.038790921568301995e-01,1.036384838794597751e+00,1.419934597696671519e+00,1.140359510655073683e+00,-1.069074549798572527e+00,9.437680537239305778e-01,5.353134640948614686e-01
4.616119497031921370e-01,-8.535129444040286117e-02,9.316230652246486332e-02,-2.063141089414915197e-01,-7.044759327774910984e-01,-4.884238664285909248e-01,1.242769303486842281e-01,2.415560679014028822e-01,-2.888411445674343714e-01,-1.066950257474832409e+00,-4.758292536797573136e-01,2.262123192187023013e-01,4.927701483975391317e-01,1.257700581524407779e+00,7.031984562999770150e-01,4.436054028034605579e-01
-3.381249696472199417e-01,4.980716479773160676e-01,3.329948348970836469e-01,-2.280551190381923665e-01,1.454407192323818210e+00,1.642881937384045088e+00,1.451116182083986850e-01,-3.381861818594389946e-01,3.664680941241321044e+00,4.976982378765441029e-01,-7.124519519298400105e-01,-2.682875537252419999e-03,-3.306205213362125583e-01,-1.529983743122697248e+00,-9.645764207360710829e-01,1.352741160381710772e-01
-3.896567141893919395e+00,2.014654317739570821e+00,-9.417657950364247688e-01,7.211815462009047994e-01,7.082701118625022163e-01,-2.903925363042975660e-01,-2.832816500618547395e-01,1.008329686439696893e+00,-1.012949212660497533e+00,7.695138538225386460e-02,-1.521516465853148370e+00,1.471191079623044851e-01,1.285549967405435146e+00,-1.214759801841871711e+00,-2.220765845092751434e+00,1.176085866144244374e+00
-1.546848280920282814e+00,-3.993765264304344753e-01,-3.883021445631574392e-02,-5.150196491715191005e-01,7.194773152961458917e-01,-1.713454052336504246e-02,-1.539515423341430156e-01,1.591969021388027206e-01,-4.305454768892211792e-01,2.968525249083055484e-01,-2.028247198920170580e-01,-1.551403625201428937e+00,3.776382790088844699e-01,-3.312886826967945675e-01,7.268487578236874080e-01,1.507414493617200479e+00
9.204729002190363829e-01,-7.517024533554585164e-02,8.101018456262959466e-02,7.932059281303028841e-01,1.609389025234031934e+00,-1.018289051652386812e+00,6.111247695864301388e-01,-1.364959659741832976e+00,9.248436603545006074e-01,3.379113106688144685e-01,-5.271491971078478417e-02,7.494858731051471379e-01,-1.286678509038141904e-01,2.087610773274587439e-01,-6.568232779654600839e-02,2.420333613181666673e-03
-2.139146984981054045e-01,-4.260973122011665892e-01,-1.170340645488143982e+00,8.758393367671317709e-01,1.479569899567263480e-01,1.836409903374343067e+00,5.841937908916641220e-01,2.926522014468847521e-01,-2.340709949123511435e-01,3.225139564556556704e-01,-5.550276738788269965e-02,1.908810750008983481e+00,2.180661089833379473e-01,-1.657364783297916588e-01,1.261711656153986283e+00,-1.373335666119666509e+00
8.137322596465318414e-01,-4.626856725791973490e-01,5.734425254377821801e-01,-8.160700983384621132e-01,-6.654076770772900107e-02,5.783489100375730496e-01,-7.930076506518850543e-01,3.571740173913166672e+00,1.180842918434867439e+00,3.566494358453525804e-01,2.046170359033243902e-01,-1.217690198183691619e+00,3.979558221401447993e-01,1.545064328453054969e+00,8.886200113610875917e-01,1.098067618491328501e+00
9.400558717475006043e-01,7.817798865183600565e-01,5.812059449193114347e-01,2.668724261209130533e-01,-1.069000031332616008e+00,-5.815244077248334920e-01,6.219530916823258204e-01,-1.780525175636750168e-01,-1.113261196588763102e+00,7.045437021556791857e-01,-1.073581943010904816e+00,6.570917002201616119e-01,-1.444426111047747208e+00,-9.879782584399091627e-01,6.915802096109914254e-01,-2.360358324318160561e-01
-1.226002858415376345e-01,1.576992024406542958e+00,-8.329710633244806484e-02,-1.428897068679654492e+00,-1.085935439922096346e-01,-2.886072719099909811e+00,1.628561683463312759e+00,-1.062969971019362303e+00,2.881522656830928231e-01,-1.661740120340190030e+00,-1.695050612759080089e+00,1.851920271619484692e+00,-6.217827836615564818e-01,5.737210897938851417e-01,-8.499270687419981929e-01,4.183126010592954636e-01
6.091323085674398286e-01,-4.668022451407968093e-02,5.464234938062463298e-01,-2.905809990916873309e-01,-7.444785997968686453e-02,-1.329636478354997653e+00,7.576437404854521329e-01,2.465624312243040184e-01,-2.538019890316315919e-01,3.661592025662350203e-01,6.053939584073001479e-01,1.948937088286743502e-01,4.053478680310507731e-01,-8.320316774270479498e-02,4.801622362486053786e-01,5.740368924557794905e-01
-1.602915584770712831e+00,-2.942229239019354681e-02,1.399976608466564354e+00,-2.327849424369870412e+00,-1.110874241973390575e+00,4.790261631005656578e-02,2.872985388942974061e-01,-6.021643682767647832e-01,4.497459651865430841e-01,5.295080238681479923e-01,-2.618375391592833723e-01,1.084106005504936299e+00,1.750341276951911662e-01,-3.689886614680282229e-01,-1.675615723438797222e-01,-5.450378324244654626e-01
2.121988616836075980e+00,7.155080052578396410e-01,-6.933514426511440398e-02,-2.856870285469066406e-01,-1.356333964038921813e+00,5.828003455213598416e-01,-3.728938192742574653e-01,-9.459441512428665710e-01,4.303558200472901718e-01,2.898648055434051685e+00,-3.032079575403715532e-01,-7.201036304932703080e-01,1.014169635404046588e+00,-1.259561843754984700e+00,7.100684724296209005e-01,-2.240282333464278242e-01
-2.599308979792362417e-01,2.237638613732742532e-01,2.859250345536779592e-01,-1.888830705463674819e+00,-7.290087424233500091e-01,-9.202076811722148530e-01,-4.577439394425141667e-02,2.035825922025707724e-01,3.798171709809778362e-01,6.914287993281485745e-02,-1.833050517279392277e+00,1.001170248839224453e+00,-2.071609683929319878e+00,-3.000423572898425761e-01,-1.237907703694924449e-01,9.570235916193103876e-01
8.475135855524864592e-01,6.029556129077335846e-01,1.045619556223418956e+00,-4.971690478034089256e-01,-2.481117590407091456e+00,3.913148315851184833e-01,7.113902879338164231e-01,-6.331986327143106497e-01,1.182871430334149654e+00,-8.212562634286808827e-02,-5.409432793047218302e-02,3.832204586162360482e-01,1.310094348088157279e+00,7.465540882692103253e-01,1.434555184857403631e+00,8.841450249448620236e-01
-9.214493112609528636e-01,2.821188585344989730e-01,1.594113297232822468e+00,-5.728049706388402829e-01,-1.869475890964938047e+00,4.253522649134535150e-01,4.296859165816892534e-01,2.769685338361907445e-01,6.038953858568750777e-01,2.507255052478990720e+00,-1.852237477697776580e+00,1.333984019237916208e+00,-4.441372310378899901e-01,4.823367851169707565e-01,1.673874462697565180e-01,1.930241219510383244e-01
4.936595490426694544e-01,1.205674243814723434e+00,1.439565330457422965e-01,2.351512212359631260e+00,-3.241326162905872055e-01,6.838382058378866812e-01,9.299205301943020974e-01,6.813735045446152050e-01,-4.708191544174849530e-01,7.180035664580504129e-01,-6.024365225042346284e-01,1.112509832725682379e+00,1.383236475994687797e+00,4.375137011236026607e-01,7.895045474560398457e-02,9.811851830307546374e-01
-2.486663318243267917e-01,-3.362579139472909873e-01,-1.134154671272118442e+00,1.368786161925971356e+00,8.193194794655784818e-01,-2.419316967673092567e+00,1.242587707313014128e-01,-3.409407186587157801e-01,-2.769975957293198121e-01,-1.177700187263671927e-01,1.303781016765457289e-02,-8.181704794479123521e-02,5.743470895878355353e-02,-4.612088283025501945e-02,-1.698808104675766650e-01,5.934132765692876621e-01
4.581963433912647488e-02,-8.165360235794709709e-01,-5.858018344405083733e-01,-1.255862360935879662e+00,-6.116100356841613905e-01,5.089135330386573841e-01,8.034608458309339118e-01,9.723467740608369159e-01,4.848260927670030584e-01,9.474710149481242460e-01,2.044149280179944572e+00,1.697348769514962274e+00,2.340002874455673898e-01,-1.402148169765197183e-01,-5.392974077729083965e-02,-3.428422301891486113e-01
-6.756033823693070595e-01,-4.301160561779739933e-01,4.375648650683319207e-01,1.031572468498500816e+00,-1.097357952209800702e+00,1.143420447813860985e+00,-7.818831449387010357e-01,1.652551285275786208e+00,1.853710873683735993e+00,5.592003371289033797e-01,-5.399956758000199475e-01,7.385330867087988027e-01,1.611182981222400334e+00,2.846428983040653893e-02,1.484664294643526450e+00,-3.889300235828200419e-02
3.299199317767279732e-02,-3.004851664919437337e-01,2.938502668702425158e-01,1.891229430649128407e+00,-1.421003903013652869e-01,1.398437111453613713e-01,-6.091451240060681283e-01,2.872429165046049837e-01,-1.119295341227735330e+00,4.459957495116644854e-01,-1.055005597994309152e+00,1.542488082990293830e+00,-3.960257108811136018e-01,-1.698435688018065659e-01,1.156317451690736381e-01,2.994996500281279506e-01
7.284627515023596178e-01,-5.570155572543392664e-01,3.797520314873039093e-01,1.008426884231881981e+00,-5.625685913595155352e-01,1.126217354415950611e+00,-1.923706678729351083e-01,2.287305998995680378e-01,-7.627037213808837146e-01,2.226588808220930638e+00,3.327390722474775075e-01,8.416436492279971704e-01,5.310358348664201422e-01,-9.640053346859439598e-01,1.468075043517981237e+00,1.125205177846970939e+00
8.112720150717936951e-01,-4.630960113764640562e-01,-4.217076493496902945e-01,-9.380585580800647749e-01,-1.008827896105851663e+00,-1.919128103119467632e-01,1.589649315349161429e-01,7.542787832359982847e-01,-1.113415971705498553e+00,-7.820881101514175482e-01,-3.594957434182671774e-01,1.027037323117571815e-01,-1.766626891523358223e-01,-4.187988391538540744e-01,-1.011424487112799309e+00,1.612325040852227831e+00
8.952949698201652096e-01,4.380504787252970100e-01,-1.204828758206586831e-01,-1.127061387062521097e-01,4.364778166043177809e-01,-1.300694211026862890e+00,-2.353396969506302283e-01,-6.287738100014236275e-01,1.284248004276151434e-01,-6.560529401662423821e-01,1.369592327974777479e+00,-9.257134735243266466e-01,-9.248932648013604707e-01,-1.311798349671479347e+00,2.404828655949607097e-01,-6.081800949853101157e-01
-1.829101797380504602e+00,5.330726857502198213e-01,-1.384314607641921879e-01,-1.300669549289878296e-02,-7.926474207147891082e-01,-1.212498806749632702e-01,2.057698035654306867e+00,-4.033495061474942078e-01,4.824133446804918512e-01,-5.092296065188923748e-01,-6.823279481800622603e-01,1.155762583640687957e+00,1.880289952643303897e+00,-5.816137511803988192e-01,3.242837959290599259e-01,-2.491607107808785582e+00
1.760893563876037016e-01,6.375579881190496234e-01,1.825963188168310825e-01,1.546395711093149217e+00,2.339755974426295015e+00,-1.772774655605946492e+00,-6.727533932889189217e-01,-5.344242732897838133e-01,-7.095172492172302503e-01,-1.523624143009259635e+00,-2.526622525553791077e-01,3.695173582534946877e-01,-1.407528239422069616e+00,7.887313513920412023e-01,-5.258906322780905196e-01,-1.162068518027223191e-01
1.071114492659571926e+00,-2.656858545129999749e-01,-1.459576126841882759e-01,1.180535194391990339e-01,-1.603513521792600649e+00,1.204971990170855323e+00,5.500765627549094594e-01,8.782375774777203548e-01,-1.553353470739208264e+00,-4.225637107737013065e-01,-3.858438844760804787e-01,-1.087058332060941268e+00,-3.164875146519993132e-01,1.250478263796444223e+00,1.029407056111334429e+00,-1.107903855580745084e-01
-2.341006026002293294e-01,1.188877579497182868e+00,-4.434148377926654394e-01,-8.804570936585730534e-01,-1.659295684265431392e+00,7.800495650051367941e-03,-1.800656441083628989e-01,1.168982288320978835e+00,2.156785825013475044e+00,2.667863502264067876e-01,5.594640726879439585e-01,-5.297374639637811855e-01,-1.707944816105751551e+00,-3.909641922328523367e-01,-1.183801000585019025e+00,2.543320504904823309e+00
-1.196511938981943191e+00,1.660317108806545372e+00,-1.380477955205433593e+00,2.691790003320353453e-01,1.221505951717252181e+00,1.849777172139405179e-01,-8.837155451475745549e-01,-6.553985210840026499e-01,6.210961154839058640e-01,1.988439456792647553e+00,3.520187041808373052e-01,-1.449837712182936722e-01,9.205437938374344542e-01,3.581332167105236719e-01,-9.323223375355232934e-01,-3.597048138211931811e-01
4.479101043592799702e-01,-8.819316981361600138e-01,9.771189901314349113e-02,8.342463825498438457e-01,-2.607880528326878000e-01,-2.483495894596491338e-01,4.504045078408288466e-02,-3.324134394737703335e-01,1.930742828864250582e-01,-7.204674169561796626e-01,7.926509171173420354e-01,5.848014949593465239e-01,-1.679351202196640858e-01,9.655074603641073949e-01,6.444933637991498987e-01,8.060171573195100692e-01
-5.250951764784150821e-01,9.217728613624355249e-01,-5.320033081012321974e-01,-1.236787372791354755e+00,-1.407334497990085476e+00,-4.456891333359953578e-01,4.293822987094964017e-01,1.271030205952086156e+00,-2.724946652063819919e-01,1.133102453917019803e+00,-7.566037615641026948e-01,4.961478556757459857e-01,-1.237912232209578550e-01,-2.845525470536896417e+00,-4.602161434829076248e-01,-8.600189589654919642e-01
1.009329535783245246e+00,7.934672827296261610e-02,-4.189431225050641028e-01,9.726863020000747762e-01,-9.021999203299159165e-01,-8.754095785160206367e-01,-1.901214532660957524e+00,5.187031930643153377e-01,1.148442196112535507e+00,1.485115300511395953e-01,3.152484091749518380e-01,6.385782328408134978e-01,-2.657850207301968304e-01,-5.687212102419044596e-02,1.253669130280640198e+00,-1.353020601639538523e+00
-5.194972444475291773e-02,-6.822239015617286018e-02,7.206639515962559583e-01,-1.761377833804624593e-01,-5.202992181991259457e-01,-1.092790814011062039e+00,6.873170184928199811e-02,-1.212241951235141668e+00,1.398785492596659852e+00,1.282504878337632492e+00,-1.037839562986504927e+00,-7.513576263130941069e-01,-9.749551082189901186e-01,-6.910703727985221256e-01,5.270446344405786965e-01,-2.721319991652254577e-01
5.626038460959036369e-01,4.009840742549914405e-01,2.332208524369407121e-01,-6.557859669325174501e-01,-4.936513671128282543e-01,-4.058251951313239791e-01,-1.147152655723112646e+00,-3.944959895021300789e-02,-7.146300612385186879e-01,1.963677270913074757e+00,4.369542239557759333e-01,-6.987774329490239467e-01,1.417866196810461388e-01,-1.785244160185759599e+00,2.117954590204729204e-01,-2.180471604091223092e+00
-4.928875306016398672e-01,8.888965530022735484e-01,-7.235412679096409061e-01,4.886581550675126590e-02,-2.668559501094165398e-01,1.826921722453940466e+00,-5.705527889202889613e-02,2.460456291101353610e-01,-1.345678009169248401e+00,2.564105207203200010e-01,-1.123414423857056033e+00,-9.886462942425922051e-01,1.161838234906294565e+00,9.150085027718798392e-01,1.713560305227483482e+00,-2.098172876222466343e-01
1.362373377111990358e+00,1.869850287305674152e+00,-4.581616945380573291e-01,-2.182421940569832852e+00,4.854832198206424643e-01,-1.221596337945042715e-01,1.109058996337308534e+00,-7.221716924799127801e-02,3.135359532604700683e-01,9.741234654335714782e-02,-7.754108338541247925e-01,8.164979045756426412e-01,-1.133788464157968523e+00,-2.136745442168455522e+00,-3.272908878846315095e-01,-6.497389110790742217e-01
7.022428703236456293e-01,-6.010785448001308984e-01,1.746204731838664204e+00,-1.252918645127327535e+00,-1.482763679568696702e+00,-2.502491253290783368e-01,3.316329656234911494e-01,-1.605390434661896792e+00,1.552252131420012393e+00,-6.604754549738550695e-02,3.104130076633739854e-01,-5.730075328689456793e-01,-6.489980686039275026e-01,3.552366323163210771e-01,1.317867986071326603e-01,2.509848604210909162e-01
-2.459623429622513624e-01,-1.223468121135532272e+00,-3.045622562478004780e-01,-3.640770964769767803e-01,-1.317794290675104119e+00,-1.348471964731573047e+00,-4.900436147779252960e-01,3.404059334983687846e-01,-1.641192877554057128e-01,-1.517697259726881187e+00,-9.208855051744999631e-01,1.232789696783744171e+00,6.416105948628567646e-01,1.355061196638413790e-01,-6.759932820438836476e-01,5.679903341795086713e-02
-1.183582612206291879e-01,2.248581959033867442e-02,1.548633826987140472e+00,-3.184459850323313024e+00,-3.705813819248763852e-01,-1.432468896031269701e+00,-1.731688464105226588e-01,-6.001971263878872476e-01,-7.195217734194244708e-01,-9.941728374785687716e-01,3.729872180889149957e-01,4.562072821329870576e-01,3.861611815211442034e-01,7.806478562656578024e-01,2.677183295667940666e+00,-1.853950540839098549e-01
-4.793591664437378830e-01,-2.206485008305091311e-01,1.229666231815781385e+00,-4.112693927781598258e-01,-4.517732730103842242e-01,-1.104363364384899127e+00,6.262640683515643403e-01,5.979539735509653564e-01,6.986507200488866198e-01,1.279364877952852586e+00,-1.088925470680213170e+00,6.729479493362157394e-02,-1.461817681462086460e+00,-6.645953747338835260e-01,-4.967527311137004409e-01,2.648208469007876098e-01
1.602918452497377633e+00,1.095924380107322849e+00,-4.257613081648626840e-01,-4.241232480043043429e-01,-6.411017887929038039e-01,9.464785716547361449e-01,-2.423435106417534679e-01,1.140060128043128007e-01,2.868218055434432756e-01,5.896157237773504978e-01,-6.263052675322392515e-01,-1.297805701200260176e+00,6.718127737583432513e-01,8.970449734274088538e-01,-2.853826271726194741e-01,-1.550253191103147632e+00
5.008786447549764542e-01,-3.265541787355836778e-01,4.078327506226279153e-01,7.514376148186632243e-01,-9.491434911182323741e-01,1.007092326338587113e-01,-8.600623122140049759e-01,-2.701990994724013939e-01,-4.695266231152754877e-01,-1.015005569598687873e-01,-2.948719161850489878e-01,3.584752678264106485e-01,3.372727136126357772e-01,-1.305082135097846319e+00,3.313733767842348965e-01,6.033579528800129266e-01
9.501931873562392550e-01,5.396963367330618322e-01,5.883331256702806211e-01,3.263349621581723703e+00,-1.778032614219867913e+00,-9.148715135512230923e-02,4.173316240737522942e-01,2.206655351642883983e-02,9.421669134997120443e-01,1.702342054551697972e-02,1.922582134795051412e-01,-5.614284552801119821e-01,2.520165187045579014e+00,-1.766177817933658467e+00,4.593412142388731412e-01,-2.944093897958935391e-01
8.309964385459412961e-01,-5.260976870914795267e-01,-8.075353415077868302e-01,6.892692319249048571e-01,-4.268985320109311421e-01,7.910908687393470862e-01,-2.508431282364187442e-01,-1.742597292367234596e+00,1.766864610740890962e+00,-4.273862216449554885e-01,5.098635562197940674e-01,-5.547043951882272284e-01,8.512689570172525810e-01,1.569393545232687259e+00,7.139169594552731597e-03,-2.912099075887475408e-01
-1.155581995568923936e-01,9.570174397523876220e-01,1.545879013174433991e+00,5.564584383143057478e-01,9.913777130937354021e-02,-7.231955263202386464e-01,3.043610875570117447e-01,-9.014483526432915950e-01,1.309427625256497640e-01,-1.157491415015790837e-01,2.128602280844229533e-01,3.403165184093337459e-01,-2.623822482157838198e-01,9.871564131354847449e-01,4.953892562448598547e-01,7.713244639609033726e-01
-4.589505821759211068e-01,7.385764007348002425e-01,-2.346497904847180960e-01,-1.709188837540383255e-01,-6.866237440812041903e-01,-5.110096763741965586e-02,9.884346098401719516e-01,-3.784905292570549529e-01,9.826916923426330941e-01,1.336979900877939942e+00,-1.556625863733547277e+00,-1.062973047429845330e+00,3.030068482239545863e-02,-8.511507806329257075e-01,-5.351918492512429681e-01,2.203323800461800819e-01
-2.617494437102516613e-01,-4.571927767954567234e-01,-3.561454616942013596e-01,-7.788502289781897014e-02,8.556822527512562004e-01,-3.307519717985547836e-02,-1.259278124119555198e+00,-1.402079413638431804e+00,-3.557483825624225826e-01,5.365909649623542554e-01,8.392601350204632604e-01,1.728477903142783267e+00,-3.469654539059281451e-01,-4.644410713424034776e-01,4.442312593319476532e-02,7.066174384622784244e-01
6.779182706612685294e-01,1.206455252148479262e+00,2.735699053965641725e-01,1.345350063489063608e+00,1.308011076532339167e+00,6.709532866363531189e-01,-5.058630689972447581e-01,1.434229200937197080e+00,-9.027553148161732155e-01,7.707839083707100913e-01,1.343000985461280106e-01,-4.106371075108651292e-01,-1.710652214667919058e+00,1.411239241389003141e+00,-7.195108916320985815e-01,4.980955421832817809e-01
-8.555678033261503446e-01,-4.144518183640802378e-02,-6.090075720183567576e-01,-2.630577985158237819e-01,-1.188227930886490036e+00,3.027916210871447467e-01,6.980737031614815402e-01,2.957963234329972768e-01,-3.805519425380107235e-01,-4.829165339767884091e-01,-8.075351632569197080e-02,7.314381623865550131e-01,-7.609163369928612086e-01,1.758284437279373225e-01,8.922736510133152388e-01,8.158749068088226863e-01
-1.579608566330394370e-01,1.017014092086846899e+00,1.230372160533942161e+00,-1.803963703661002616e-01,2.411746967099833050e+00,-8.637115758845724800e-01,-3.210514108068090455e-01,3.156317246842599844e-01,6.409889800307425611e-01,-9.518565142756024722e-02,-4.843563709024741315e-01,5.585671104949989640e-01,-2.240533451867100512e-01,-3.909675757035902532e-01,1.819641739923844703e+00,-5.625781098571784877e-01
1.308380633506545321e+00,4.496722879214001822e-01,2.419895677906201692e-01,1.988014696637934176e+00,1.071446738322137548e+00,7.947715250622038319e-01,4.384921283460174180e-01,9.746803726312883720e-01,1.778923957828807134e-01,1.346116305229165533e-01,-1.722121584252815918e-01,-1.359861622271887560e+00,1.226020918007941551e+00,-5.987427762526247310e-01,-3.893639841085161923e-01,-1.365162668046389305e+00
-1.785330588824846298e+00,8.539289833745946634e-01,4.443388016835483345e-01,6.359853149134153671e-01,-1.154058124403329000e+00,2.799814821206135229e-01,4.923296513600488589e-01,-3.432059079481665220e-01,2.427801078795475687e-01,5.477731994447737618e-01,7.201607369184959140e-01,-1.018953076468126939e+00,-8.814597482828401276e-01,-1.290466393592432370e-01,4.022403305130064499e-01,-1.596489792138180430e+00
6.825334730689185392e-01,-6.114855235290097557e-01,-1.069343242784472681e+00,-1.419587996681030750e+00,1.306080913873404192e+00,-9.029739078004415109e-01,-2.867173814602936299e-01,-1.487954780536881128e+00,-7.662190839751743532e-01,-4.746582808741615089e-01,1.318407070539292514e+00,1.221588665483619163e-01,-5.466967621615913542e-01,7.036106289713847661e-02,2.815708212932153121e-01,1.457996978527872356e+00
9.747274766350474406e-01,2.631877788123440642e-01,-8.865039228810682737e-01,-8.831705006399652100e-03,-2.745377725846954164e-01,-6.992831610383555552e-02,5.994675322358475889e-01,3.194165041452675657e-01,9.405186375336336280e-01,-4.738066894363177628e-01,-5.375878711736821192e-01,6.732033330563286233e-01,8.934688605941365491e-01,-7.245796429812232375e-01,-9.053423523424510844e-01,-1.588018473834038324e-01
-2.193617190648077808e-01,4.828826333917202729e-01,-8.162410224307414808e-01,-8.305692044809218633e-01,8.194527148542680717e-01,-2.292706439092832005e-01,6.545661061615644094e-01,3.290817905133545940e-02,6.717768113179586331e-01,-1.333251325508445495e+00,4.914566174054354475e-01,9.072854211102867605e-01,6.538279961893073144e-01,6.321566341947487677e-01,4.584184923264562062e-01,-1.133920027080758341e+00
-1.307719010330888609e-01,-9.529574600350734781e-02,2.435883741115021373e+00,5.168639357635308462e-01,4.542621261288601331e-01,-3.883243914485821069e-01,5.376203437348174852e-01,1.387506653686815028e+00,1.923234753249636109e+00,-2.243820140175253997e+00,8.179397456580557169e-01,-9.801871986821719673e-01,6.938105538727725730e-01,9.088392268157213794e-01,-2.577675146730195044e-01,-4.457818368283088528e-01
-5.044961673827550452e-01,4.916585323655457418e-01,-6.536863901779225161e-01,1.534302047905043986e-01,1.268120438281097995e+00,-2.749394573993022006e-01,3.172618849824461185e-01,-3.008865133161645750e-02,9.327695856921967010e-01,-3.314933522686963063e-01,-2.558152578691426648e-01,-3.992272847425422100e-01,2.337256585052439883e-01,-9.228019547909218634e-01,1.340200467008429541e+00,-2.765787495626217396e-01
-8.853373838032599918e-01,-1.035414992981180254e-01,2.259900325952565847e+00,-1.296965125671381891e+00,1.232419862116518328e+00,1.289081662843339249e+00,-1.722342786344001619e-01,-6.787840079236756585e-02,-3.512856988512316203e-01,2.934182909278108542e-01,1.564532968375576649e+00,-2.386558237268054661e-01,-6.782226686407867300e-01,-1.186918864935661899e+00,1.240969894797301132e+00,7.161181478601208461e-01
1.166348706490149212e+00,1.646722904905256524e+00,3.146811333415164835e-01,8.721882003152292562e-01,2.435817251682256046e+00,-1.673818682686277204e-01,6.455834493341927605e-01,-6.909535732195295488e-01,-9.525571674880470852e-01,-7.678583021168354783e-01,-5.952906480094449782e-01,-2.388802045633116322e-01,8.672595721969212912e-01,-1.244329185336452204e+00,-9.480484026608722026e-01,-5.783324528511465390e-01
6.290066307295906489e-02,-1.067789689334864178e+00,-1.250194537873031975e-01,-7.305858209876309184e-01,-1.203377004711281506e+00,-7.370443617919253398e-01,7.711240043513700737e-01,9.451797946647995108e-01,-1.541783615705390131e+00,1.080070994004779905e+00,7.417884637827566463e-01,-6.951461815680632927e-01,-5.128421299231546993e-01,-1.472331882428345562e+00,-2.408221255878657097e+00,-5.396592997687136295e-01
7.386351082949034197e-01,-1.064395186153048734e+00,8.070811634695964631e-01,-1.102373235849990252e+00,-1.666522957567335483e+00,7.928107653626211837e-01,3.832676075920449787e-01,1.504841314792682683e+00,-5.319874041038233914e-01,-2.306209849210322016e+00,6.425160545353436614e-01,8.083407868158850595e-01,1.759476964734266513e+00,-4.251783804270109490e-01,-3.523034345778402465e-01,7.877521715472597386e-01
6.487934380175469640e-01,5.127704161497577129e-01,2.783484640732662996e+00,-1.877460888913341286e+00,1.058501976418081858e+00,2.314877554190012676e-01,-2.751687118669341459e-01,-1.074780078950796636e+00,-8.964126631262597789e-01,1.531331812666204994e+00,2.392661934220617681e+00,7.766111238925829663e-02,1.189020475394826803e+00,4.424673057402339071e-01,1.742206275041934260e+00,-3.553439596731581829e-01
-9.057866531182163783e-01,-6.708209269515880147e-01,-7.922583510751146640e-01,4.654905844965042672e-01,-1.032553597284646907e+00,-1.896554582078389672e-01,-2.936794412585361780e-01,2.811130133057907626e-02,2.601209660049734751e-01,-4.049196564950325317e-01,-4.633524116909602530e-01,-1.390900404143861624e-01,-5.083009282070459767e-01,1.765451451518015025e-01,1.736367071608865498e+00,-5.218588740666375569e-01
-9.669463191818671310e-01,1.126706781771713572e+00,6.232272126145281810e-01,-2.436342054490758524e-01,1.422388249890795597e+00,-1.704194788725339749e-01,-7.028571536617999049e-01,6.639214139113778224e-01,-1.533635764163433501e+00,6.870063744155495422e-02,-5.610806463753946760e-01,-7.819796018800395654e-01,2.382306112495545580e+00,-5.753651514484421359e-01,-2.623503631030921768e-01,-1.758494667230002362e+00
1.645314678482341364e+00,1.610323842712565665e-02,-4.092038174060642630e-01,6.352439141421537538e-01,-3.920902332616680863e-01,-9.489535573831724413e-01,7.609799079637364905e-01,9.589464064416929334e-01,3.111983822842413483e-01,-2.586731458600070699e+00,-4.880883666775501784e-01,1.409281207624592636e+00,1.055553074096313493e+00,2.132647532413880220e-01,2.397374340476725041e-01,6.231389574468906845e-02
1.347909666538977813e+00,-5.180431047932508859e-01,1.010731495400657876e+00,1.382436135473363303e-01,9.697562431676438610e-01,-5.590418114880070233e-01,3.144777256979981450e-01,-5.919004887875165544e-01,9.566582662580368213e-02,8.194927268547209653e-01,-1.486511180648808272e+00,-2.443789447131582415e-01,2.595879117463204988e+00,6.289223550413610697e-01,1.905516637122317780e+00,-2.683284453009922466e+00
1.454212751487615751e+00,1.128199643440763733e+00,2.092526379634175537e+00,6.395082081143091957e-01,-5.721151565607498490e-01,-1.330271938865771553e+00,-3.053747168703102033e-01,-1.095841925755867141e+00,-1.403039244847672729e+00,-2.577718942672141411e-01,-5.803692652908111205e-01,-1.796850348872036873e+00,1.321771582034802828e+00,-7.088887315430800751e-01,-1.081787873135295008e+00,1.840049690193823750e-01
-6.772588792306551142e-02,1.072193215224537477e+00,-3.775911051323576628e-01,-7.805413465493872271e-01,-4.752216455472487722e-01,7.239041059763967959e-03,7.542825422514083389e-01,-4.424956758594000283e-01,-4.589483356331663377e-01,-1.576193459785619533e+00,-8.191293732463300614e-01,-6.853830899030584067e-01,1.832213443805926989e+00,1.609429627511659022e-01,1.317223076923369707e+00,-2.318884424952697421e-01
7.912713271158823281e-01,7.390776846663035249e-01,8.505382340034011168e-01,-5.972662598565241510e-01,-1.130121106017434096e+00,-4.960600183450388223e-01,-2.550145973630367213e-01,1.233685582180415574e+00,1.217962113630193799e-01,-1.432964855051171993e+00,1.130627491595390388e-01,-1.016246146525448951e-01,-2.319697408919712267e-01,3.850419197416171668e-01,1.061709476881859127e+00,-1.789116484750028047e+00
3.251331113013791185e-01,4.926309745503343884e-01,-2.908329130384745831e-01,-3.813951502015588968e-01,-1.923201045540681997e-01,-9.669018141629328600e-01,-7.175837414765022793e-01,-1.432769810581411729e+00,-1.680063853372710803e-01,-6.016560225666131578e-02,1.090811635122552303e+00,-4.764235622793019376e-01,-7.181092479941157680e-02,3.235653070485720040e-01,-2.315409684809179372e-02,-2.144749474078266882e+00
-3.826304592707362451e-01,-9.074404542015418462e-01,-4.701180397111215381e-01,-1.234850061338868876e+00,-4.713130239118004661e-01,6.348475286057900790e-01,7.764201203458552802e-01,1.377074361873530606e+00,2.951920383188664787e-01,-8.157189477721663584e-01,-2.146008394053493973e+00,-9.824180037221068584e-01,1.024343711498084009e+00,1.547457486257060033e+00,1.144245384291307843e+00,3.887401613815450463e-01
-8.856423693207172709e-01,-5.862185233484444868e-01,-6.295589298398662770e-01,5.951209299510029638e-01,-1.286362167773656084e+00,-4.894910115417426266e-01,1.054685416885400295e+00,-4.085740240834553200e-02,-1.934923264750521288e-01,-2.696944761046869699e-02,5.296991868996073771e-01,-6.569498416029587728e-01,6.270057362668715051e-01,7.364794489120679577e-01,6.712403991412115856e-01,-3.088592016800775220e-01
7.020750804725500727e-01,1.471537317823830682e+00,1.981940836088593172e-01,-5.737551212913590210e-04,8.070838799235209304e-01,1.115575451355905967e+00,6.582219460833024227e-01,-1.015006703606297356e-01,3.054761563721989925e-01,4.910523119244277757e-01,-1.428499913496521279e+00,-7.752147258928236973e-01,-1.559204617973448947e-01,1.162936778563703255e+00,9.717789555074591856e-01,9.474310545693609420e-01
-1.111639152078704340e+00,-9.924337001597015595e-01,-3.016171833337032843e-02,-5.656952476999916879e-01,8.967406348653601533e-01,-1.438642980246110370e-01,-1.940918620074120471e-01,1.627510131499155799e+00,-2.404712587100093710e-02,2.891672597613215157e-01,1.860113504894933545e-01,1.550888151382876778e-01,2.569262636674007338e-01,4.676960656375173109e-01,6.000619881984704529e-01,3.058795388265918014e-01
5.025689992903232817e-01,-2.522431266236021763e+00,-1.365728617812338008e+00,-8.769494227580451051e-01,1.413910390566857078e+00,8.958097404076105219e-01,-1.174124281472624376e-02,-8.312175964457310107e-01,-3.570489142571723340e-01,1.292193444419386328e+00,-4.626509572067088460e-01,-4.021804898050310717e-01,-9.309395051221120987e-01,-1.656417383720265368e+00,5.587211843806160205e-01,-1.294482877928406106e+00
-1.832177693866312795e+00,1.034464524233684957e+00,5.421984739017458033e-01,7.742704610070194615e-02,8.660796307368999469e-02,1.641045741440271932e+00,-8.811029287693182555e-02,7.076045214289582441e-01,5.811385462894937959e-01,-7.702557455844467604e-01,1.091305988119125603e+00,1.318950523191163127e+00,2.340194084132920072e+00,-5.485615941554460306e-01,9.481375800902175355e-01,9.307147067232261761e-02
1.299062735756512543e+00,1.269327285046594200e+00,4.099350506286640328e-01,2.896830529415467814e-01,2.145807359393992475e-01,-1.067093230945294291e+00,2.325734769112318023e+00,5.296311308918631722e-02,-7.002645993150283799e-01,-3.688180903318873938e-01,1.533449441160940285e+00,-7.978578370691150612e-01,-8.306024336820377885e-01,-6.873772048953141756e-01,-1.559711026133422829e+00,-7.127678868035670634e-01
5.458248740255707832e-01,-1.274350482272145868e+00,-1.660462145282784130e+00,7.371542179341772361e-01,1.430444628804893092e+00,4.322165039284600607e-01,1.032375362372967675e+00,9.527009914961011017e-01,-7.837307546273128422e-02,3.097401640834557268e-01,-6.931443709053362046e-01,8.106440766050594382e-01,5.730486703870458776e-01,-1.142294133363112169e-01,-5.716572867878901842e-01,2.251167730234759912e+00
8.848953817356038920e-01,-2.427252791612562355e+00,6.474107782060787297e-01,6.086607712698925976e-01,1.606639572048647491e+00,-1.200435459084357781e+00,-3.034747754472122416e-01,-3.468888451684812302e-01,1.551467616132081950e+00,5.437042917912902062e-01,-1.509148243337295470e-01,-2.683039858816448353e-01,-1.433596891888726764e-02,1.914050350410418710e+00,9.646498741045568537e-03,1.729166741538760155e+00
-7.409188534615311905e-01,-1.284650617270014727e+00,1.315014464898514701e+00,2.061125205199702215e+00,-2.160737315853348758e-02,1.322123499923226198e-01,-5.574886814393206214e-01,5.701609911773342088e-01,1.445115219533919859e+00,-1.589839940163421561e+00,2.200035012726884176e+00,-5.354012194699742100e-01,1.579345782235447970e+00,1.346976155151333066e+00,1.563248220701271229e+00,1.474483988457390371e+00
1.122121880040389597e+00,3.496977915564694617e-01,-5.635642214769892577e-03,9.854397941331165534e-01,3.846429587918288595e-01,3.647680101179778256e-01,-4.386370981075319864e-01,1.457256989788282553e+00,2.119824453483662108e+00,3.727166755885245597e-01,3.177868363589214096e-01,-9.453798543959421874e-01,1.555420412480269798e-01,7.286108005312541547e-01,5.460749422284236904e-02,2.616827557292749074e-01
1.865963537741877287e+00,-5.938561558220956105e-01,-2.551374549924301238e-01,-1.247688498208329166e+00,-3.888273932397826732e-02,-3.839820045514057423e-01,-1.806895200504320675e-01,3.095100801436813098e-01,2.759422307197547108e-01,4.683819006412162644e-01,-3.931812702984062158e-01,-9.470353696458265746e-01,-6.242703175108609281e-01,-6.087889297972078895e-01,2.154339075669424730e-01,8.241632081502424656e-01
-2.771111767378212631e-01,-1.019948361925353320e+00,1.131490468126606697e+00,5.939898721614105676e-02,1.202352794618132492e+00,5.407721091166620697e-01,1.575684665447642185e+00,-2.794535865705531363e-01,-1.027999648597659244e+00,2.472189324806428057e-01,-1.808451287878927172e+00,2.828130036904194511e-01,-4.177516625924358740e-02,-5.824902217605379962e-01,-5.567030421900758669e-02,-5.145187049176936922e-01
2.254699560399900382e-01,5.612236878335086221e-01,6.648387223280808334e-01,-1.326534420646774681e-01,-4.217257919126641275e-01,-7.851357663452154245e-01,1.031695576761655575e+00,-2.021778606122503152e+00,1.517849961923734670e+00,-9.892294303996296279e-01,5.803071567806111775e-01,-3.543734587638888711e-01,-5.152386485151516649e-01,-4.872199144490806377e-01,-3.252717177635389700e-01,-3.482132395707822625e-01
2.691762342231180383e-01,2.719408274453474425e-02,1.004704402888105141e+00,-2.272771561997111611e+00,-1.013983013653964038e-01,1.365905820911616386e+00,-1.371172788167533740e+00,1.088366119205170929e-01,6.562372174007590209e-01,6.172364022550504842e-02,1.608112622124358237e+00,1.433770924115949086e+00,1.425541400506896261e+00,-1.116569947469747831e-01,-1.217995848623872668e+00,-1.355067587987828226e+00
4.058382991710090537e-01,-1.181367214366620511e+00,1.877303041828716434e+00,-2.737894935841292399e-01,-1.476915849736800679e+00,1.144917716814560116e+00,-4.813309555311007237e-01,-2.477104519846895503e-01,1.509489361011392194e+00,-1.817227433393793001e+00,-6.805416874950837025e-01,4.006270155903502994e-01,1.768281537635716383e-01,-3.493218503087995308e-01,1.289182333727100227e+00,7.562695093559311799e-01
-7.638170831602537625e-01,-1.974326274635465062e-01,3.402430727238361374e-01,1.004837010401403496e+00,-7.499462252579249810e-01,3.559186812722296422e-01,1.015806176146705209e+00,-1.160766427684225333e+00,-1.009825446371766633e+00,7.567084282957310393e-01,4.604672315143303329e-01,-5.021485054009539040e-01,1.316069255444240360e+00,-3.648885794609001421e-01,-3.998671959226445249e-01,-6.113371688484610100e-01
-1.377971217574684548e+00,-4.277617989332485604e-01,1.461713188175956191e+00,8.284897399158802633e-01,2.262953842723541553e-01,5.452082445234133212e-01,2.089627134862568791e+00,-6.797943533422928786e-01,-9.079864224957066021e-01,-1.441058759316454552e+00,6.910260729935504553e-01,1.133284806938117117e-01,-1.321542081467967922e+00,-6.012170559149081495e-01,7.838833723339124759e-01,4.787481970479589011e-01
-7.953172510984395371e-01,-6.303510345514027335e-01,2.800262390606109153e-01,-2.529328426673781660e+00,-6.583726859198167913e-01,-2.788885952220679254e+00,-1.342864274429396987e-01,-1.659943744168132160e-02,7.041810628805420524e-01,-1.250748954037038230e+00,6.347157857769381017e-01,-1.693274879799341603e-01,8.432177188064901574e-02,-9.504532806487200336e-01,-2.306285501936790883e-01,-9.496938300541617473e-01
-7.823380766546681464e-01,-9.083071525277329472e-02,7.261750392888570715e-01,-3.477474398922311138e-01,-3.683722859203558131e-01,-4.655730391053884420e-01,1.000772593476409345e+00,4.751104843256224175e-01,2.343848966255704103e-01,7.455517541921135027e-01,-3.573379564933977792e-01,-9.575882830209349050e-01,1.166511602874009013e+00,-1.345881318926868131e+00,-9.887688474358476975e-01,-2.294600305893334247e-01
4.924799468862429280e-02,-7.797414040776419197e-01,1.124949473633659158e+00,3.867214641298185041e-01,1.760331271884341131e+00,3.313871637759947530e-01,-6.791142788001341968e-01,-1.159080822900036889e+00,2.531481998511790898e-01,-1.955522260885905750e+00,1.397052357461633365e+00,-1.256685347944989761e+00,-6.762955373089160616e-02,-1.299086505658451518e+00,6.488285895012556592e-01,-1.497950041642734931e-01
-1.219847157331774845e+00,2.607743922087833455e-01,-9.351517968979669582e-02,5.311096784400366477e-01,-1.279113238572720190e+00,1.819271283297019259e-01,2.124361695355467261e-01,-6.263797650723701427e-01,2.197237175243090590e+00,2.266512548284247419e-01,-3.910200515554954626e-01,-6.598774207364420663e-01,2.562916712072205172e-01,-4.965546845986007485e-01,9.763094781709882319e-01,-1.436594536599027805e+00
2.280760345459984517e-01,1.073254814721705142e+00,6.786917219835335580e-01,-1.646625887581743691e-02,-4.446856781472522946e-01,5.126945003399258072e-01,-7.630460075247532670e-01,1.058999884963075955e+00,5.025585700969342762e-01,-3.832167263463204798e-01,-1.871502306963987117e+00,-5.817059405947505590e-01,5.011447523208604204e-01,8.117917200549331636e-01,-2.552735124380176579e+00,-1.065280122261735019e-01
5.817542042386530943e-02,6.252231714736133927e-01,3.258625658574640926e-01,4.128080285165872110e-01,-9.970278615574370562e-01,6.474099518801228470e-01,-4.672162643606863619e-01,6.865928160345025066e-01,-1.123920686910948152e+00,-7.679694047124941969e-01,2.610570002234076648e-01,-9.349775831065170184e-01,-1.895226115574173864e+00,-5.335455703447557901e-02,-1.482611132600482051e-01,-6.522180372531057035e-02
-1.069350324433888000e+00,-1.377902171352190175e+00,-2.830260907804228454e-01,-1.177516843111443778e+00,-4.154720368004446440e-01,4.030183300149216552e-01,7.189208716255059972e-01,1.943576284148172739e+00,1.027675471492989878e+00,3.541653595726130810e-01,3.182724247881653645e-01,-5.337731995989902778e-01,-6.246862322261030609e-02,-6.401568900743532797e-01,-5.295564831476893414e-02,-1.121541615023087246e+00
5.886161670801197676e-01,1.575734603773672804e+00,4.369347529044906864e-01,-4.957338553767757783e-01,-4.620709961863947446e-01,1.756679221102841248e+00,6.736309251334241521e-01,-4.530106888909150031e-01,-2.052611632095338923e+00,3.027432881041015045e-01,5.953891014084192190e-02,-2.489654424953341660e+00,8.595016862456685836e-01,5.931244236673001158e-01,1.208905116721835871e+00,-6.465000112084614559e-01
7.743527566268748608e-01,-5.397516871520476878e-01,-1.002425682168253340e+00,-9.356455573624190836e-02,8.143796976794587250e-02,2.010525197594692226e-01,-5.038314727387516179e-01,6.353033741679646740e-01,1.174100151776268641e-01,1.267856394338147119e+00,-6.024067336514669080e-01,-2.523325944045814229e+00,4.303580105742288997e-01,1.246411441680773002e+00,-6.210664380991025579e-01,2.765848135144550302e+00
1.856439806066774612e+00,1.228183933806836992e+00,-5.978820308129593197e-01,-1.550208304044113472e+00,2.485249661771543050e-01,6.017362557263452594e-01,-9.742356913026387621e-01,-1.703649762595844108e-01,6.272151114829787044e-01,-3.424141860386497593e-01,-1.407015445615743321e+00,-1.886921974452263395e+00,-6.581122080714610356e-02,2.165231437490282573e+00,3.640904074023492143e-01,3.153930496398653083e-01
-4.254328222911526458e-01,-6.835006099959521908e-01,-9.546262471111287562e-01,-6.909985000049143622e-01,-3.238222189739256018e-01,1.922800174283837649e+00,6.831859300336692864e-02,-6.090773052453196668e-01,-9.497864520481708039e-01,-1.182636135564913843e-01,-1.185186397732444830e+00,-1.634034938229773415e+00,1.513718255115249489e+00,7.848083374259171574e-01,1.858892288954837602e-01,-2.032611595435372398e-01
6.985741260356059801e-02,8.339134474101178585e-01,2.055926225839922239e+00,4.431937029565610753e-01,9.720413928822186911e-01,-2.134944256007943464e-01,2.592151059652705869e-01,8.325371348640422386e-01,1.528295832863696586e-02,-1.651863541189508844e+00,-1.214336953327230101e-01,-7.111353718432645854e-01,4.277082248347185284e-02,3.580207425845164937e-01,4.677011791964254539e-01,6.986567943241617229e-01
-6.618830778147518634e-01,-6.459355752311033427e-01,-5.232970949333084487e-01,-5.447850074943562104e-01,1.932485428362218025e-02,-1.936722375800427332e-01,-1.903634025906911109e+00,8.249229767920329692e-01,8.589647027587313244e-02,4.824850591446369630e-01,7.395940866877374065e-01,-9.295177021578709953e-01,-4.761992024715085980e-01,-1.331012339455568849e+00,-2.031981963946110081e-01,-8.403958007799962049e-01
4.204496674590703087e-01,2.138042450143768924e-01,1.368572786243170414e-01,2.080569758824301896e-01,2.610730903040630602e-01,9.822526500901255231e-01,-1.567324558513200350e-01,2.343962456185473275e+00,3.307480531900509890e-02,9.458266275093915043e-01,-1.590498051937531798e+00,-9.894890985104392023e-01,6.253596735990257782e-01,-4.463184583773760483e-01,-1.046981816186740577e+00,6.009009858844659435e-01
8.134952883860641776e-03,1.336029810694591147e+00,-1.250163141354752039e+00,-1.310473992875124116e+00,-1.899919822002285597e-01,4.912350812271735201e-01,7.023911181493215361e-01,9.199876137539363397e-01,3.779982923458482524e+00,-2.150968671241512808e+00,-8.562742589560993212e-01,-6.966181615226706425e-01,-4.457538778188134820e-01,-8.916908779573177180e-01,-1.420146422424915178e+00,-1.856183601025282182e-01
1.352007535906117885e+00,-7.142452478927441284e-01,1.390712562126860119e+00,1.771566483958376459e+00,2.893015473674094284e-01,9.541206911158549575e-01,-1.348896570421350027e+00,1.785872081693080204e+00,1.261057163564172745e+00,8.115112361067235991e-01,-9.233600756568363099e-01,4.678372042908378603e-01,-2.037560917776767011e-01,-1.360308502994563407e+00,-7.298780180224188063e-01,-4.918684023870227850e-01
-3.796146119378769335e-01,-4.315114844882987633e-02,1.749340465965489311e-01,1.187933400768436343e+00,1.717356804203289400e+00,4.754955442205640592e-01,-1.434371607361834666e+00,1.148956303575707105e+00,-1.202449080558735561e+00,8.640245611069330423e-01,5.602641174109932454e-01,-7.986197652883092468e-01,-9.580113906187219808e-01,9.953518669292457099e-01,-1.358610048201594589e+00,-4.406697933384061683e-01
1.704817511888372605e+00,1.206447395519433030e+00,1.092889622034549868e+00,1.600395780563317105e+00,1.257796060488984624e+00,-5.121501322454958816e-01,2.025474658179481136e+00,1.101541948495799339e+00,-2.431807271260637004e-01,4.092514021244080674e-02,-1.588307193885691304e-01,-6.311105314295848423e-01,8.189837013100861873e-02,-6.344194143889141380e-01,-6.528514856832113855e-01,-1.138572168964564479e-01
7.695265594328195569e-01,-1.361107137816003565e+00,2.649369024059806677e-01,6.953567785608715246e-01,7.721090847634988208e-01,-1.535481656895059555e+00,1.758822316985552969e-01,2.391692705193616542e-01,1.922354549169622007e-01,-3.241914395974163088e-01,-9.241295629766109743e-01,1.841199961808828167e-01,1.400476473116506471e+00,-3.639008515081007533e-01,-3.589895696612369624e-01,1.118293522003919627e+00
8.636496411506280890e-02,-3.235198360584783384e+00,2.486739631092252101e-01,1.050708658010844898e+00,-1.222643075314918254e-01,1.243152622976590127e+00,1.925623874785034939e+00,-1.000509462840454944e+00,-5.097258066707913704e-01,-3.711839262923418703e-01,1.912958761372944225e-02,-3.691197896147568325e-01,-7.450955328931254673e-01,-7.143967842149681058e-01,-1.361006068013226100e+00,-2.800906908801929496e-01
-1.354584452537689110e+00,-1.578796432433089980e-01,4.326443615542353016e-01,-1.237734348208338275e+00,1.423863973635135727e+00,3.412363676171099036e-01,-9.438810815474668603e-01,6.797279268162759180e-01,5.587124836491346169e-01,-6.337337422564368605e-01,1.449605067676856152e+00,-1.183183178976206396e+00,-2.136068492837793542e+00,4.229093410353700344e-01,5.628003989482455172e-01,-1.451216124020706877e+00
-8.629878978623416463e-01,-9.864947088021532862e-01,1.620514426741004987e+00,1.131786560305401146e+00,-8.084477129692124731e-01,1.608204974275594168e+00,1.679595570954768968e+00,-1.723863228946276305e+00,2.191708719825284646e-02,8.100202915113493551e-01,-6.939791988237138387e-01,-4.455875100831621638e-01,1.638277081709040850e-01,-5.632841941482988890e-01,-5.229498818728346432e-01,-9.253455990222479999e-01
1.453183074870646463e-01,1.513699646000485011e+00,3.956247864232146361e-01,2.226795674072878040e+00,-7.813493676357896253e-03,-7.147264224267217969e-01,6.266931641822851562e-01,-3.839698002348334027e-01,-2.134528544711737988e-02,-3.694220398213240442e-01,-7.794666540734026539e-01,-3.638826770687805801e-02,-1.229498782745381380e+00,1.888895028563936318e+00,-4.835603966945647980e-01,1.158900276979222127e-01
-6.596214269552300724e-01,1.059127214652647586e+00,-9.962859557854126802e-01,7.020271677934071253e-01,-9.286650584369998684e-01,-1.137132975155675352e+00,1.126441894998566895e-01,5.120598959148585649e-01,7.866556679596194979e-01,-1.640903669220564298e+00,1.557526800677015322e+00,-1.861372837443996398e+00,-1.215199518335895235e+00,-1.111533660013108937e+00,-2.681695921691032436e-01,1.156710335669028478e+00
-1.440938164765257268e+00,-8.198202067631232826e-01,-1.158492940768397622e-01,-2.641498405203096311e+00,1.902991641636482711e+00,-2.527776060456175533e-01,-1.644420232564823392e+00,-2.726163418395883276e-01,-1.063811096776286380e+00,2.304838523947312645e-02,1.035792627344061856e+00,-1.308015872552080072e+00,-5.211839894405370099e-01,2.497342808845106898e-01,3.037855075560557117e-01,1.634896361612249160e-01
-1.839247995531193558e-01,-9.674321153944128726e-01,1.224016526455207615e-01,1.589745592773059935e+00,-3.752672288555038427e-01,-4.340202586535782392e-01,-2.562773918012649643e-01,-1.107317418565613387e+00,3.119489086822969104e-01,-1.054157186562387327e+00,-1.044198528325133379e+00,1.232679976094021912e+00,-5.240989461989021825e-01,5.905975403985564975e-01,6.025902879794504674e-01,4.546038330049930742e-01
-9.538219387251019032e-01,-2.242927758150684348e+00,-1.265496469095164001e+00,-9.070259977688305275e-01,-7.118856586244856066e-01,4.530203109658542671e-01,3.257741581936416941e-01,-1.683637061182389649e+00,9.609243612405840018e-01,-1.095630923760516628e+00,1.448544560081156118e-01,1.141510504062916320e+00,4.776662472946950899e-01,-1.390018074522117120e+00,-1.414895121030571135e+00,-1.295306427854123546e-02
1.025706931308494774e+00,-7.404547659525626546e-01,1.312349237419217163e+00,-5.921918902936071927e-01,-1.275239406488028360e+00,7.761315545163173235e-01,2.096590367724891824e+00,-1.023757899594861964e+00,-2.754857057126296471e-01,4.275963673739305859e-01,2.033171112974179184e-01,-5.263481265661035247e-01,7.912858126511768120e-01,5.360268526858056326e-01,-4.855248002794668172e-02,-1.115855354768055863e+00
1.555353234595617806e-01,1.045481583143041071e+00,6.132269097269272412e-02,-3.512335351536240990e-01,-1.378120564331347664e+00,9.427440657081324060e-01,5.862547952926974032e-02,-1.357187757578528275e+00,6.775676905158610486e-02,-1.015144181719448202e+00,7.025336444900625102e-03,-2.854434012041950020e+00,1.786570434326698154e+00,-3.265811826475728541e-01,8.645808929634173357e-01,-7.244886837589860074e-01
6.569375035414870556e-01,4.324207863436836941e-01,-4.559221904411646653e-01,8.908678026197455191e-01,7.935197894059141388e-02,1.095929473625580686e+00,6.276552687456428137e-01,7.553062392044455897e-02,1.038597040995081544e+00,-6.094216689567909517e-01,-9.996140912401463297e-01,1.132428653577629563e+00,1.913953091087768899e+00,-1.067488370331928893e+00,2.017007917645643023e+00,1.655833326913383141e+00
-3.537536984657815853e-01,-1.522444166679368882e+00,5.223280953956979111e-01,8.059752001131142984e-01,-9.588403231660616033e-01,2.456800038996306140e-02,-1.490540907302458029e+00,5.176068254646282174e-02,1.892119226814471755e+00,-6.710669156766600751e-02,-1.103098461033305222e+00,-1.743796121121724552e-01,-1.055207338750796531e+00,5.780698182195492807e-01,-3.560925664719646333e-01,-8.981062562398847149e-01
-7.989363014037911270e-01,-2.502532973354422707e-01,2.716100418427119245e-01,1.023703587017022881e-01,-3.412330425432104630e-01,-1.023258968232140687e+00,1.017655924300534531e+00,3.171548885279475427e-01,-2.283620701366460004e+00,-4.703807219663332928e-01,-2.131665422789925657e-01,-7.233225972997866515e-01,1.082888515139542873e+00,1.185554423645291289e+00,1.541623187731645084e+00,1.032630815434494531e+00
2.916956116277719113e-01,6.991987459977931640e-02,3.813629389865205166e-01,6.534899871891456380e-01,2.411158766150315103e+00,6.536006487944794330e-01,-9.868880955780616124e-03,-7.241922223096577405e-01,1.973666794245730438e+00,-4.672511602581617129e-01,1.239740998580858511e+00,-1.128184107043518569e+00,1.244361682863772911e+00,-1.303626254067874912e+00,2.404236342855326780e-01,-3.416408969361289100e-02
-1.543219147892555543e-01,-1.792032203276470392e+00,4.520210363399821962e-01,4.482256449359668382e-01,-2.227124208630097968e+00,-1.904785900276531885e-01,-3.093114307045189415e-01,1.068405452426650193e+00,5.151090442453956086e-01,1.354432635160334408e+00,-3.836264976199247889e-01,-2.888297822711304308e-01,-1.033151079350512536e+00,3.467160357240799406e-01,5.448875088623088558e-01,1.107649768146601765e+00
-3.157790887660509305e-01,1.235907188461815576e+00,8.474700400048140736e-01,-2.027567798290772494e-01,-2.849218375748751586e-01,-1.038157362968843866e+00,1.049316939371687657e-01,2.119051005927092002e-01,-5.944162842962213977e-01,-7.671095131280378787e-01,3.591871026187052340e-01,-2.843551706983368010e+00,1.125116362060065933e+00,6.333101747063927256e-01,1.171940025879856240e+00,-7.470500061833237337e-01
-1.642025785476161293e+00,-2.058070273567030595e-01,4.223174794055740700e-01,-1.424842694435693113e+00,2.992265271630211720e-01,2.167693746095419871e-01,-1.571059468762733835e-01,1.378296013061981906e+00,-1.284301194600608209e+00,-1.301169659444209703e+00,1.008505220876299457e+00,6.498420485856332141e-01,-3.592523496529005933e-01,-1.194034061137864811e+00,-1.240762191560225380e+00,-1.024954547005620664e-01
-1.438055735320849515e-01,3.248943788904813390e-01,9.237186047475659523e-01,-1.041788826921657307e+00,-2.659856631785736170e+00,-4.837562733715445873e-01,9.701379097806893670e-01,2.379065147944267322e-01,-7.011870921107381249e-02,-1.350716828999011687e+00,-1.285526533907166979e-01,-1.412012734480071474e+00,1.900929095373648237e-01,-3.489247411826126299e-01,1.036708862473371351e+00,-1.011010795598410228e+00
3.841276430355419769e-01,8.317520275713770062e-01,1.653315312866428244e-02,-1.106869120376699156e+00,-1.153210807423361128e+00,5.137821962679838261e-01,1.303153222959296809e-01,4.268193298193744684e-02,-9.981937742712895245e-01,3.016197848883180044e-02,-2.659564215368795947e-01,-1.724386251860190455e+00,2.996840838067348356e-01,1.391195320581137262e-01,5.421171046057979837e-01,2.663428639045814159e-02
-5.262778074178237064e-01,4.294716583014780431e-01,1.324234724035205035e+00,3.558109415912084628e-01,-6.458961845259785228e-01,7.676960890467734444e-01,3.378192023756012019e-01,-1.761799380662743886e+00,3.843119433307431044e-03,-7.059563977492324671e-01,-9.317738682250265025e-02,-1.582484869262777538e+00,3.945862261116696024e-01,1.356831406856989775e+00,4.944301446594031035e-01,2.081731526193906015e-02
-3.112519311583004655e-01,2.139225331372597072e+00,1.080458249643714563e-01,-1.689790266873715030e+00,-4.119500154131744973e-01,1.259599707386229950e+00,-2.557435901218123031e-01,1.654048601716258560e+00,3.995053382669254693e-01,-2.899243729928250857e-01,-3.079284375409419017e-01,-1.384091417496937870e+00,-1.951423944172738345e+00,-9.463451344068642967e-01,4.357073025292265700e-01,-9.635720636064212807e-02
-7.351263692882339384e-01,-6.740102945220892705e-01,-9.421141720932087182e-02,-8.346010377764317978e-02,-1.651717636251829102e+00,6.339740696199230863e-01,7.840151565047087656e-02,-2.229859472322359704e-01,7.784959052296256399e-01,-1.323714703608428911e+00,-8.351496497382024931e-01,-7.128946464218013368e-01,-2.729562809274149737e-01,5.452604411918249294e-03,-7.047171271865959596e-01,-2.816678268850427158e-01
-6.380870982534747604e-01,-1.456240447576743757e-01,1.116780580095830366e+00,1.921226709853723347e-01,9.682437871821917286e-01,2.342711159714936930e-01,9.955076043519871520e-01,-1.646576697203240514e+00,2.021254148467884537e+00,-1.352434485919104201e+00,2.924553569936109154e-01,-3.329123044840189283e-01,-2.362972034560276990e-01,-5.780328598524266948e-01,7.166292703631133021e-01,-4.012374806839349439e-01
-7.082638897549291546e-01,-8.179136026251894453e-02,3.155219986855003711e+00,2.844631896777461977e-01,9.375679384308359676e-01,2.879985496022052782e-01,-3.964048740203959253e-01,-1.084175823762055124e+00,1.000821247503677291e+00,3.531674845040290722e-01,2.123755133826155939e-01,-4.357189649017130795e-01,-1.792914733312050979e+00,-1.387929302405212395e+00,7.871926231095173199e-01,-4.159490668688955312e-02
