1.445849242727685446e+00,-2.113634600679470121e-01,4.205672239239714727e-02,-1.505073366882395680e+00,-6.972455562039148180e-01,1.375398396187557326e+00,-9.229841877333727629e-02,8.315881675365119907e-01,3.795702245640035222e-01,2.037694269083548448e+00,-1.380727048468122220e+00,6.335224106092016694e-01,-9.032168235261576195e-01,1.936901353561650690e-02,4.980148633317026952e-01,9.974073185471519221e-01
-1.031043586555343783e+00,9.373421303765900880e-01,1.516237480214493116e+00,-8.952424606812872110e-01,4.464648776887276682e-01,1.150220934864835343e+00,-1.278170402077275780e-01,-1.545649931824642775e-01,-1.245352140860416013e+00,-1.354551648516287010e-01,9.923389330724087243e-01,-2.115123217279403889e+00,5.051859423080988787e-01,-2.665336500539623454e-01,2.064892919937516280e-01,1.191355559222932348e+00
5.184612943826385489e-01,-1.101089863250588108e+00,4.366516085943961678e-01,1.148075711177598546e+00,5.246890383137446934e-01,1.014015073069442163e+00,-6.374838042925291548e-01,-7.801882390692338465e-01,1.091422348842759016e+00,-2.101224966468427380e-01,-1.076804607976461714e+00,-6.758542166947751895e-01,-1.342865201368554695e+00,-3.504290942930770592e-01,-1.695097240147656503e+00,8.414725436180529039e-01
-6.912263351465403050e-01,1.573790745542985814e+00,9.246009515970364523e-02,-2.774002389398133039e-01,-8.299083401972974228e-01,-1.656202142099743105e-02,-6.064817105327240387e-01,2.169150052428690800e-01,-9.970663311001501383e-02,-3.692544613935401787e-01,-5.956066357908353925e-01,-1.071736520362246203e+00,-3.640326439854143364e-02,1.122110012611967633e+00,2.021628749116213708e+00,6.908889219676146443e-01
9.021312026646199911e-01,-7.809010460772137785e-01,-2.309556072129866355e-01,9.535330644244635057e-01,1.494768454257468848e+00,-5.869567887828384262e-02,-1.773401269076718689e+00,-1.467171674384113167e-01,4.506791183042690441e-01,7.419716394344175181e-02,-1.094357772323132583e+00,8.569351695048643691e-02,-6.518096291838593181e-01,-3.796341178142645378e-01,1.339331436179316492e+00,1.366775701396509834e+00
2.670626640122164552e-01,-1.096035085706863699e+00,-1.739834202542100972e-01,-3.582350572624632967e-01,-1.612024971831760344e-03,-9.126748629570498039e-01,1.005876025196450030e+00,6.946770027240098955e-01,-6.956202738556008791e-01,6.713339717773331161e-01,1.268470698584214684e+00,-5.770096845010436182e-01,-1.332922490397263626e+00,1.541501947353242363e-01,-2.710788465725403884e-01,-9.569801873014736060e-01
-1.864001533858396620e+00,-1.700963221121087054e-01,-3.749175999648111657e-01,-5.087674183596390121e-01,1.530479713300967992e+00,-1.251665763227101769e+00,-1.925838741665163001e+00,-4.882580817634040171e-01,-1.262515175772930931e+00,3.857899804974414537e-01,8.011311295282566025e-01,-2.220093379084588925e+00,1.374179303363287197e+00,-1.810268374930127100e-01,-1.541561375970263770e+00,7.798438984894613402e-01
3.931116412487998812e-01,1.703844437353482899e+00,2.014237569594180322e+00,-9.136041129717981102e-01,3.891256177093915247e-01,-2.889268667364184306e-01,-5.447618744298843296e-01,5.170883436527093924e-01,3.894561703060668290e-01,-4.214277630665057561e-01,-5.448313730343193884e-01,-5.691207545098821985e-01,-1.462296008744894182e+00,2.629399120130941347e-01,-2.672453345434004923e-01,-1.553954186134500481e-01
6.155010332557058622e-02,1.550868226322304588e+00,-1.155196272777601285e+00,5.792175405950260592e-01,-8.686755499605728348e-01,7.070170365391696965e-01,7.456786602004857878e-01,9.581556402040161124e-01,4.296138975106854052e-01,7.043397081713242969e-01,-6.561400076197680953e-01,1.010588553322683492e+00,-9.277364434430802609e-01,7.451856084892848064e-02,-8.436426839320234627e-01,2.590700418680766393e-01
-1.457367001097585879e+00,4.517255334901396635e-01,-9.545635993592037627e-01,2.295204257870669728e+00,-1.628636047311688151e-01,-1.150940482172860380e+00,1.894383279243871121e-01,-2.651027986860788888e-01,-1.650476775945875163e+00,-6.800617893354314880e-01,-6.523246047020900829e-01,1.234032070918752999e-01,-3.475276692490980035e-01,1.361623679712111512e+00,1.863631396478775182e+00,6.568527102056266331e-01
2.067931660923408577e-01,4.849947633145419434e-01,2.184746103678487095e-01,-1.676317726153651488e+00,-1.367615723681471884e+00,6.874178107226732726e-01,1.442101309091025352e-01,-2.304892953580232273e+00,8.476214347912396363e-01,7.408818179312010033e-01,2.191358068880048915e+00,-3.165746686455443437e-01,7.254515425104645088e-01,7.936121615370224092e-01,-3.149760048619195674e-01,6.970316115851998839e-01
1.072064272121096451e+00,1.344605520878432992e-01,9.168854666940243758e-01,-1.784804448759162332e+00,-1.254656983770033873e+00,1.064327536230722959e+00,-1.441689533410787982e+00,1.094720444036230589e+00,1.276825018482937057e+00,3.614019628097146081e-02,-1.944067965783004559e-01,9.310993296055361523e-02,-1.476320832908973868e+00,-2.362300351563979550e+00,2.662649316984871395e-01,-6.242797672063253867e-01
5.607945780353550402e-01,-4.960406138962952238e-01,-3.790685530099641154e-01,-4.704113734932619667e-02,3.329879830290892184e-01,1.399484182115005471e+00,8.909527726157764338e-01,1.199485604131413474e+00,-1.189079203439541210e+00,-4.978209803436946523e-01,2.650340066494342173e-01,5.345251972572958588e-01,-4.896094658491522700e-01,-5.388620607503132875e-01,-4.103928005993195405e-01,-1.197871170366518578e+00
1.455755264366007107e-01,-1.865421071579911549e+00,-1.030924447076887046e-02,6.149660186271507095e-02,-1.130961427501557592e+00,7.984685843945195094e-01,4.863689805673412359e-01,9.332626222496909207e-01,4.033505157158734367e-01,7.284858659963598937e-01,-2.296362896320006675e-01,-1.418456967666771595e-02,-8.071597388025468778e-01,-5.105873079066258757e-01,3.130956382283951456e-01,-2.748623479050024798e+00
1.973325270596751224e+00,-1.027213731429527543e+00,5.868498897264244896e-01,2.878223957761528728e-01,1.772040403495825020e-02,7.655719402079017577e-01,4.005197579485839099e-02,-7.839338487640554742e-01,2.283116578747804715e-01,-7.636649015110065220e-01,-6.232105023375317243e-01,1.073745852500441300e+00,-9.469899704279466368e-01,1.729210776458338650e+00,8.416371822955197590e-01,8.034453114626576298e-01
6.281354376548644591e-01,1.253874439728402512e+00,-6.182039783817900869e-01,7.366662287986335267e-01,-7.063367168676852603e-02,-3.397933462747301792e-01,8.550019524058939391e-01,-4.018426033746373416e-01,6.197960180467626534e-01,1.113411694147556252e+00,-9.127067061150225813e-01,7.062151938653923322e-01,-2.290892374686709365e-01,-1.012357196093741196e+00,-1.500086476469897123e+00,8.067312595965580035e-01
6.722017475427736199e-01,3.867493961219016785e-01,-2.043215515085942957e-01,1.983570321851203522e+00,-7.253793928805939428e-01,8.441158790243703525e-01,2.521846438104153876e-01,1.986211501093409007e-02,1.753074296045723734e+00,8.615624730285219579e-01,1.067841458429042850e-01,-1.523860524364025970e+00,2.705877901006506381e+00,-5.480128742604142289e-01,2.614692283443782461e-01,7.374279161590208131e-01
-2.218670399927465120e-01,1.473452677483206852e+00,-1.124209944669651851e+00,-3.083907495125029485e-01,-8.556906697981455645e-01,-3.643663821344285125e-01,2.306175209970874995e+00,-8.112297240997126124e-01,6.227137417273060915e-01,-4.165541657444980783e-02,6.923811790022255108e-01,-9.253820666414945828e-01,1.666088720097930853e+00,7.943780176746942923e-01,1.282060635799849857e+00,1.141100797491231722e+00
-2.880415736575733798e-01,1.658157122566791264e-01,-8.114654688370058766e-01,-3.687311408562704562e-01,-2.409417636488993875e+00,5.574477716600483024e-02,-9.355421008473044364e-02,2.887162980852119032e-02,-1.744389342823804867e+00,2.355802938922082923e+00,-7.632128534445321577e-01,-5.815869374019457805e-01,-2.279489362136698574e-02,5.486384057109656709e-01,-6.874488198081193380e-01,-7.511235458185192559e-01
-1.362822807510284395e+00,4.502473401588966140e-01,1.116440690282535231e+00,-1.447716132711416526e+00,8.854581617401047211e-01,-9.997667366502197561e-01,3.122931867882527412e-01,-9.357621845138317518e-01,-5.702035888640036299e-02,1.849209390426589383e+00,7.606904005624527398e-01,7.000601728507694910e-01,-2.214792106478308958e-02,1.471115664462274042e+00,-8.039211695221033516e-01,3.242005014763552073e-01
-1.375127120977367001e+00,-3.789508153648392663e-01,3.127068693869321930e-02,9.258020704253071553e-01,3.168267806159439925e-01,-3.726336189930688492e-01,1.288166351621681471e+00,-1.331038640802031159e+00,8.979703084792686751e-02,1.009780606044638152e+00,-7.417074006035556666e-03,-2.717833151951219439e-01,1.767145574279129105e+00,2.824012603158493340e-01,-1.896510389044374856e+00,8.620682365307814621e-01
1.357999725212894360e+00,4.866500489447815325e-01,-2.882936708595825737e-01,1.225757186676748461e-01,8.202140660897858648e-01,1.963605273237383209e+00,6.452034734013641915e-01,-1.592335078599237397e-01,1.532011334721258000e-01,-1.070693302209773795e-01,8.117627621645955305e-01,7.054386063198712087e-01,2.237580268679364437e+00,-6.608123249156322432e-01,1.027862681574615855e-01,-7.576222893366060251e-01
-2.679334028245252686e-01,5.860831937020982707e-02,-4.868933387665891899e-01,9.737916897263702853e-02,-1.194440281123029246e+00,-9.169897837852984956e-01,-5.649056997073833575e-01,1.418898999979123055e+00,1.824253713048409609e-01,9.951656699127894856e-02,3.464405657007321726e-01,-1.361479373438716500e+00,2.842645907424240503e-01,-1.802983893597465970e-01,-1.812378981507383191e-01,2.070481376062561552e+00
1.276768205711275028e+00,-5.330898874876464077e-01,7.086647596159661999e-01,1.230771057807065416e+00,-5.146203135959270814e-01,3.260298883068253328e-01,-7.072915856630365150e-01,2.512136450381959873e-01,-1.474266180463965625e-01,1.365235380048520353e-01,-1.248893045188137901e-01,2.382513116814630461e-01,3.912118528650742055e-01,2.785300394432876359e-01,2.280364358216883769e+00,-1.430833604300167705e+00
7.328027140662778383e-01,-2.656042933640177517e-01,8.905525124097407597e-02,-6.511691159065693402e-01,2.003959896759584802e-01,-1.665039174452089266e-01,1.424148389243079960e+00,8.291237456390264660e-01,-8.647536576247375484e-01,9.403193034686530005e-01,1.060253167762194915e+00,3.316232824669217427e-01,1.006855124295388704e+00,-3.238314354794821770e-01,-4.409883356606759258e-02,-6.278173870883415608e-01
-1.531200944963678978e+00,3.518299551251503066e-01,1.056230606067982913e+00,6.808629349813515308e-01,5.324526103082490858e-01,1.375183526413366719e+00,5.941267609056368748e-01,-1.460462226610559799e+00,1.481411592180398085e+00,3.632779160534725382e-01,1.869251791676294072e+00,-1.089362629751287281e+00,4.959144607198827659e-01,-2.855053609456303376e-01,1.488125064656434793e-01,-2.801983511120931802e-01
1.238347417911859427e+00,-3.903930473762299291e-01,-9.220747280477722407e-01,8.198294827381241712e-01,-1.391335014340250975e+00,2.184810609137226134e+00,2.804679401723151888e-01,-1.920546750152885840e-01,1.002415198986954081e+00,6.477607509331003710e-01,-3.313136498752066589e-02,9.403874657623277900e-01,-5.985909860909400387e-03,-3.382281671989844640e-01,-2.317403715516480889e-01,7.174745841835413751e-01
9.117592129128070377e-01,6.761019289155834749e-03,9.623325034060614680e-02,-4.795286632841444519e-01,-1.376755796535249265e+00,-5.619589534461331276e-02,1.242131184685190126e+00,-1.984089521699552994e-01,2.788216937803696727e+00,3.946336515199412309e-01,-9.848855757758113727e-01,1.509984802278943050e+00,-1.455467916144701987e-02,-1.074430040698252320e+00,-4.943585060570091505e-01,8.168385934386640512e-01
3.506564969551795308e-01,4.888517831489335719e-01,1.629309712508530072e+00,-2.006988337177602499e+00,1.013096471129157017e+00,-1.787867305917437422e-01,-1.285329512146398345e+00,-2.234465520016029258e-02,-2.143763177061686620e-01,9.765972505065114717e-01,7.564083315037325450e-01,9.362401558898139631e-02,8.155640835775643804e-01,1.891174136306086884e-01,1.180308451994752872e+00,-2.569645741394324112e-01
-1.345385657026595405e+00,6.661452662848352801e-01,-1.106444383395262410e+00,-1.200206390653139277e+00,-4.234665644195519385e-01,-7.788824232639445233e-01,4.223039609421367913e-01,-1.110993632140362841e+00,9.260432231653747959e-01,-9.636221879084465591e-01,-4.902538537665561691e-01,-1.682452866269291025e+00,5.824344387345265633e-02,-2.684577394074130416e-02,1.751337251599798528e-01,2.280778364261533964e-01
3.924242581327547219e-01,7.713322094606102075e-01,-1.969729820693737199e-01,-8.546656393862056555e-01,4.721897654929766985e-01,8.391917142888901671e-01,-1.214934507504649375e+00,-4.832637776263600249e-01,-3.253838240049706343e+00,2.276851666983120914e+00,2.628042013020391310e-01,4.056325221704000783e-01,6.451408316045660341e-01,1.809687480168898244e+00,-1.589499702258843072e-01,4.462178875584571491e-02
5.874764863438892704e-01,1.495888016183855029e+00,-8.841568646139329468e-01,-6.580014015269890493e-01,9.691016551257917999e-02,1.890996050408426110e-01,-6.206540158620539316e-01,-1.490451335525485810e+00,1.391680016342698112e+00,-7.474124287875252848e-02,-4.354438092865414722e-01,-1.352474592788940333e-01,6.298437262673833859e-01,-1.133945447957287245e+00,-4.947724440238297494e-01,-7.451622722479436245e-01
-8.470207783615190111e-01,-1.566250088033651400e+00,8.866816738395928432e-01,-1.904082846774938498e-01,-7.038603580895360645e-01,-4.769546174660688753e-01,-5.780626312061460936e-01,-1.833297664942770966e-01,1.241740444601955984e+00,-9.429087817702805907e-01,4.894640654265284829e-01,3.633733666807796858e-01,9.104144184878079082e-01,6.560647627046099772e-02,6.137827151399652958e-01,-1.230812835752705503e+00
2.362309550943938685e+00,8.088004281276576224e-01,8.628523521085116332e-01,2.051210694038480831e-01,2.308105119275544403e+00,7.710649740821081677e-01,1.059892090979608348e+00,-3.014236432377702890e+00,-2.626449941840363622e-01,-6.177267799460849085e-02,-2.684895754749548960e-02,-1.005674617307275698e+00,3.375099004115998946e-01,-1.319341135897518669e+00,-2.629224017564114890e-02,9.461728788028017645e-01
-5.169284037166963497e-01,9.712947968812283284e-01,-1.493401211396288897e+00,3.488175918508846229e-01,2.614443234061818888e+00,-6.043801081924333740e-01,-4.793055757638922110e-01,-1.472758500080838528e+00,-7.935089668019538189e-01,-2.082588120464586856e-01,-1.135968682107426408e+00,9.563805005886429900e-01,1.484488011257490081e+00,-1.598225574466196397e+00,1.930951924330252867e+00,3.559466376734461979e-01
1.686720985090458536e+00,1.235405753440889987e+00,-2.834026128314244275e-01,-6.567754619998312782e-01,-5.433231850236392990e-01,1.664834068333024275e+00,7.835647956953566418e-01,6.949577364579927474e-01,-9.554582078333823114e-01,-9.767023229343942958e-01,6.510620561519442351e-01,3.310454865031464133e-01,-2.022512092922729376e+00,3.561000265638158968e-01,2.596641775695528231e+00,-2.593272717200719502e+00
-4.778053964488212513e-01,8.176863954507532783e-01,-5.190974623930165732e-01,-1.712333177751997892e+00,1.591109548956227693e-01,3.795853127175709552e-01,-1.082128316421377745e+00,-7.709212455478073323e-02,-1.620176761791801257e+00,2.373660464948648130e+00,-2.611504246415125574e-01,8.322633287580537553e-01,3.548479493229981796e-01,-8.540945847130188007e-01,4.892091326521059158e-01,9.497379650679058649e-01
1.416965685953935017e+00,1.381142168336844556e+00,1.739362545217679468e-01,-7.161913333425181660e-01,-1.249779305675526642e+00,-1.328935668593518526e+00,4.461871590486722883e-01,-5.756007907110394228e-01,1.459838922601933431e-01,1.610639865799907144e-01,-9.478538426804920813e-02,-2.617288226361758618e-01,-2.528392334031264621e+00,-6.859942345250700235e-01,2.512117283733541040e+00,-1.556544418567061827e-01
-1.541618797731124091e-01,-8.885668962204488208e-01,1.788290486496178611e+00,1.157168048314629827e+00,2.986436449911814339e+00,6.165612067252123074e-01,3.281357723765518375e-01,4.598301086440508001e-02,-8.188630256391689066e-01,4.918508151670590300e-01,4.553840155870810674e-02,-1.083501411424429683e+00,-1.385943372036641863e+00,1.658828998223784934e+00,4.957279537340110176e-01,-7.963699785584901214e-01
-1.187308304017315130e+00,-4.316992621225657079e-01,-3.187378887117075510e-01,-2.852811689650491256e-01,-2.603139032923645901e-01,-3.920737012332105031e-01,-5.337526717493723538e-01,-2.066482616720637822e+00,4.005700326629219599e-01,-1.692600265774131529e-01,7.350734214404868183e-01,-1.172670228196738051e+00,-9.127712315894564998e-01,-2.975294762301359253e-01,1.315396874871130439e+00,-9.821206790650826024e-01
-1.557726583320870439e+00,2.207276215556684129e-01,-1.018367774841993922e+00,1.078186784720888344e-02,2.471093576417729143e-01,-1.722338877114025224e-01,-5.210079166046223398e-02,1.015976817563951640e+00,-7.621252167830619983e-01,-5.669724281666411736e-01,1.793232915462766863e+00,6.947451347966169255e-01,-8.605303093206623233e-01,9.272688271811173333e-02,-4.815797453623021362e-01,-6.671995278576643429e-01
-1.060900082789002941e+00,7.473426261714121166e-01,1.625767296933308126e+00,-1.535625798423752020e+00,-1.180490657998342519e+00,5.924210041670942006e-01,4.992951239346146708e-01,1.008512442697245604e+00,-2.862265462484893330e+00,-2.003944754739809132e-04,-4.478279140385779122e-01,5.850712208412407467e-01,-1.250092894796296372e+00,-8.846624986711187910e-01,1.909638994033323323e-01,-3.014348441877611195e-01
-1.182598680978557804e+00,3.817686295370901206e-01,4.036177895142393779e-01,-9.395836934784173033e-01,5.488159326336646826e-01,-9.783513202128300001e-01,-1.205609912471740319e+00,-2.402345441792795189e+00,2.911420286091488951e-01,-3.643598328327009028e-01,-7.063531482706708609e-02,-4.313308860292946467e-01,1.147369969446851101e+00,-1.102143266805938326e+00,-5.460355252728961162e-01,-2.654751946657769146e+00
-3.356366209688869118e-01,1.326754518130365490e+00,-6.601784268005453926e-01,1.058749408088047739e+00,-5.320428368852017642e-02,-4.738016843087386465e-01,-1.596735245210836984e+00,5.588818094097257605e-01,-1.244937699914969720e+00,-2.323567514309644033e-01,4.156637486500198708e-01,-2.758229783458008288e-01,-1.530233640037165666e+00,3.891198534515024621e-01,-8.999887492028291192e-02,2.778265859805754134e-01
-1.749194858190691093e+00,9.368205724748623897e-02,2.717295606731387481e-01,4.849224386641455831e-01,-1.344450915783619860e-01,1.557749863907364141e+00,1.264257199498501016e+00,1.071851389101287300e+00,1.574605500119886647e-01,8.721611329298054605e-01,3.931845097880159318e-02,1.204199393811197671e+00,3.004729876079057505e-01,-6.868769733299422420e-01,1.247745356177586556e-01,-3.600713814906399968e-01
1.682945441467646464e-01,2.260318515118248106e-01,1.717393949988920143e+00,-1.545931785904515743e-01,-1.009050883419145173e+00,2.074490813458701677e+00,-9.198586356568837497e-01,-1.656716890354317018e+00,-5.738767961822013319e-01,3.261943964849426947e-01,2.447003822475767865e-01,6.196527568637687500e-01,-1.408301013473329366e+00,4.950121081309720728e-01,-5.855454013972216654e-01,-8.750789400195971846e-01
-2.186544424944785181e-01,-1.400415046586533485e+00,5.427395747312885321e-02,-1.425264593011985159e+00,1.193411601419851253e+00,1.414380431002431604e-01,9.486998246544005031e-01,-9.295703146768459491e-02,8.856814343359697972e-01,-3.611628032631318264e-01,2.391620555041378549e-01,8.773179440602890677e-01,-1.156556999807291986e+00,3.590793128477662854e+00,-6.131905600077386387e-01,-1.063638075856729648e+00
-1.421244998260328962e-01,1.828874188309254523e+00,2.693148891975338799e+00,6.001889921502007175e-01,1.224471366077346746e+00,1.809761532783258353e+00,8.941079237683351444e-01,1.929130054036274633e-01,-2.213063670269320160e-01,7.783730387919660654e-01,1.457901735267398635e+00,-1.647439759085833400e+00,-1.671156463970998596e+00,8.866803789869150965e-01,1.569996282230932128e+00,-1.265952140977659068e+00
-1.554495243050269648e+00,-5.060384996947183689e-01,-9.046393290293039402e-02,-6.861032717235131528e-01,-1.175927340788870401e+00,2.317383123035327230e+00,-1.970846724556717389e-01,-4.788078546446443151e-01,-2.353344639805866390e+00,8.672667182918109008e-01,-1.750795776239925106e+00,3.010312087185232355e-01,-5.401476172932464515e-01,1.171497690480066550e-01,2.176496052169160755e+00,8.269151935984025981e-01
7.710234166402232248e-01,-4.115888769362586186e-01,9.932078784809701411e-01,6.839988342717101544e-01,2.345231545791130190e-01,4.074412832106340532e-01,-3.939393486857497018e-01,-1.440822931980558552e+00,-1.397376163538640359e+00,1.158486485884854478e+00,-1.858292226723496032e+00,-1.754274951282653427e+00,1.598954704490468615e+00,1.194966732728287989e-01,-1.008232750287175739e+00,-2.434869310455179126e-01
-9.971758512251199802e-01,1.220041034443790195e+00,1.075150856160152379e+00,1.254597098371186201e-02,-6.156228943593592406e-01,-3.247274783330735826e-01,-2.349644765092405940e+00,-6.965221336985873979e-01,-2.184140129219103166e-01,-4.509716388626565653e-01,1.146654793737283295e+00,7.859718807448837774e-01,1.660962702875653729e+00,-1.970118955136123118e+00,3.346028663756941413e-01,1.619178666873128725e+00
9.364662065101562183e-01,9.337354754594728856e-01,-1.281995177690897991e+00,-1.366256890518114275e+00,-4.116242715909932404e-01,1.043647013830099501e+00,1.398337086303029497e-01,-6.404613477080104422e-01,-6.498478120319786111e-01,7.669914058693737546e-01,-4.221829912727839140e-01,-2.843892489580873151e-01,1.002941176640287146e+00,1.231661956816725162e-01,-1.185207416658125151e-01,6.280851836771442764e-01
1.170107865572077438e-01,-2.654168763000711584e-01,-5.383671554317472907e-01,-1.646604581144992530e+00,-5.798855172404430158e-01,-2.184388444790497097e+00,8.366194663301546042e-01,2.508658895609939155e+00,-1.298410213321316009e+00,5.191177975614683637e-01,6.361650998886355657e-01,1.417008392763168700e+00,1.371948329687272983e+00,-1.782829570638037264e+00,5.933616443730751477e-01,3.020367870684589340e-01
9.704789191034145501e-01,8.456582357644479297e-02,5.296514037575360545e-01,8.637534332927674363e-01,1.223958211388990192e+00,-2.678902166124343953e-01,5.157486887985750501e-01,-5.405453881976771680e-01,1.788884103696470662e+00,-3.702341109853619638e-01,1.633878860066950711e-01,1.226987940144530942e+00,1.256004867340867692e+00,8.685880904148407522e-01,1.072602708517502279e+00,-1.149702338726865447e+00
4.710758146298111293e-01,-1.136684980217917529e+00,-2.614661563191825078e+00,2.515407445244913553e+00,-5.214157055094529314e-01,-5.290539488426965198e-01,-6.734375127259373262e-01,-1.745079636695384684e+00,3.555532958921265863e-01,-2.880559445282395159e-01,3.384931506472477897e-02,-1.161075338000808976e+00,6.455328928366854679e-01,1.088335077309493804e-01,1.391879198957550301e+00,9.550725030806809235e-01
-1.227604228771451630e-02,-1.766297246171653512e+00,8.518716716790823984e-01,-7.485042306008179991e-02,-2.585950773640384170e-01,-5.042496129551331530e-01,3.087925058964786085e-01,-1.056534274553240671e+00,7.387394602577762592e-01,1.057419524017890078e+00,4.088607139754342201e-01,-9.841221994831840236e-01,-6.023810064825062538e-01,3.967935552073266203e-01,-3.371797420378300214e-01,-9.840962756706839176e-01
2.004377492211546485e+00,3.717990662197257490e-01,-6.661418786282237159e-01,1.071202274227943535e-01,6.583591682050156102e-01,-8.899565083680190947e-01,6.397975053236817367e-01,-3.601551008807680199e-01,2.552909520053243231e+00,3.714940031871100112e-01,1.487334514355984849e+00,-1.133918691320440431e+00,-8.630975146959427580e-01,8.143017572378826729e-01,1.075032369982745095e+00,-9.244292823557809236e-01
6.870664042118473924e-01,6.389119332885511149e-01,-1.071979537946182504e+00,1.090013971679105742e+00,1.852130744151305519e+00,-1.748534029577830939e-01,-2.424945916366448018e-01,1.512353057885939545e-01,1.097891674959195596e+00,5.610129020492646834e-01,-8.501344411921446520e-01,8.940000320052206018e-01,-2.075899342207621512e+00,1.546492381191592269e+00,-8.856058952441921983e-01,-1.863382175699338061e+00
-2.066124343451467005e-01,-9.293860817672120467e-01,-1.541786564408321292e+00,8.538926617788195061e-01,3.579642293507968587e-01,1.243564675896141614e+00,5.874644340533979880e-01,-3.364403814514370095e-01,-4.365216723556847866e-01,-1.051061764460706094e+00,7.925682661291124642e-01,-1.151039123087998384e+00,-9.042227968331667531e-01,-1.944676327069398747e+00,-1.083436154448756294e+00,-1.258374466734738295e+00
6.025052253649808565e-01,-2.289348106806896599e-01,5.668313265919492361e-01,-6.050582810171400983e-01,4.160483051384367692e-01,3.362284922512442376e-01,8.849547651881269905e-01,6.897167173367129145e-01,-1.493262311939624054e-01,3.334010563841493191e+00,-7.148658119849673476e-01,-8.227040883080752876e-01,-1.631163947106699208e+00,-1.125621175256682704e+00,3.620388507914317766e-01,-3.738782769712142295e-01
-8.382836814951935001e-01,-1.145824281495355201e+00,-1.842497912032975138e-01,1.314396951373448363e+00,8.063728786236152857e-01,-1.173405903841383824e-01,7.915509652605020596e-01,-1.472426679954492945e+00,-1.318891053853362139e-01,-2.285364607598715930e-02,-1.744474175394776505e-01,-3.351980024800676472e-01,-7.361721464229016576e-02,-1.569519778658234888e+00,2.136850999532816875e+00,6.354060863252731783e-01
-5.955282295215723332e-02,-4.254933689940354480e-01,-1.349746109093165336e-01,-1.829455725825491097e+00,-8.653329563322202933e-01,8.330255650443042503e-01,-1.255515058552056695e+00,-3.374353900570802867e-01,1.166196653886376833e+00,3.971309421516764360e-01,-4.132617934200775167e-01,-1.068199624924474511e+00,-1.091603658460845415e-02,-9.837725796507018616e-02,1.933461570594704915e+00,-4.574126050016488754e-02
1.102276154044616874e+00,-4.048778357835590147e-01,2.254319481153832516e+00,1.265827537764208088e+00,8.593871489610215297e-01,7.174747219766403061e-01,1.867820673219415362e+00,1.241067034900950716e+00,8.362848441881247652e-01,1.368230855701857651e+00,2.140027384353975659e+00,1.787518480667827370e-01,2.773902309748966788e-01,5.110551356681689583e-01,6.536487334344345257e-01,6.442739283759905122e-01
-3.213152449274138345e+00,-3.601546724752691195e-03,-1.138901033327678780e+00,3.420330093062415311e-01,1.080303921571537540e+00,4.201995361355226333e-01,2.695396014407842600e-01,-1.796530707233042756e-01,1.183373893700119944e-01,-1.940943873455891033e+00,2.925032318127812836e+00,1.296288511022773537e+00,-6.498779424998532006e-01,-2.260891749282838981e-01,2.895647285633446089e+00,-4.426770677869687476e-01
-7.688089962276483114e-01,1.875322639819499315e+00,-4.201813638925611105e-01,1.044178755467339847e+00,1.053252167650891913e+00,-1.621663779892950741e+00,5.429309172761196400e-01,-1.585048580111825256e+00,-5.798030063780290622e-02,3.337952947892035560e-01,1.525972753743043142e-01,-8.212977957835375653e-01,9.356347599160411699e-01,1.782785544510685272e+00,-5.831419958866432829e-01,-4.392524036877043514e-01
1.272858036534032289e+00,2.405360001251518609e-01,3.875862948325394242e-01,-7.443999042245268427e-01,7.498660662836611479e-01,1.056849652532997563e+00,-4.773289187328201844e-01,1.746354994320059584e+00,2.658468614228009508e-01,-5.308401161456060002e-01,9.777202323376733561e-01,-1.428664742595908144e-01,1.630278046336089748e+00,9.444164482558586871e-01,1.823476021332165464e+00,-4.784603962331712701e-01
-1.498183637580179361e-01,-1.035133893687491868e+00,2.295652032559612810e+00,3.273298861623352152e-01,-4.383181053425135310e-01,7.786052078738648907e-01,-1.128723479067298696e-01,1.636625558527012192e+00,-3.007120168857854714e-01,1.406875695546327520e+00,6.522980405631835232e-01,-8.083077400106978283e-01,5.810613817402849879e-01,-6.933353346537147743e-01,4.503913360450346182e-01,1.233055017842034529e+00
-1.230217272813721063e+00,-5.433320429209703706e-01,-6.582366747872732127e-01,6.779313064527616728e-01,-1.137638216751505782e+00,-1.070998459838956723e-01,8.646528330013982799e-01,1.520441997756090569e+00,7.774725624263441048e-01,5.508731674737186168e-01,8.302747630962445946e-01,5.667128794103214462e-01,2.100498289704488819e+00,8.679954231171529422e-01,-9.308883211039492567e-01,-1.861591378980988587e+00
1.124761641821799552e-01,-6.839068834773717187e-01,1.498942415139692397e+00,-1.108301399889094069e-01,2.246192915574936055e+00,-8.012847667715951028e-01,-8.514938528729368294e-02,2.063539134390365959e+00,1.355826665442154237e-02,1.523979169762545993e-01,9.007165072214814439e-01,6.379762192363116480e-01,5.883486546642225923e-01,-5.113154151345293830e-01,-2.636501564384492458e-01,-1.981412490737879395e-01
9.629671240745967253e-01,8.349137718000684272e-01,1.755046604257845200e+00,1.115344007077972766e+00,2.085365699422374153e+00,1.037996435157976682e+00,-6.149093171786961659e-02,-3.900938077672605475e-01,1.054896233807945949e+00,-1.261191949388962064e+00,-1.282942738262273785e+00,1.951333673800294266e-02,3.759652438884791281e-01,9.347000533971197012e-01,-3.359579875571863106e-01,-1.241568614653210556e+00
-1.447463701743678000e+00,1.117803962451657807e+00,1.992297712341727350e-03,1.196338772100802306e+00,-1.534115255881300099e-01,-6.273135376020334553e-01,-1.700578845272605832e+00,2.861825493496965023e-01,4.137398586149932389e-01,-1.811710053309411705e+00,-9.366796541750823657e-01,7.960065495516313039e-01,-4.725388894992825495e-02,4.010190224703990003e-01,-1.996289910209391172e-01,9.954488099508890242e-01
-9.745659805232961825e-02,-5.985539686836889306e-01,1.406603745160034835e+00,-4.408683760247628092e-02,3.228983612070212561e-01,-1.100162399447578654e+00,-5.561109145079221605e-01,7.525609340923136159e-01,-6.614646390851667279e-01,-1.610572637146255426e+00,-2.706734545106166956e-01,-1.165477267835429709e+00,-1.229286741584402654e+00,7.807865627063609315e-01,-1.112213944094265494e-01,-1.663685281369023383e-01
3.372577342829258251e-01,-5.133264439529633405e-01,1.222285480167315530e+00,-2.311802990069237840e+00,1.530358418165680634e+00,-1.573678157349711615e+00,-1.015998684756194564e-01,1.634222878371713428e+00,-1.462437884899332871e-03,2.687950435985767689e-02,1.022861838366033060e+00,-1.011040283674226048e+00,6.665061064371092803e-01,-1.369817821282547365e+00,4.303509106944807677e-02,2.992490158677534873e-01
-4.510737576202555194e-02,8.523212636579108326e-01,2.067292503767931056e+00,-1.554120810703832345e-01,-1.837164699577791049e+00,2.590764961625912494e-02,7.439351707946308644e-03,1.235839658212807279e+00,8.747544365135238864e-02,5.405944346118172206e-01,5.750956953266081473e-02,-1.865159560358519431e-01,-1.641610113978790586e-01,8.491459301909055624e-01,6.345013169060745861e-01,-7.733445559433154148e-01
-1.798034612547565914e+00,4.297826145775035522e-01,-2.481284426712280222e+00,-1.843854694694391450e+00,-6.701303123045155852e-01,-9.913915540508568824e-01,1.525550672668829488e+00,1.260806563976390793e+00,-3.922162069578077892e-01,-1.091443632391039920e+00,-1.993233277580292784e+00,1.344094758994253791e+00,-1.791359512485231065e-01,2.803709366779653100e-01,-5.554100776666042183e-01,4.474287157771258405e-01
5.626853121732842133e-01,1.339255840033227285e+00,-9.698008158507219478e-02,1.166569903594988133e+00,2.357928544489581446e-01,-9.799116580120164066e-01,-5.913756796845447417e-01,1.385980565767290340e+00,2.654923119786441466e-01,9.303403649371108086e-01,1.436576973754283559e-01,-3.758516560871564272e-01,-1.345880266682369486e+00,-2.629136558866455031e-01,-3.876487897903114210e-01,2.941105829955616147e-02
5.464141532677497803e-01,-7.719496016838514607e-02,-9.139955316302914023e-02,8.331946918742050290e-01,-2.022795525134566841e+00,1.057136788326919596e+00,-3.088479636935849704e-01,2.989863564278055219e-01,-1.213441285526766444e+00,1.766993349371405730e-01,-1.142126529010076386e+00,-1.474851328055788668e+00,4.525572070518743550e-01,-2.570286882772624404e-01,-1.498023221973094454e+00,2.847268787588209671e-01
-2.321941902745018549e+00,4.667850482592529326e-01,-6.775178696564578829e-01,-5.554754316232728834e-02,-2.618553965666932104e+00,1.290843421181236295e+00,5.315095229133358634e-01,-4.663019808408859213e-01,2.587778546302416105e-01,1.706565263576091285e+00,1.278318511722504880e+00,6.891537572113169974e-01,3.839522325442574768e-01,1.325034478160675100e+00,5.923952362367027602e-01,6.933689413685033553e-01
-1.228174044901282347e-01,1.528937871106918200e-01,9.718510068282173453e-01,1.058879263949964317e-01,-8.910881872156303229e-01,7.133352650596318512e-01,1.363201803220202013e+00,-2.784942225039435115e-01,7.407951478604137829e-01,-1.349420559170302569e+00,4.067290769562358355e-01,1.170534788625003042e+00,1.709202334174218796e-01,1.754467435123282293e+00,1.785441863419649167e+00,4.918721897419166544e-01
1.783335102914668679e+00,-3.426933275373941212e-01,1.044490597569127655e-01,-1.239611651124838065e+00,2.005056884847391974e+00,6.043239311529896574e-01,1.508312397553105200e+00,-1.147100257869227979e+00,3.116805131927242734e+00,-1.259909848521331144e+00,-7.213169222349125054e-01,-1.347800059236678782e+00,3.867222278503330002e-01,-1.039796962538245495e+00,4.629485693639671766e-03,3.368482975553564046e-02
3.438161165275244735e-01,-2.030952200861451951e-01,8.072185027088331355e-02,1.360403493273064646e-01,-1.054588396378234538e+00,4.496571837766029645e-01,7.116964942749507417e-01,-3.060806622565999113e-01,-7.716012472745626960e-01,8.248822623268992071e-01,-5.103166071618050470e-01,-4.124195308594302833e-01,1.479464122421718653e+00,8.643224935263523756e-01,1.227228410555258664e+00,4.606156485615314766e-01
8.268305896162954360e-02,1.001462512466658072e+00,2.354766651639833341e+00,-1.670366930140570583e+00,-1.385293979233238160e+00,-1.221344231025086602e+00,-3.323963784141313327e-01,-6.187323493670449093e-01,8.010175826354013484e-01,3.201955016358886685e-01,4.195043331854014790e-01,-7.425165343755804059e-01,-6.322850691754363650e-01,2.117052131940890813e+00,-3.212946404333599570e+00,2.221854781703916926e-01
-1.679231965595824327e+00,-1.061832930924006879e+00,-1.399126905955909050e+00,3.489164333742215685e-01,-7.895957017166692626e-01,1.553315879829020085e+00,-9.231737895363300028e-01,-5.481245518856049381e-01,1.272309287202037176e+00,1.872179702855149674e+00,-1.016691653630562020e-01,6.785088789357215933e-02,2.563976252059743999e+00,2.152232668064804899e-01,1.777180642457055759e+00,6.723319100671376614e-01
3.593264303718701758e-01,7.028214194871670317e-01,-4.890397511799388780e-02,-6.980734646940816024e-01,-9.044467415100398977e-01,1.273496310458417158e+00,-3.094366079353819687e-01,5.139968873003769589e-01,1.640270756435647570e+00,-7.607957962169665800e-01,4.539727647271549760e-01,-1.119910587734759405e-01,6.828590466894135513e-01,1.782172201593342498e-01,9.182183833293070530e-01,-1.114626837345243038e+00
1.115626724823819860e+00,-1.664760514716829398e+00,3.383047430318046334e-01,-6.860473629640735371e-01,9.076697231593319759e-02,-3.376365517152817852e-01,-1.610896650217202186e+00,6.358182249661191721e-01,1.449538519523893010e+00,-1.460695452295027730e+00,-1.142142770593040924e+00,-1.959481930072932421e-01,-1.558976376665538233e+00,1.342178201497258028e-01,2.919868673261996617e-01,-1.343372699762862110e+00
-2.319861744419451921e-01,5.251481894322332922e-01,1.663953242510453623e-01,-4.967578620479220497e-01,-2.153246141852305784e-01,1.719966826643628544e+00,1.657832654312099974e-01,1.614399622157980163e+00,-1.478952749293892532e+00,2.720528307782819621e-01,-5.393195129912468078e-01,-1.347467892158774605e+00,1.408634339231693289e-01,7.014413662492825496e-01,7.726933736073273717e-01,6.448929648258240332e-01
-9.030009813614096048e-01,-1.744096599118330149e+00,-9.620388468871451937e-02,3.531586237997226263e-01,1.329714175116649022e+00,-4.199552952264615224e-01,1.242180413889368618e+00,1.153348500893915107e-03,6.002606968733218418e-01,-4.708557885406394750e-01,1.515505857706157533e+00,-2.155821868042736289e-01,1.419486682947713074e+00,-8.840495276459827689e-01,-6.650080214582038129e-01,3.167895663407697127e-01
-2.109594967479618555e-01,-1.433417178816301707e+00,2.035426252368082722e-01,4.752394084231967297e-01,-9.790313897189507619e-01,-3.809060172561707369e-01,1.711898485321569074e-01,-5.380899164595178696e-01,4.818681395096821585e-01,9.606112756026266020e-01,2.883748107242978809e-01,1.136104581428166727e+00,2.502262337329028748e-03,8.048217107339404874e-01,-1.496697687173529356e+00,5.219609252455832404e-01
-1.140640961033037026e+00,-1.115743893438105649e+00,-6.400059579198772441e-01,-1.503445326423447748e+00,6.598508995020636592e-01,6.037397727568863948e-01,3.219423044055960692e-01,-2.708298957777680371e+00,-1.040911326552007798e+00,-8.005927428296255588e-01,2.964002503556731338e-01,8.991902279117833796e-01,1.036935205680511674e+00,-8.816076765282111760e-02,-1.643047350076821012e+00,1.815929365239211002e+00
-1.420204261727748551e-01,1.140572665752884296e+00,-8.318145078919800817e-01,1.737459608123045784e+00,-8.410901916171620307e-01,-2.155997660913157254e+00,2.717314112788898894e-01,-5.534204523172780998e-01,-1.557319297115849599e+00,6.992763765125692421e-01,2.253762064298268086e-01,-9.349661217339575447e-01,-9.301018718599156354e-02,-4.755639426470211623e-02,7.802939821457589575e-01,-1.095444312863207648e+00
-5.022999528300391425e-01,1.789127821044655731e+00,1.430194660477547564e-01,1.416866171203460922e+00,-1.555293460089990365e+00,1.206345699901259394e+00,-2.924283138238708002e-01,-7.470073671047611219e-01,5.217206312812674440e-01,-2.374394429760492420e-01,-9.867407613435226210e-01,9.355830604372845638e-01,1.180838382487997107e+00,-5.796897816050061714e-01,2.207974866535682701e-01,8.586251742501298523e-01
2.809100058484108597e-01,-1.719514778828125312e+00,-1.481482897778656049e+00,3.990086819513267297e-02,-1.904453650860536973e+00,1.998699681259842320e+00,2.455696641297532845e-01,1.152763305526978699e-01,1.381210218022239200e+00,-7.771418937398997251e-01,-2.922278395091191250e-01,1.551789165879464139e-01,9.720727945748622867e-01,5.379021832836086148e-01,-9.967860774367295340e-01,-9.764265320013332250e-01
6.633768249641256443e-01,1.445170259523655965e+00,8.588629592793443068e-01,2.832842784780627010e-01,1.101456485545665581e-01,-1.280471958744744398e+00,-2.526655303657013851e-01,-1.986534160276099081e+00,-2.327596154414891538e-01,-9.589248642543785062e-01,2.041581363455652554e+00,-1.108812558397322068e+00,1.512996457311503784e+00,-5.873193445672836299e-01,-1.478423665941405174e+00,-6.649712979354696629e-02
-5.762149122372877547e-02,1.019548800208496697e+00,-4.392428745133678536e-01,1.226561800216187104e-01,-1.719305673148040503e+00,1.883085522332288653e+00,1.400983704586236944e-01,-8.092164807130580728e-01,5.291428530157169519e-01,7.659924358004986944e-01,4.256235635060129918e-01,-1.317966997403056562e+00,-1.850223062351717518e+00,-8.452256766395125354e-01,5.772050552254399669e-01,-9.976866704511518913e-01
2.550989056274650113e-01,3.772401342097167487e-02,-2.576975450866069162e-01,1.694032010739017657e+00,-2.595664858984198187e+00,-7.356978973325321858e-02,1.772902096539762384e-01,5.835924878522172898e-01,-7.254584353985150669e-01,2.483028938253235285e-01,-1.094037632003499461e-01,-3.293066026465636398e-01,1.277963340189852026e+00,-3.073871881710185106e-01,1.884710739223356191e+00,-7.885239153482611618e-01
3.166328523101877845e-01,2.300168805875595635e-01,-1.959287354524179126e+00,-4.566005477650211808e-01,-1.455843057477970159e+00,5.565580499578701157e-02,-1.288262762468171951e+00,1.540264874757347302e+00,1.607660564299960404e+00,-5.085957470339314695e-02,-3.047029850923413385e-02,-1.671092756029910753e-01,1.248248884944524462e-01,-1.896891819614174191e+00,9.330951808008730586e-01,-1.385046459293842180e-01
-1.357936718173161639e-01,1.123439731642856376e+00,2.221898891294370737e-01,4.499693965136398188e-01,6.948234474472806399e-01,-1.440013426736250213e-01,-2.107720720747258969e-01,1.334759297371235665e+00,1.043252019771616079e-01,-3.398303310999193361e-01,1.718409270119777510e+00,9.881856184872657156e-01,2.353147886127417709e-01,8.847780647471032989e-01,2.034170649313968404e+00,1.784467594886286479e+00
-1.474748933142722429e-01,-7.301020115504522900e-01,6.004682457543732976e-01,-2.223377216804050260e-01,7.543702442356320370e-01,-7.653685047021375754e-01,1.325207244244058558e+00,4.873023845711944579e-01,-6.656951180356668329e-01,9.793952187325818404e-01,-2.790045284262924197e-01,-1.428189466793985396e+00,9.880542416042953358e-02,1.552594701946412858e-01,-1.130649183014696746e+00,3.620411841206184339e-02
4.727127868428437352e-01,-3.159872109398589313e+00,-2.009902305454439819e+00,-7.579104264300924598e-02,6.771614079919722196e-01,1.481090267212251010e+00,-2.337785781814375741e-01,-2.627741437610052744e-01,-1.745014531276457337e+00,-4.110987443373421285e-02,1.557516311603954540e+00,1.479417803713761081e+00,-1.127504714372587813e+00,1.088967607286667416e+00,-3.919092899046719425e-01,-6.574332741702244576e-01
-2.614265965703767569e-01,1.902034239301636953e+00,9.535621819684527711e-01,1.335987643578740558e+00,2.018080130957195795e-01,-1.422545265531089953e+00,-8.554452400985557148e-02,-4.477162808306124897e-01,-5.632430788486395001e-02,-3.521557971042871826e-01,3.150930278551218322e-01,-3.514971647579385183e-01,-1.824888750069915355e+00,-5.000001010963394110e-01,-2.515646450718359572e-01,3.784145314500625412e-01
1.222537768935750391e+00,1.889291677690175586e+00,3.266445561359864747e-01,-6.166370888043832821e-01,5.537225005470900463e-01,9.658785219600244387e-01,-5.130256751677502169e-01,6.607225113846589004e-02,-4.035989069277836072e-01,5.254288084728292452e-02,-2.140127525751046589e-01,-1.104111481925782234e+00,1.542166510489188180e+00,1.108241575586291078e-01,-1.343669471429070672e+00,1.570580033414438859e+00
5.131409893608750439e-01,-7.090215047949421923e-01,1.312018873685807829e+00,6.112464564079108653e-01,-5.955540541804772436e-01,-1.761969410353577015e+00,4.519824820285138767e-01,5.162164658339605250e-01,9.181155569078643941e-01,6.737961030085271030e-01,4.466088697409800745e-01,4.321542952941440086e-01,1.009382195765409218e+00,1.204311612757181571e+00,2.981988110380359158e-01,-1.946787387111035494e+00
-1.486510059019673369e+00,-1.256575461254733739e+00,-9.864001000616160475e-01,-4.599699342964194138e-01,-3.671391654581231401e-01,9.324167275528950638e-01,-1.436873721661545422e-01,3.226040977143921906e-01,6.831133094332587641e-01,1.604209916161650540e+00,5.705683552020144322e-01,-2.169024519852406907e-02,-8.152243765907575268e-01,1.215406924385739496e+00,1.173752342608478161e+00,1.485369491347323656e+00
-1.770655232005910129e+00,-1.901884810912327861e+00,1.730005597959126451e+00,-1.117233725629957597e+00,3.934438408733301196e-01,5.383763057515231765e-01,1.201515529209983002e-01,-3.999108808722519615e-01,5.578858017103008882e-01,-1.522493254570644883e+00,1.112543353375013977e+00,-1.369504686487669431e+00,1.033000051545793108e+00,-6.374860363021804810e-01,4.931612107364369280e-01,6.485299767435886986e-01
1.056509845168370321e+00,1.228785300652379453e+00,-1.509476989613420139e+00,-6.100604614401889947e-01,-5.112011007227943438e-01,2.050721207205246088e+00,3.900472781992452287e-01,3.670107638797651672e-01,1.387945403691337454e-01,1.236696736925204654e+00,-4.565441755720196504e-01,-9.898458181820909418e-01,4.618783575042501588e-01,5.687088669967595989e-01,-4.286292247361390140e-01,-5.545554526621216951e-01
-1.928005102203088628e+00,-7.580916978065783962e-02,1.019906679393341314e-01,2.582372559376225896e-01,6.360160953038918041e-01,8.501774031347990590e-01,8.714390535163043516e-01,2.191123593769050970e+00,2.270068649482768208e+00,-5.580272543336135538e-01,-4.545284361203676821e-02,-1.599412503202183977e+00,-5.081496522320380071e-01,3.226487519631652395e-02,-2.267981350956772779e+00,-1.395498409177772015e+00
-6.294933081772789984e-01,4.474001656380603431e-01,-5.278849388665968201e-01,-1.074224420104068489e+00,-2.276358616167638793e+00,1.426446931938178730e+00,-2.913024820792594838e+00,-7.080531009913023643e-01,3.368049166368651259e-01,1.016687079470000477e+00,7.823179163830595861e-01,-1.304569769033198545e+00,1.135049344184394959e+00,-1.616910443947959131e+00,9.493436412020442861e-01,6.097426473767969535e-01
-1.542057986184605989e+00,3.251759282907186743e-01,6.452935459597108903e-01,1.348419373860424653e+00,9.487949807733780938e-01,1.738209323273673945e-01,-1.463203198079938150e-01,1.950992690857254797e+00,-1.280705477306284534e-01,-8.260268991074562472e-02,-1.013587245231510892e+00,4.833062302341499250e-01,5.927464487037894525e-01,9.878116607954559591e-02,6.953431139855084098e-01,-3.387142897527547492e-01
1.620840408957960332e-01,-2.713179642373421685e-01,-5.643834935774322270e-01,1.729732395436539116e+00,1.074049525462297927e+00,1.669011801216907731e+00,4.372429630750668816e-01,-5.211278890574434497e-01,-3.872786969005022617e-01,1.834772359874703440e-01,1.170040800718357143e+00,1.856479496296203235e+00,1.500910207839342370e+00,5.750612489367142866e-01,-8.231309914133528860e-01,-9.520050985402027655e-01
3.256928851590474294e-01,-1.048138631902616913e+00,-6.109478114991448994e-01,2.047120661950996845e-01,1.527919641654386318e+00,4.925894208872789171e-01,8.112776730758984867e-01,-2.533169855231948708e-01,-5.105014691422823381e-01,5.204187963907833669e-01,-5.229718765650780421e-01,1.202823972788768181e+00,7.178513251743661172e-01,-1.598931893222733436e+00,9.139853740129435522e-01,6.937662413372328585e-01
3.968191670918500003e-01,6.943262372647350522e-02,-5.317452735168830269e-02,-8.874658852725877956e-02,2.678559294465988061e-01,-9.588490081318254976e-01,-2.112993524936126466e-01,-5.688853134554401336e-01,6.522171971878544250e-01,-3.549008327973229848e-01,1.167499060870710315e+00,5.175775207802021938e-02,5.949812539828005509e-01,-2.082692334551835278e-01,-1.712314572843985916e+00,9.636796892383134860e-01
-4.266694522748578078e-01,1.830574697080767921e-01,-6.971643798951712157e-01,-8.274402104801739655e-02,-4.517935748666743745e-01,2.696375825070499999e-01,-1.288279669773306102e+00,1.396154276336147415e+00,1.497976373668508332e+00,-1.184962003755306165e-01,-1.419636606887482833e+00,8.868738263033419944e-01,-5.421043594180746661e-01,-4.304943062836562584e-01,1.780772247284959198e+00,7.732161450597634378e-01
4.381834944832611600e-01,-5.670247342632531717e-01,-1.848709563874280093e-01,-1.830460100614565988e-01,-7.304554491288457463e-01,5.317651585575580153e-01,-5.951893662830581855e-01,1.380170367068800086e-01,2.698612766472106572e-01,1.554128185397135153e+00,-5.791514024598165555e-01,-2.025494662401955137e-01,-1.464359404582272206e-01,-1.046272082327778241e+00,-2.290920309979556646e-01,-2.219658541034296828e+00
3.939845046961577557e-01,4.993645545673275898e-01,1.334759200281394331e-01,-1.460254899564966014e+00,-3.771431831979036864e-01,4.149807464437012539e-01,3.165574749919843889e-01,5.785149898784919253e-02,-1.208259866615041256e+00,1.113751828673133160e+00,7.257922806072313326e-01,7.948087295659160834e-01,-1.466318704706730314e+00,8.519393577927839578e-01,1.600146895273683700e+00,8.075534488955646850e-01
9.992068046747568655e-01,-6.035030782054476850e-01,1.094337661021778985e+00,-4.166610067486987701e-01,6.215840015558207199e-01,1.650891283856616099e+00,1.172444631447323582e+00,-2.972201526754382872e+00,-1.384938783410776808e-01,-5.033742531395202224e-01,-1.170489935812139004e+00,-9.319512146648207818e-01,1.245336942465327335e+00,2.601630684880149591e-01,8.884260755735277071e-01,-8.923027546113691810e-02
-9.515378348591180258e-02,6.430341948209368219e-01,-1.484035392050919056e+00,-1.061993843617018873e+00,9.502090890057579564e-01,1.891277769483840077e+00,1.075189916672667056e+00,9.798834949444497067e-01,9.294186772495981463e-01,-4.195395042139163366e-01,-5.172698979335574876e-01,-1.654428955756659103e-01,1.780041559672680407e+00,-2.246489008942810894e+00,9.810435872467032636e-01,9.227193789970061788e-01
-3.136624932533508270e-01,-1.097439832947048499e+00,-5.482457791253360080e-01,-2.542217040542945394e+00,8.690267006669420979e-01,6.090771933595214849e-01,-8.150838172343696231e-01,-2.147198244404309619e+00,2.511192154881713434e-01,-2.928861875873469689e-01,4.234056598404850602e-02,5.330856784284936367e-01,1.733902121961445608e-01,2.565682939512631267e-01,8.008034067554449242e-01,-9.482530655000586117e-01
-7.918237348701504530e-01,1.604233224993674378e+00,6.229222098199593827e-01,-2.751044928858504601e+00,-1.467545543242678940e+00,7.055511926947977998e-03,4.383404224829584583e-01,-9.358224167952856609e-01,1.601983215810139694e+00,2.727487711662807124e-01,1.058204861019362668e-02,-7.072958080532334435e-01,-2.439560666728337601e-01,-2.867514141117172843e-01,-1.770847118603229298e-01,-1.034690009880523398e+00
2.523845131520639495e-01,7.689289459748668287e-01,-6.364567024924763228e-01,8.984855716315514051e-01,4.975454134516438948e-02,5.755365953075841645e-01,-6.934217887617246667e-01,-1.256521014228656474e+00,-9.990869595773951284e-01,-4.470592213562344375e-01,-1.602545130500719894e+00,8.877938166012612209e-01,-7.131832649018017556e-02,6.482571345795351547e-01,-7.967093399590258196e-02,-8.098930049361267036e-01
2.039211497462323219e-01,5.645968526523965914e-02,2.433976222007499524e-01,-3.408879914039707471e-01,4.348928478133216591e-01,8.331795172066354116e-01,3.624893854106148172e-01,-8.599875675456186697e-02,1.164433921754653323e+00,-7.194278995904166418e-01,-5.882931855369603891e-02,-6.077188373008266531e-01,1.589685772864952995e-01,-1.482313561187073858e-01,5.219596538141998421e-01,9.952928772064845164e-01
1.632139800627849580e+00,-8.065673251049098047e-01,-1.052419131749026571e+00,1.803721977933482323e-01,9.238979104306395407e-02,1.126269134213762957e+00,-5.245199159260023336e-01,1.846939116209060483e+00,-3.839872939583980349e-01,4.254971033852317230e-01,3.301860377542609193e-01,1.004923269118753071e+00,2.070338416302568429e-01,1.613225639397520617e+00,1.074204545945197875e+00,6.084222565554235906e-01
7.487117301340036057e-01,-1.319896079559023938e-01,2.121890018894473928e-01,5.683322101518881730e-01,-1.175327015678938158e+00,2.516804835779550276e-01,2.050191624779122535e+00,-2.460781029391774677e+00,1.362931120027265797e+00,-7.152736824783230141e-01,-1.875805151730338460e+00,-1.924563026839440472e+00,-9.895158536086272605e-01,1.220008147946341492e-01,-6.091904089409803102e-01,2.017993415888162112e-01
1.648271896828146676e+00,-1.139791857079323512e+00,-4.816512031029426821e-01,1.082666350728518134e+00,1.208291114829774804e+00,8.188608268446222194e-02,2.246274849107215144e-01,1.784913770077853068e-01,1.744381556098956731e-01,-1.451987816607441584e+00,2.958466606537137333e-01,-6.300846992724636886e-01,1.735899183968953263e+00,-2.717670936620865049e-02,-1.426481640147443164e+00,8.110181580391371270e-01
-2.005425508867376416e-01,-1.079742723391743375e+00,-2.027222072800690000e+00,7.018367322893780402e-01,4.359386125693284764e-02,-1.372416596150759061e+00,2.256484654376272214e+00,7.574756957012477310e-01,-1.009015539655905291e+00,5.797735864523955174e-01,6.924699332848516242e-01,1.093361869300557343e+00,5.108701315903381168e-01,-7.641368472850702531e-01,6.268294737433662833e-01,9.423598682941634053e-01
6.524177701878799418e-01,-5.879708561105178033e-01,1.678480981525583560e-01,1.574972925142691604e+00,1.569594060259767998e+00,1.858806701384334570e+00,6.151516330583430836e-01,2.528607807476956904e+00,-8.371201641717169739e-01,-3.775629192245885113e-01,-1.999265277127914575e-01,1.329734318228789514e+00,-6.343262562693759987e-01,4.785179984439623113e-01,-8.759819114538471840e-01,-2.534718850768534759e-01
1.558633389532479430e-01,-8.226900970350691233e-01,-1.001030247768382592e-01,-3.484801930660730990e-02,2.313957185076749301e+00,9.699143432899789419e-01,3.988445560276357993e-01,1.028320486225662300e+00,3.195591210901125301e-01,1.240614554237015055e+00,7.957742698744735277e-01,-1.008698196375727996e+00,1.470772746120913466e+00,-3.884399406364995588e-01,-9.971061380590763301e-01,2.396794917937794256e-01
1.239883681411962701e+00,1.768346265027377351e-01,-8.338137868758751514e-01,1.988710927050703903e-01,8.811809910463549445e-01,-2.020680680610153768e-01,-2.945486438361614723e-01,-5.747396504606211431e-01,-5.354387501567319310e-03,1.042563346590873463e+00,1.201581735532463391e+00,-6.640772741674737523e-01,7.657729065043419880e-02,-3.662906805896358198e-01,-3.100248656676549142e-01,1.544573476425788128e+00
-6.656772949734710565e-01,-4.834729679299403469e-03,-5.751348592735734400e-01,-8.782409212950641197e-03,-9.611942782489983905e-01,6.359120616552158545e-01,4.579271294506099821e-01,5.385917127457801740e-02,7.334671718611800451e-01,-1.580723015586777080e+00,-7.804710420770538670e-01,4.429023037646341310e-01,-8.017465995268620027e-01,1.634895341613016750e+00,-2.351234278341005068e-01,-8.959981663431217103e-02
-3.573671920338982178e-01,-1.485034638870143420e+00,6.243571997347307362e-02,7.902719796662095453e-01,2.129866392985431567e+00,-1.972080419893529335e+00,-3.418371677349112403e-01,-6.543309709162802301e-01,4.103408059211602343e-01,-5.769217206456863645e-01,8.274297060042569152e-01,-2.625722643376606977e-02,-4.412860601661689475e-01,8.379300169522142516e-01,-3.576943239516325868e-01,-3.426783648978732333e-01
-8.571764636744985122e-01,2.008579776590386778e+00,8.660223697103052176e-01,-2.117991135261924895e-01,5.093559749023204297e-01,1.476822297774956771e+00,1.382515625312210616e+00,2.655408572230284925e+00,5.917373602131302812e-01,-4.844998847843765000e-01,8.627532466369332020e-01,7.810239491552720681e-01,2.276350261353188298e+00,1.898716752778982997e+00,8.188083888970697499e-01,-3.000951651178598856e-01
3.966744738672515203e-01,-1.745674628357129499e-01,-3.822623770680431132e-01,-3.993170860269267264e-01,3.867230682397563846e-01,-1.118789900283469363e+00,-8.852634694893192491e-02,-3.035893976030661912e-01,1.070187405924430069e+00,-3.735575864690890424e-01,-1.770229613532780633e+00,4.721300167741725867e-02,1.485034169287223982e+00,-6.146137997431549288e-02,-1.566398944351007572e+00,-1.198477858788356831e-01
-8.808963859947180897e-01,8.638346965702661251e-01,8.484254884964450572e-01,7.057448471292488978e-01,7.880152058802704085e-01,2.607984656533096635e-01,-7.750492553313584887e-01,-5.593553889906968668e-02,-1.200104942892286752e+00,1.425649983410720134e+00,1.444627577371748565e-02,-5.102855612634908944e-01,9.546742487042968461e-01,3.780166752796783602e-01,-1.935066228642448871e-01,2.502448772947655220e-01
1.112439698634434482e+00,-8.071110622726871409e-01,6.112408329841575449e-01,-1.769015348255245923e-01,-7.723710326916555235e-01,5.893696531801406735e-01,-6.451088748176053711e-02,1.615141587561541359e+00,-4.075917108097919517e-01,-4.047642084653401140e-01,1.720497310460382678e+00,4.342568807409773468e-01,2.515819781923372966e-01,9.801705134070357039e-02,-5.265520535224553766e-01,4.643698180520335339e-01
-1.096735099310402806e+00,-1.035432798395224951e+00,9.104396689423943645e-01,1.214325638687125397e-01,1.303614386287246463e+00,3.528777364850774756e-01,-1.554194264516447266e+00,-8.653735928451875559e-01,1.510712394086601851e+00,-7.170205166760624804e-01,8.034314614520587927e-01,-8.561117607317658695e-01,7.359199226278584360e-01,6.770338466261781596e-01,9.024693626484771303e-02,-1.616935939613311612e+00
7.016112079631019460e-01,4.447521332878239253e-01,-3.305697273938743019e-01,-8.308745079407160450e-01,-1.119044391097408164e+00,1.518540875289525749e+00,-4.937200438400226044e-01,1.073401471805093044e+00,1.663793416253144808e-01,2.346629869798599610e-01,9.357300709287401652e-01,-3.206081196719790527e-01,2.668347549508867100e+00,1.217573064083306456e+00,-6.025768975979259867e-01,5.447755935507532232e-01
6.933985253460751563e-01,-1.107647639345962665e+00,1.125854231561040503e-01,7.904992339375635502e-02,1.137117278867788350e+00,-1.206746694725505442e+00,1.286589412675664290e+00,-1.146279246218879333e+00,-1.700578183676243915e+00,5.418446610397391616e-01,1.099252429597636915e+00,1.072819248083223709e+00,9.946752105157595780e-01,5.920401393265563028e-01,-2.520576196055953622e-01,3.626728686355520925e-01
-8.978386481858049439e-01,-1.047877568240138890e+00,1.361189754025567411e-01,1.765666358266872127e+00,-7.649137361584983363e-01,7.798374464895458935e-01,-7.830142161575616155e-01,-5.818271225291800075e-01,1.018560772636372569e+00,2.089709048132855629e-01,-9.301347654812841537e-01,-2.905328312277186131e-01,-2.394153572069474822e-01,1.214817139059909401e-01,6.685387171443287757e-01,-3.379517790441007863e-01
-1.200511781399637101e+00,-7.263552487691528059e-01,9.860169245311257713e-01,5.303274438774067123e-01,1.840365315489542297e+00,8.473405932869330082e-01,3.518128278573968148e-01,5.730332045888663073e-01,-1.113958338540623538e+00,-4.717476146440316986e-01,1.928384377909427849e-01,1.704301334429677572e-01,1.471686764818418980e-01,6.802886986629617105e-01,-5.814940173286152758e-01,9.293023527598835709e-02
-1.075488843578508380e+00,1.172209979795577839e+00,4.503936391910344783e-01,-1.463414390216088767e+00,-1.578158057478602494e-01,-3.281243387189433647e-01,-1.126208210568825141e+00,-6.335662351835038564e-01,-1.111319698614976481e+00,1.154124149779412134e+00,4.802366694592756780e-01,-6.442183815646231881e-01,-1.317890640722032991e+00,-5.223072693290597979e-01,1.738577330626931206e+00,-2.075306490069090681e-01
-3.805154952366160415e-01,-1.455451079953434590e+00,-2.113578448542315691e+00,-7.218904119820278575e-01,9.375649914836841070e-01,-6.389142526745644757e-01,4.526915304369618087e-01,6.569167107252213422e-02,-1.422455815410124336e+00,4.474155275050827330e-01,1.539875637638665196e-01,2.449695517658418698e-01,-2.030067184154646376e-01,6.928827634741233643e-01,-2.173170560715664390e+00,-1.634068644622321473e-02
1.106135790237873333e-02,-4.146980635357984113e-01,1.123167295950961764e+00,4.464199827932117115e-01,3.662506938747782659e-01,-7.977754511143914096e-01,-6.030981129893324688e-01,1.088877684137058655e+00,-1.206521750020133732e+00,6.284316100482670864e-01,8.686909708635045524e-01,-1.494390522355663053e-01,4.488743936761658837e-01,7.422424681938355473e-01,2.214629483912054830e+00,-3.146084453730344510e+00
-5.445836645350456973e-01,7.763985844144022375e-01,-1.112885074643220173e+00,1.584828103362733609e+00,-3.453746674049893994e-01,-4.495403547066445515e-01,-4.379212916802264766e-01,5.665485720698351102e-01,9.633438449780761248e-01,4.758223735095020168e-01,3.695481950615835398e-01,-1.202208668448206730e+00,-3.802368674131635928e-01,1.320296469732212818e-01,-6.637162028251411550e-02,-3.208611103625927385e-02
6.756134592663344263e-01,2.421210277785582343e-01,9.628522325845689789e-01,7.563464310415569658e-01,-1.466101332491425824e+00,-1.932867007405869933e-02,-2.497282315679766107e+00,-5.410637485780193101e-01,7.267789694131927547e-01,-3.852852081357721059e-01,-1.485643181954876546e+00,1.720166931259269116e+00,-2.904722529031216610e-02,-6.751109459357915732e-01,1.529869618289944611e-01,-8.243220818062731992e-01
-5.048958940028018816e-01,2.938212428561138845e-01,4.172484355034379866e-01,3.153537245042455917e-01,-2.623120771407330687e-01,-6.620076322739948393e-02,7.957823355336332005e-01,5.081605542925123897e-01,-7.708128443925228897e-03,-1.443714275002748959e+00,2.764450372916694709e-01,-4.623527198635930535e-01,-7.141843108298536746e-01,4.844582479566387767e-01,-8.084824551816184313e-01,3.671450271699301937e-01
-2.385717770153066297e-01,1.112081407265709920e+00,1.787886411442658030e+00,6.282459957702607456e-01,2.563503245979183109e+00,4.680125708921823446e-01,-4.599645185822664462e-01,1.017202153726802782e+00,5.324227436420906345e-01,-1.535441510145529043e-01,-4.401540598991423026e-01,1.546490739502118572e+00,9.406609049330231231e-01,8.408620437978056028e-01,-8.168330448749657746e-01,-2.650539993920535964e-01
1.224882132832488146e+00,-9.726374687754371084e-01,-1.151928945029369489e+00,7.027490609410256273e-01,1.667342460083484079e+00,-2.581040377845727374e+00,3.071196521223041875e-01,-4.308234530903567450e-01,1.568338662674681139e+00,-1.132005550765516677e+00,-1.208102306129727133e+00,4.330540036106817481e-01,-2.786008198955006732e-01,1.882453581693211975e-01,8.040296834767794998e-01,1.430355421574084573e+00
3.199168165771455463e-01,8.287861994988540149e-01,-1.853076026339031790e+00,8.495220135566423914e-03,-4.222332347422488863e-02,2.215152449937869694e-02,1.400057949905306742e+00,-1.147519826877000382e-01,1.266722793002866387e+00,-6.669082169332142263e-01,2.299275759620421633e-01,-1.416495776887212177e+00,1.345378209954509741e+00,-3.258879980810407417e-01,-4.316432382534685641e-01,-7.188240521200427446e-01
-1.064631377380962363e+00,-1.564006692107323016e+00,7.605137405915621818e-01,5.862817045984963782e-01,-1.113856132160598311e-01,-1.982640543139776723e-01,-2.142801956800432714e-02,9.894412618080886124e-02,-6.717843583621310177e-01,2.378927407748268053e+00,-6.376357077923326955e-01,1.137452519615996666e-01,1.219244196925596269e+00,-7.990085970143074867e-01,-6.111966497970091616e-01,9.109575414856035946e-01
-4.953508990591366512e-01,1.100722707720725779e+00,-1.897551456619577470e+00,1.424227831728835714e+00,5.044845345908957057e-01,3.033871864643375993e-01,-2.277722552502200681e+00,5.120463179226630857e-01,3.164777144083933180e+00,-7.631406798634686739e-01,-9.981771640356380537e-01,9.206116553676916281e-01,-6.157016774188091013e-01,1.020481596079528153e+00,-3.000975339847118395e-01,5.415375865530297483e-01
4.061869780344132819e-01,8.744777691852817503e-01,3.049466487837810269e-01,9.233668169746259702e-01,-6.085668588371406090e-02,1.613206841177342310e-01,-4.893440794764203905e-01,-5.818022951620664962e-01,-1.345792817902354610e+00,8.679586280822894073e-01,2.114118608523037068e-01,7.035147478057709458e-01,2.162000945354418391e-01,2.005513067968088148e+00,4.827610722241661989e-01,1.759671777598666109e+00
-1.746814263388923205e+00,1.966074015551362020e-01,4.297650459701225500e-01,-5.570316872521620111e-01,1.120187119439516099e+00,-1.349002891681059801e-01,7.305364304246576568e-01,-2.954361968460247900e-01,7.667238184488098796e-01,-1.906451548450853073e+00,-5.966935331235154183e-02,5.511072355360832065e-01,-4.087597435146311242e-01,-1.291473121042473915e+00,2.829833693049844112e-01,8.891585978360042608e-01
-5.346134651159535345e-01,-3.839607501403477507e-01,3.611574168947625368e-02,-2.651157999820893396e-01,2.030528030018064756e-01,9.057139352354361128e-02,-8.971520512332163688e-02,-2.532637088398301817e+00,1.374259651268079085e-01,5.348554941130384544e-01,1.513089648500021145e+00,1.569683606264060893e+00,-1.757024149694559334e+00,2.415024016866306467e-01,-4.568943965788373474e-01,1.671425463276048351e+00
-5.966599883312598829e-01,1.084709702860340297e+00,-2.203646906705525044e-01,9.728748118650092369e-01,9.701353288897539562e-01,-4.323341502879852194e-01,-5.617758709762026292e-01,8.097606475384625524e-01,2.419052388495895600e-01,1.905084784789829733e-01,-5.225559583250849460e-01,4.509816733439054315e-01,-1.126144772481108280e-01,1.839097744976969873e+00,-2.274951721676372163e+00,7.003148898808472245e-01
4.421491507437341206e-01,-7.917970940793658263e-01,2.114233558689150583e-01,-4.584952703441207422e-01,-4.078467809234707087e-01,-1.452335919670741049e+00,-1.148249359663676694e-01,-4.838005165081014081e-01,1.766694837487067016e+00,9.202436337388539833e-01,-1.038475969429227375e+00,-6.581284461358724025e-01,4.838631402785557589e-01,-1.416131722625910472e+00,-1.349676731627727222e-01,1.654830208764292765e+00
-1.354591140538140781e+00,-1.750858411016140703e+00,-1.353787040412217424e+00,-7.207233241072683039e-02,5.082335167453234659e-01,2.686326728365801345e-02,-1.440967884950030919e+00,2.524702536536458375e+00,-9.903123318779954998e-01,-2.522136239085168707e-01,-4.402738734368383255e-01,-5.696723566421283413e-01,-6.494014276277371156e-01,-1.049571922803569368e-01,1.367643553718191907e-01,8.951152067906790188e-01
-1.085170130332231420e+00,-9.118534810828271553e-01,-4.456058747281563953e-02,1.759702524204435070e-01,1.757290835832066467e+00,-3.428493863356573690e-01,4.418574010594369939e-01,8.286624887241142434e-02,1.590123881455125288e+00,-1.016410447348178314e+00,1.988871658071159898e-01,-7.478378881891365459e-01,-8.561395744059043800e-01,1.380309021310401896e-01,-1.997632442525153929e+00,-4.178696278898892946e-01
-1.343050969072213385e-01,5.548193955592272131e-01,2.029419355216593335e+00,-3.957452911530222051e-01,-6.865551399873214278e-01,-4.403976790139086939e-01,2.070491872088992269e-01,-4.515255636978410814e-01,-2.671008597165329054e-02,-7.024292380330859897e-01,4.435019278613511196e-01,1.092909931520920752e+00,4.604733531370666100e-01,-7.180365321206874096e-01,-7.318321469647798283e-01,7.524407882785011381e-01
1.533213429943077966e+00,-1.113306070525085789e-01,-5.503021309315054843e-01,-1.502250347118902152e+00,1.574154916619113553e+00,-2.066069187191038048e-01,2.506616511404670788e+00,5.108148836504338153e-01,5.487857626152411461e-01,1.744540641792672320e-01,1.237617143809545794e+00,-3.888031660289296143e-01,2.051079250031324908e-01,2.027048384659053681e-01,3.088219310646162508e-01,2.610422854927400005e-01
-2.045491706029319179e+00,-1.109971254785998784e+00,-8.472159683046335266e-01,-3.091252110060494634e-02,-7.594526566432100445e-01,1.258636664471877609e+00,-5.901745911062987737e-01,-1.050348203699475569e+00,-1.143484372660550141e+00,1.268667463263460471e+00,4.531534225834340512e-01,-7.061055787308270215e-01,8.935548509659467786e-01,-1.427337121496677352e-01,-4.322346076065055609e-01,3.916395958162880997e-01
4.441316869162275083e-01,-1.481041714439579993e+00,-2.149387691295449876e-01,-1.081902156643118840e+00,5.347042561093687807e-01,-8.807846536202088572e-01,-4.251307613082613845e-01,-5.759567665333565900e-01,1.000403303739950234e+00,-7.154977229442225362e-01,-1.843451055083240864e-01,7.567097011175457633e-01,-3.280293217787178528e-01,8.568916559829933277e-01,-3.771479449668095896e-01,1.401979508039146394e+00
2.254649406317088101e+00,9.488083969439343734e-01,1.536887756898633606e-01,-3.960967310945353037e-01,-1.806541525443703389e+00,2.841593720217337471e-01,-8.137667922452291869e-01,-7.836098297883115071e-02,-1.302137738075263007e+00,1.525350360969880970e-01,-9.522334934958464059e-01,3.554784869891248200e-01,-1.544857253461990598e-01,1.637382092623889118e-01,1.232302635257765955e+00,-1.199282013252219503e+00
-1.975493220495809221e-01,-3.590537370326948169e-02,3.466014111182961210e-01,-1.364745997178316239e+00,8.160965133271754768e-01,1.194379107570558096e+00,9.332147053357230382e-01,-2.530130900354647314e-02,-1.155914877785249706e+00,1.570942181566327589e+00,1.402673689896702269e+00,-4.368018119465932880e-02,1.493006351200436566e+00,5.278551972150300475e-01,-6.905027221404450577e-01,-3.729810735149441947e-01
-1.687686977537797284e-01,-1.744141182424807424e+00,-4.600665841011659096e-01,-1.139525051083379203e+00,3.309766506872762609e-02,-9.681337038762952846e-03,-8.473473666763788048e-02,-2.200075066321675266e+00,5.980691747108990430e-01,-1.330346917174698440e+00,-5.897863407866179436e-02,9.035122854505518442e-01,-9.422141159568984126e-01,-3.778839875451933117e-01,6.796042342189521079e-01,-6.182153846747816539e-01
-1.179630445631388636e+00,-3.725956984966485863e-01,-1.751199844467226319e+00,8.664098121522443297e-01,3.284578304765718437e-01,-2.184165422321416583e-01,-1.476226058445063938e+00,-1.829592423866590323e-01,-4.581368650284637911e-01,-1.083037762158444606e+00,-1.039971293056081603e+00,-1.391210414180942934e+00,1.080517036396044350e+00,9.242016152979412036e-01,3.044897246635827615e-01,9.854028670025234415e-01
8.195105067329063742e-01,1.227552404727596302e+00,4.235775106242058441e-01,-1.798680389131890101e+00,1.264726604783011688e+00,-2.860807523908983629e+00,-1.482636681477774498e+00,-9.594625532574074800e-01,9.078137536366950311e-01,-5.715961743643735993e-01,-1.312614775767568798e+00,1.884890156754243318e+00,1.444399364828010235e+00,6.177267749630280802e-01,1.527475362327439246e-01,-8.759790204005014624e-01
9.455558564968717938e-01,-1.026681615514907442e+00,3.834325709153640349e-01,-1.592937273844572399e+00,6.206046813224036507e-01,-1.380315810960405898e+00,-5.601316750316965853e-01,3.557649273935871714e-01,5.345821996066907333e-01,-2.782618388696435074e-01,2.943346368576710281e-01,-1.551463351684413405e+00,5.094949444136827044e-01,1.392011621195463178e+00,3.842077538281581384e-01,7.145076554657124879e-01
8.148835588398378738e-01,-8.513474697352627629e-01,-8.773947352278366196e-01,6.314192134473970430e-01,1.899818124241036355e+00,2.167246996491159816e+00,1.339976493555510018e-01,-5.778536768426559833e-01,-4.093312126108760718e-01,-3.492917428673003033e-01,2.419887952781009932e-01,-4.258848531796054909e-02,-8.027012157499388012e-01,-1.469484935999094688e+00,1.745763618902463010e+00,-3.209781308448755310e-01
7.521087980976804976e-01,-8.310138791291591387e-01,4.405373933636074768e-01,8.260298749606913571e-01,5.925296080403976706e-01,1.068725827219778601e+00,6.099797308876186985e-01,-2.286198227012511131e-01,-7.547503665281873886e-01,-5.966877082843097257e-01,-1.403015060865663299e+00,-1.126810520707858032e+00,4.563049723671955271e-02,3.743841731467692502e-01,3.765076450690703069e-01,1.296208859406446257e+00
-1.695482372189807130e-01,1.115527674856621632e+00,-1.649373149098518759e-02,8.538683704972965804e-01,8.813370992883036159e-01,2.229270204069724759e+00,-5.855549446882123421e-01,-3.794878460502445483e-01,-3.886039718168748380e-01,-8.505810606731711854e-02,1.908388290751973360e+00,2.453781772839555286e-01,-8.799188807024462822e-01,-1.715581302125957830e+00,-1.334190126771690910e+00,-1.004538115027926670e+00
-1.919047925140824562e+00,-1.575573042249416855e-01,5.085734777854106214e-01,-5.330120832117879459e-01,-1.040424890595798457e+00,-1.022084864983741070e+00,1.299330747487317250e-01,-5.490320970550657265e-01,-7.764341161349661569e-01,3.864658099730022139e-02,1.443420704770705387e-01,-4.388392376471333955e-01,-5.429763989304842164e-01,-3.506739863039629035e-01,5.762798421193514320e-02,7.983349559806256490e-01
-1.067397844997087564e+00,1.772417317540628267e-04,3.630487251535504667e-01,3.037100857894463601e-01,5.780427024823840965e-01,1.362256657283545669e-01,1.160100064556673471e+00,-5.424937785948745761e-01,3.670756298365919768e-01,-1.024312981040597093e+00,-3.244611125917584715e-01,2.626229318121575673e-01,8.231972458180151220e-01,-7.712451285417852853e-01,-9.308910868922850579e-01,3.651376679183468421e-01
-7.080272350458490793e-01,4.643167017645450506e-02,2.642995267380777502e+00,1.522245820812426320e+00,4.090231710826843781e-01,7.294330055714980110e-02,-2.317137431527319436e+00,-4.797965110488163765e-01,3.909551793077192805e-01,5.119285334405713206e-01,2.347912664510138359e-01,8.361820031685960330e-01,8.059640100858005418e-01,-5.064373489688683838e-01,-2.835173202033183446e-02,-2.116229017083353925e-01
1.714760369041942456e-01,1.612468921940845679e+00,6.177973949973073475e-01,6.457207991202398301e-01,6.952780823669771904e-01,2.239297247845521088e+00,-3.586740402776233960e-01,-1.000371302401525053e+00,-3.568627488793016944e-01,6.736477098006686814e-01,2.352166320460265414e+00,2.634934963401774688e+00,5.776797719779673823e-01,-1.047981725322991942e+00,-2.442314045166287667e-02,8.619276851998747269e-02
1.634845576012810220e+00,1.231822209286040470e+00,1.927777578084097110e+00,-8.876232963745509519e-01,1.117054107442968514e+00,1.495029893681177002e+00,-1.953011675461040486e+00,1.443347205511304465e-01,-5.818415098228189031e-01,4.701040172805285300e-01,5.552035322862488576e-01,9.807721575154503268e-01,1.110051768684844564e+00,-1.625430997584655646e-01,-3.027481140638658696e-01,-1.394357446878274898e+00
-1.203384816583143557e+00,-6.076274259227411045e-01,-4.542612715907625720e-01,-7.814212598566424584e-01,3.176160076325535986e-01,-1.578685758560380403e+00,1.313602909207620684e+00,1.563445310740123162e+00,1.061278719288718086e+00,-1.333731490987947188e-01,-3.939168089332950595e-01,1.385734317314904596e+00,-1.213764980903528079e-01,1.583122769936221585e+00,-6.074045484938096068e-02,1.028940432510945024e+00
-5.236924185729572301e-01,-1.001677324049830897e+00,-8.487814964240890658e-01,1.523024468103725271e-01,-9.594086888533402968e-01,-4.424325515175261403e-01,-2.471489455608061547e+00,-4.838547430764995050e-01,-3.017601261806863722e-01,8.215992032400059042e-01,-4.487530908004405128e-01,-2.935388211646876133e+00,7.090575091464352830e-01,1.012531062104012891e+00,2.161700847715600560e+00,1.737730357064918574e-01
2.784362997822610319e-01,1.899041056692368556e+00,-2.095415942409114829e-01,-4.148473734853855843e-01,-1.285727344516644610e+00,-7.966975436565429947e-01,-1.531325342450958971e+00,-1.972123489359209669e+00,1.354323493516025101e+00,-1.145129680666898547e-01,-1.013812774280455020e+00,-2.898964273096069078e-01,-1.331561170150546536e+00,1.715479422869781834e+00,1.964891473802561905e-01,-2.104853967559894845e-01
1.041488289272580081e+00,2.201113026592403710e+00,-4.733832407238033335e-01,1.269835218157417511e+00,2.617549115134575999e+00,-1.343156235317325420e-01,-2.896065414469801147e-01,-7.424047120357522012e-01,-1.774292833587523877e+00,-2.621112456732452856e-01,7.342265197640216456e-01,-8.876722829482588395e-01,-1.291499383257761258e+00,3.598503883589976304e-01,9.977442664547732099e-01,1.143012537078518687e+00
4.327361067589406418e-01,-4.703329894821840496e-01,-1.230448205019656793e+00,-1.982489288529530880e+00,1.243506691721058127e-01,-7.743119960764790477e-01,4.023405646236258848e-01,2.107305586561175337e-01,-7.296940414185491830e-02,7.811905868319490853e-01,4.127716438324588455e-01,1.368740188484473430e+00,-1.479923843604527001e-01,-4.699084944310780165e-01,-2.105105969134662747e+00,-6.580890874968930992e-01
1.241337583689898105e+00,-1.074943515585084386e+00,-2.653291896784625070e+00,7.829194955376266307e-01,5.455602139829711650e-01,1.266301495288472356e+00,-6.090284610221506911e-01,-2.140543573550315326e+00,1.793321669387595518e+00,-2.598207935082439968e-01,1.436967673366412734e+00,2.512420142186581606e-01,-1.331531504833955548e+00,-6.358962796294380382e-02,-8.483185104669106469e-01,-1.587945207054847485e-01
8.866768794394688236e-01,1.258911528257945722e+00,1.063282874625160357e+00,-4.426856207036812818e-01,2.291434145091112207e+00,-1.410660234788322587e+00,1.840886531538905024e-01,2.018948151614042008e-01,1.343882507325533160e+00,-4.096444058225963136e-01,4.320358872294345898e-01,-2.411682261323528417e-03,-1.372577834870741365e+00,-2.227538779577875605e+00,6.205051396393292951e-01,9.233938587356199656e-01
-6.074588967668488326e-01,-6.927185433390076197e-01,-9.300179893690276867e-01,-7.951364891949939118e-01,6.021817215157369008e-01,1.464009308712324486e+00,1.268685973294237490e+00,-7.531208126621793397e-01,-3.520993765008733067e-01,-7.787712921793854548e-01,-2.877608350617212318e-01,-5.028124969558800395e-01,-4.648065040423343675e-01,-1.284047918925215859e+00,-2.185025528743746559e+00,1.077740309237163796e+00
9.522243679768779279e-01,-1.802926538820819047e-01,-5.732795509181414229e-01,-1.450863365451398046e-01,-3.169691577215334038e-02,6.445760194219303241e-01,-2.786284979475848744e-01,5.846362874412245336e-01,-4.751114986975927823e-01,-1.074950097583377839e-01,1.352463170376097867e+00,-3.571755655975175636e-01,-1.247483842050155722e+00,-5.280836319942044943e-01,-8.257405703274732500e-02,1.105570464174355783e+00
-1.157397958330722121e+00,-2.281365300015850028e+00,-1.721672075802573199e+00,-6.039407715193846338e-01,1.129164708144081430e+00,1.730132836552635001e-01,5.800217444314528237e-01,1.745284487467363421e-01,1.826926764294682648e-01,8.228337504672782465e-01,1.134919871844639383e+00,-1.667449648111105853e+00,-2.052674282744801015e+00,-8.852748807962081967e-01,5.969732047137562558e-01,-1.618644629196351326e-01
5.684230385630372195e-01,-1.682666027173036483e+00,9.498344514966058361e-01,1.482551340957036778e+00,-2.924080421708368793e-01,2.953735384365221428e-01,2.426901519576817046e-01,6.520865810064505608e-01,4.152283967734024528e-01,1.623661626182240303e+00,-1.383383619860849789e+00,-1.889247760137122034e+00,-3.479170230502633965e-01,-1.249060850780952636e+00,7.927125863057554733e-01,1.122262399118683307e+00
-1.120296463342346227e+00,6.586533898813526355e-02,-3.281813219572513041e-01,4.295974050623571072e-01,6.456320927446764779e-01,5.665765498599583117e-01,-6.835525145087995025e-01,2.456754483995065463e+00,6.500931611671270094e-01,1.135167706112070629e+00,2.273598423799814139e+00,-6.938751180221397474e-01,1.163849240425357708e-02,-1.094102759643495126e+00,6.568611529462234921e-01,1.950622357495192194e+00
-4.708234139667970553e-01,1.435134071702615532e+00,1.353570861782899815e-01,-8.987761632496421571e-01,-3.489976470513469486e-01,-9.341003218721760648e-01,-9.830968359221278208e-01,-5.198309327871298846e-01,7.991928021862649834e-01,-1.506321692240478072e+00,-8.396849463592298557e-01,4.603690381358805928e-01,-8.810155972634621246e-01,-7.679012165056159356e-01,5.567550929473535914e-01,-1.836060419277669942e+00
1.226787099001124481e+00,-1.156881826454511542e+00,3.523354450232758506e-01,4.227580450771598608e-01,1.188232629014702058e+00,-6.665303210501359876e-01,1.179952306967374964e+00,2.522404054490375858e-01,5.902109422867135580e-02,-2.449493909899323751e-01,5.670154095070089051e-01,6.517462766168347077e-01,-1.756851192837455555e-01,-3.956860931389705183e-01,5.447722786342268364e-01,-1.246909636456462467e+00
-5.432117263809355112e-01,-9.091175155263109264e-01,-7.689697706854917714e-01,-9.117756890025217054e-01,1.144055332081015619e+00,6.618962603986886517e-01,-1.095028820167578409e+00,-1.211820578193688602e+00,-5.259634804723454377e-02,-4.204289369915305274e-02,-1.544373637828502233e+00,-1.688947466634908245e+00,2.698189803860192096e-02,3.716666301668168915e-01,-8.318049749552128835e-01,2.414602439770594799e-01
1.424744218429353282e+00,5.268769505272226095e-01,4.761694559151237738e-01,-4.396104909851241728e-03,3.047734074843431173e-01,-2.035265917636065236e+00,1.577752840980846394e-01,-3.585072989522454234e-01,-2.026089241645359529e+00,1.413334008841515388e+00,-1.741472190456344604e+00,1.065700109168549403e+00,6.367331499086935631e-01,-1.397317073094223872e-01,-5.441408638580839119e-01,-1.236242449429839851e+00
-2.585254209570909123e-01,-7.946028057517345866e-01,3.595771180608143269e-01,5.556948398623459129e-01,5.951531772126693598e-01,-5.729830147362072745e-01,-2.468962806678175748e-01,-2.193863421360827681e-01,1.351704722810204429e-01,-4.294793953960692745e-01,3.199049756237802189e+00,-4.885310390735504438e-01,1.963307974088148500e+00,-7.968552370254265993e-01,-2.661112759462853639e-01,-4.183672253478044369e-03
1.439028550705795162e+00,6.524743075904374523e-01,-1.955707595166795293e-02,-7.618408672524357161e-01,-1.661015372800477286e-01,4.404045705424640134e-01,-3.984682929987695132e-01,5.904990068076829690e-01,-1.759409164413507698e+00,9.153655012847692340e-01,-1.009484988012291584e+00,8.103386665207819028e-01,1.264234603233075793e+00,-2.157486679320654854e-01,9.887685743540274297e-01,-6.055077389199464699e-02
1.739293726347101332e+00,4.756216375214132874e-01,-8.287009293508986740e-01,2.644577282446213262e-01,1.081682974343477932e+00,7.430924951666348921e-01,-1.388374216683119666e+00,-8.570884039555945466e-02,1.794172107004612382e+00,-6.656416619982830074e-01,6.159258597826974824e-02,2.148166137462062864e+00,-1.166679850412363217e+00,1.271411109126947304e-02,-6.691656861590696004e-02,-1.054295448705291571e+00
1.575948136017628842e+00,-6.688395671322696634e-01,-8.323630280751431743e-01,9.944919692644166309e-01,1.107847964553489772e+00,-1.712981234679474551e-01,2.375623180905455989e+00,7.182739243320637179e-01,-1.535304723230026980e+00,4.385212242145761774e-01,5.165963120368599615e-01,-1.097326057327311588e+00,-1.149623818588547897e+00,3.648223673205349127e-01,-2.331438885497252311e+00,4.624720029713874081e-01
-2.190224593121403163e-01,-7.714143369997406019e-01,-8.834319475701479796e-01,9.367247462683541137e-01,-3.084578478728913775e-01,-9.165271497091370678e-01,-1.188440648177485404e+00,-3.643097446675978845e-02,3.594287879319948975e-01,6.156033770773620128e-01,4.353039953808333085e-01,-6.680747884695933392e-01,-3.507616760213775331e-01,-2.631316339973466700e+00,1.092520218820133664e-02,-2.510906763934367625e+00
1.245421726213242347e-01,3.731090207874487308e-01,-1.438257644321667104e-02,2.038314045805900143e-01,9.917936955954015366e-01,-7.044421952879699189e-01,1.525904662879440155e+00,-6.996231493068673091e-01,-8.984721814963453346e-01,2.742824866155224028e-01,-1.672507022288041156e-01,1.389660940151854485e-01,9.813671346560211006e-01,4.484310614213966040e-01,-7.421114897009027933e-01,-4.053333615426588793e-02
-3.252026700817298721e-01,1.350378165122131935e-01,-7.119058131513830712e-02,-2.695859350894854733e-01,8.442092453405215524e-01,4.666099672994912795e-01,1.897239894288068607e-01,4.593960514735077605e-01,4.764373345949680094e-01,1.250553172222085063e+00,-5.304367704857749777e-01,-7.031172067379038992e-01,1.575702534363369933e+00,-1.314531490620578058e+00,-9.769922484353884551e-01,4.622928381613742310e-01
6.745381549542660560e-01,-1.343924321587736559e+00,2.981504404300620165e-02,5.321021131935714799e-01,3.824948705883274847e-01,-7.354025736090753496e-01,1.390644207575271851e+00,-5.836492008086747729e-01,-3.045693829541935016e-01,-1.280603927250010265e+00,7.972756261372207845e-03,3.594722788629410304e-01,1.137732043792934356e+00,6.740871771842735782e-01,4.731326270345569407e-01,-6.848683766274644702e-01
-4.094708156664873533e-01,-2.868343461162844998e-01,-1.408256009139519094e-01,-7.368638063351654610e-01,-7.605688214212461551e-01,1.431743435537321973e+00,-3.436697966445221297e-01,1.907268705473738502e+00,-1.447534840624629338e+00,-2.909314670242347245e-01,-1.504473068820423087e+00,7.740216002382573068e-02,1.427310825818165707e+00,-1.756680882712936265e-01,-2.657194016094098776e-01,-1.251902580070909599e+00
8.772607301316527328e-01,-1.000678060000020020e+00,-1.131426055006235609e+00,-8.288843686777296327e-01,-4.038892090880159547e-01,1.061879785408828880e+00,8.212601995408186362e-01,-1.027047356403480327e+00,-2.178439517344383791e+00,-1.544640072455775837e+00,-6.410930183991695452e-01,-6.042913646073273526e-01,-2.672159843084371378e+00,7.342629387577404021e-01,1.362590270506818024e+00,-5.855045648892843735e-01
-2.143600312781880568e+00,4.849610280471656765e-01,-9.748095798901718068e-01,1.587036622858110313e+00,-7.564710887875613077e-01,-3.688859578728738153e-01,-5.049504521028879145e-01,-4.999379579301767573e-01,-8.318034845184583137e-01,-5.227164111856350548e-01,-1.132270780026089829e+00,4.126591136578988683e-02,8.573627333909490389e-01,7.649309396068587619e-01,4.498760322278671508e-01,3.381744792772553576e-01
1.696467864536252090e+00,1.844042037302960624e-01,-3.661958367340799325e-02,5.199236772822591890e-01,-3.780130290969280216e-01,1.873091834531107969e-03,1.043087213465613727e+00,5.059528831085136069e-01,-1.045125000851615304e+00,-8.235422589509807656e-01,-8.080969194787239740e-01,6.461870302357857199e-01,-1.528682910999410727e-01,2.595459103240048138e-01,1.021306368610884890e-01,7.035755887080170634e-01
5.753502390199647376e-01,-4.114739355916435248e-01,8.809859947828537763e-01,1.876215500838929851e+00,-5.441970147062630270e-01,8.304016161975057431e-01,-1.203734250411164997e+00,-2.325521206323865275e+00,4.148335416823410032e-02,-8.091170668969763224e-02,-4.374157711585444641e-01,7.381798159813379723e-01,4.117914868005308482e-01,1.752514174909948208e-01,1.420584951424185283e+00,-3.000978580399159545e-01
-5.324764532416459417e-01,-5.190657004458468782e-01,-4.410418579224014701e-01,2.102605831919704293e+00,-6.574762351061108623e-01,-6.629914276629735870e-01,-7.252054308616704414e-01,1.315017396122685867e+00,-8.474955086727724574e-01,-2.261697529189110156e+00,2.355360030092351398e+00,1.705152650048548379e-01,-1.493670754449492599e-01,1.383695757880558652e+00,-4.934829899727290470e-01,1.339336997599616774e+00
9.550334882360402844e-01,1.386111820291468177e+00,8.120546630830994816e-01,1.897459463507063182e+00,6.289789190867347557e-01,-1.482988865906863962e+00,-5.499466999766663422e-01,-1.301445593208801377e+00,1.914226792594279525e+00,-5.607285209930690933e-02,-6.160870301882183098e-01,1.709166689174229870e+00,-4.183223790768715866e-01,6.791473637939862140e-01,-2.604232781346265679e-01,-1.794665751554455291e+00
5.018227943222677290e-01,-1.426609043156382706e-01,-1.791904420107369056e+00,1.372672353687914626e+00,7.414590458661255434e-01,3.644513419489796568e-01,-1.280135325509677013e+00,1.227050944727031023e+00,2.191556708698315425e+00,1.821225359149037271e+00,1.190408612798496302e+00,-1.184208387043004240e+00,1.386753723656441784e+00,-4.842508423791588856e-01,-3.120585765315331828e-01,1.456363406819133344e+00
7.616359357669829633e-01,-5.189918067111909394e-01,-1.459257538789168862e+00,4.978220688846329844e-01,1.237834650228837097e+00,1.268734657446758174e+00,-1.816673061581529358e-01,-1.482361192474217937e+00,-2.193142332866810373e-01,-1.392598135944528082e+00,1.337310324675345274e+00,-7.356751769477202219e-01,1.863719437492113107e+00,1.582566563124891523e+00,-2.619515722841502803e-01,-6.308852205004995550e-01
4.215525243493382090e-01,1.215268105721011294e+00,-5.140425799845131927e-01,3.357309271481950241e-01,3.721138308186176524e-01,-1.344026585602156931e+00,2.011944493073598128e+00,-3.698265871139469474e-01,6.717593237152620356e-01,-1.117776461828126289e+00,1.013728276694073616e+00,-1.939164678240899109e+00,1.875427558323527200e-01,-1.993600808158203230e-01,-1.239377509705668512e+00,1.923507757172121524e+00
9.964813822834750479e-01,-1.309755412862583457e+00,-4.259933382780307642e-01,5.393483572943208459e-01,5.285175085510249726e-01,-4.851526430285644786e-01,8.254184823033773322e-01,1.099783675181613907e+00,3.119619037229090508e-01,9.877975747399371231e-01,1.886304200422543320e-01,-9.988869122128033462e-01,5.969836063982864038e-01,7.486868282560370236e-02,-2.789095502449051356e+00,-1.087540224716903925e+00
1.295474689815843350e+00,-1.294756705980500966e+00,-1.984027108605755929e+00,-7.536966118051843244e-01,1.411252888358839996e+00,1.073433875554582251e+00,-3.120828449937906868e-01,-3.550176694445235630e-03,-1.027154874758436032e+00,1.616452353556298904e+00,1.842015903835814150e-01,5.307607796837866543e-01,1.465160915263578945e+00,1.629190510578416129e+00,1.137927231746459933e+00,-3.126627112185544899e-01
1.732050380658380462e+00,-7.953319486515630921e-01,2.035163007284603309e-01,1.157529514465118793e-02,1.021482233131178197e-01,1.270204611047970111e+00,1.189019023057180435e+00,8.397617201421828659e-01,6.216460427224432816e-01,-4.163319101941574396e-01,-3.725549695318964433e-02,-2.106306431708712346e+00,5.937022159328612103e-01,-1.087801740161339570e+00,1.237507198936427688e+00,1.933003960651625275e-01
1.553627049119582493e-01,1.342345067711996354e+00,1.070549263376118665e+00,-1.711827426249373785e+00,-7.371502803877655330e-01,1.103659744947814270e+00,4.453417527296741896e-01,1.875663117500620536e-01,1.841849540403839525e+00,-3.580760722908743476e-01,8.817411104578863901e-01,-1.870037506605884747e+00,-1.649841079281909373e+00,2.739386591314197372e-01,-4.371407452495554846e-01,1.276352144456791127e+00
8.307824518662113578e-01,-1.768699646046017593e+00,-2.956571800663432836e-01,-1.020377503366616256e+00,1.357465983487263328e+00,-3.913776964884967402e-01,-2.550507643284529169e-01,4.742285223104202307e-01,1.126758830099804154e+00,4.403573085463858283e-01,-5.489002172172565697e-01,-1.700112827877013899e+00,-2.195247451911141179e-01,2.801921649091763666e-01,2.730432106481556556e-02,-1.872690432359799539e-01
1.203393847836757624e+00,-2.162599379558027834e+00,2.066703955872857545e-01,-8.494732848156774652e-02,-5.547630944679652343e-01,-5.599803966679870459e-01,3.723997651529409869e-01,-1.156131816908082532e+00,1.001781486504896401e+00,1.475767306393062972e+00,2.231255425620090715e+00,-5.469467551084327139e-01,3.874105836281873105e-01,9.730511199358095054e-01,-3.148978356786980015e-01,-7.630246151463551674e-02
-1.499552549635002618e+00,-1.167898988841529873e+00,7.715159972021196078e-01,-9.283056351434454401e-01,-3.992597311223449602e-02,1.593512183912417779e-01,9.362626129915635476e-02,-1.362831062743280697e+00,1.095746697717653984e+00,6.535513505005084989e-01,9.318325329190104700e-01,7.111680895739943553e-01,-1.669101215419648565e-01,1.278956511176044808e+00,1.141069530933500387e+00,2.781255859839507627e-01
3.156016483082069168e-01,-5.580077069170158444e-01,3.864100901752026140e-01,7.430127763858616063e-01,-1.941405633708189971e+00,-6.854829053500558489e-01,7.396122999645237117e-01,2.499369719315119587e-01,1.091988839265421340e+00,1.619517742060662055e-02,-2.143721667385735108e-01,-1.187967155183066170e+00,-5.397413534133064239e-01,-2.420425583523990176e-01,-1.249125691805736071e+00,1.127942942357772260e+00
5.735896628861468505e-02,-4.346118615545237485e-01,-1.040587025581287461e+00,3.178111820144113864e-01,1.097139175748034878e+00,1.000472002070779798e+00,-9.944145970596648398e-01,-3.726863582562037203e-01,9.645011223758488406e-01,-2.767721856488614685e-01,6.804217712693548803e-01,1.068015995151190500e+00,-1.221706322894891228e+00,-7.373145727943933858e-01,1.288621305795729366e-01,-3.187059115775052187e-01
-1.630824465022850278e+00,1.076826891144047949e+00,7.948729499629829665e-01,2.372703989396524604e-01,-1.182468980991745466e+00,-1.097258284232247583e+00,7.624276966444093473e-01,-1.142399132608793666e+00,1.261072118889732807e-01,-8.834526721906880153e-01,-5.510221975909460612e-01,1.203206473528788817e-01,-2.035773929512453909e-02,6.463585469605145351e-01,-1.274800738398638444e-01,-3.127915518030713327e-01
7.082071891796020147e-01,-1.385936665103352450e+00,-5.656770319623858345e-01,-8.204869039019715427e-01,3.738022572555496081e-01,-3.015200673556645006e-01,1.293677875595015569e+00,-7.883446976282187935e-01,4.002850246578864013e-01,-1.471903603681766204e-01,-2.809588890285538820e+00,9.657112246341212902e-01,4.630149694809551075e-01,-2.544488817258417357e-01,5.680908737737179193e-01,-1.310480403742002808e+00
1.549769428539112370e+00,1.066371264286094300e+00,-1.241039705020383632e+00,2.525702763916292115e-01,-1.320938932008293432e-01,4.176581377211986412e-01,3.312981807672395890e-02,-7.049684691760778055e-01,-3.300895771356586184e-01,5.199339434562959550e-01,-3.029763526338697943e+00,1.380097819518454894e-01,-3.185193752762262021e-01,-4.275881185020151132e-01,-3.692783239892355462e-01,5.790350770284038995e-02
1.764213911299389759e+00,-7.194448498577541429e-01,-4.807200035817881661e-02,2.306322210211892154e-01,1.489414897467066456e+00,4.223137722829799490e-01,1.435076336764268268e+00,-1.138888570258712374e+00,6.379472583798831975e-01,-2.346859911539251442e+00,-1.034191501468223473e+00,7.698368916994617894e-01,-1.254524467068072191e-01,-4.406068849423219191e-01,1.928188148841098182e-01,-1.469242444287871097e+00
8.074587393100047805e-01,1.039034275018012599e+00,-7.906488026020709325e-01,-7.096178237454365823e-01,1.618650915044895222e-01,-3.821936007438064831e-01,2.980894340318848146e-01,2.828883058854710364e-01,8.810752344490130339e-01,4.973693781926016300e-01,-5.212675295460821312e-01,-3.058118453148436777e-01,2.334853699363275414e-01,-1.170613339995465185e-01,1.058141541652381612e+00,2.214508001980559360e-01
1.308668160734667296e-01,5.796446011266953580e-01,7.649806154111522538e-01,-3.686243166836047358e-01,1.509917118358332422e+00,4.676805701632646278e-02,2.882747062944123750e-01,3.339773997009304884e-01,8.000785758993862740e-02,-5.016824558940508050e-01,-8.609808934904068511e-01,2.568180041341082687e-01,8.232244097914410697e-01,1.478915456785698801e+00,1.817175616072022937e+00,5.101615095356778484e-01
-4.429242836087926571e-01,4.586972470658496337e-01,7.687103094584821772e-01,-1.133396776152094443e+00,-8.366844781055629010e-01,1.199254244773023892e+00,-1.492236233633136733e+00,2.959079537434862739e-01,1.527285327412029270e+00,-7.232552991451809410e-01,-4.668346802054251232e-01,-3.718276611211381866e-01,1.165171420435800353e+00,-8.361084097689893690e-01,-8.246261807302048830e-01,-1.502552240721960475e+00
-7.839631112035927440e-01,4.093386712038188380e-01,5.666504737448053719e-01,-2.334402810479006274e-01,1.427994890603059286e+00,1.509042863754021191e+00,7.394128935983862450e-01,-1.024632863777875658e+00,8.894302368621169741e-01,-1.064783926226047450e+00,-1.518799380921340925e+00,-3.487173663932179313e-01,-8.777156186011304539e-01,-2.787173288392447712e-01,4.531679262552888998e-01,1.346405351273907813e+00
-1.823626188614887234e+00,7.972859807072553429e-02,-1.367132687267323066e+00,7.522953472395335073e-01,3.916929467920567121e-02,1.265396443090056056e-01,-5.906868696615575898e-01,1.553001517353505667e+00,9.706258148133759533e-01,9.532249778711379129e-01,-9.114136350322989133e-02,6.925619782195401031e-02,3.461928801486067186e-01,1.940023330754878206e+00,-5.536280881094055584e-01,9.587408071053645786e-01
5.527494289861332177e-01,1.123512058063606212e+00,-2.867220666673799823e-01,-1.866294584721927663e+00,7.950017269141310683e-01,-2.855232223998295862e-02,-1.017662973117502423e+00,8.800923074281377101e-01,-5.781260394210655518e-01,-7.646672242397116737e-01,-1.940260945426785399e+00,-5.317189751589419533e-01,-5.066999504358941919e-02,5.077471229816099552e-01,7.113128521846860952e-01,9.757707395436961972e-01
7.973350383889882265e-01,1.535171636676301299e+00,-1.252944693047748359e+00,1.112908205087521418e+00,4.040430788535628870e-01,3.060367090302003601e-01,9.548078036597360541e-01,-1.438609676209645361e-01,8.539740022774036099e-01,2.234457470106845367e+00,6.466738791833402944e-01,-6.573824998322842506e-01,1.772284869297980014e+00,-7.760611254384837121e-01,-4.598668605813331367e-01,1.277945802197668623e+00
6.413611362523625736e-01,-4.482325690623889525e-01,-1.229247976471599557e+00,4.548640436312436641e-01,1.249271854884945299e+00,1.209362436779346739e+00,5.558040688450534283e-02,5.391141405281322241e-01,-1.024154910380573047e-01,2.373365707013584125e-01,-3.610241018163087845e-01,-4.286795318782664621e-01,1.307362188293820005e+00,-7.305612657657333253e-01,5.251946440458700183e-01,3.409859275899424502e-01
-2.111611789210230405e-01,-7.463686125742190480e-01,2.342108197429566996e+00,-5.250194719116080613e-03,-8.473639192973532464e-02,4.349198312274145106e-01,-1.800714254583723473e-01,6.591182545637742640e-01,8.890708615860247743e-01,-6.389771386846184731e-01,1.089633266644020049e+00,5.292682500892356146e-01,-1.028128229254022141e+00,8.413116954751442833e-01,-1.813054084808348065e+00,2.183046450832570873e-01
-8.481003330566621035e-01,-7.874145771889591305e-01,-1.269862218196322834e+00,1.320183569306258686e+00,4.106687182384131662e-01,-8.843629413351046242e-01,4.252885324627562191e-01,1.383831351841559920e+00,-1.104819537620251424e+00,6.083213023867930502e-01,8.457801368436758116e-01,-1.216883420724722775e+00,-1.612452169589361883e+00,-1.639035884206360372e+00,8.353698987934041753e-01,-7.979603977661264835e-01
-5.925952284105977519e-01,2.026184948317698020e-01,-6.726088631606530477e-01,-1.417611303858498539e+00,1.316341908541171835e+00,-5.831460432101709564e-03,3.627824980259874987e-01,6.725887104183277954e-01,-1.502413657117978585e-01,-1.160374898738268934e+00,1.262423746300549876e+00,9.257290970807577901e-01,-1.297823659363365190e+00,3.817778428894792464e-01,9.429901751372530283e-01,1.006435322315394565e+00
8.846122130471173461e-01,1.345516542510636571e+00,-2.238912240146509358e+00,6.446103163672081138e-01,7.553625735119211260e-02,1.001494087261206589e+00,-7.335328183496409027e-01,-4.462584725295612453e-01,3.126112245988666438e-01,7.906431983433885868e-01,1.802696927827617035e+00,-1.075339128977577996e+00,5.931666127138641720e-01,-4.767531327377770856e-01,-1.026973722225937635e+00,-7.387339722354278049e-01
-3.306424878305397885e-01,1.636226042302523664e+00,-1.376962647987006072e+00,-5.250983613217350410e-01,-1.881604866174138468e+00,-8.749387676359022814e-01,-1.158974354397827866e-01,-3.627104657174384794e-02,1.263703424174467960e-01,-1.134857028430458437e+00,-7.593039986418279597e-01,-7.629340666124369008e-01,3.318998154454659288e-01,1.286610571204787334e-01,-4.867688461133294342e-01,7.449106595535162634e-02
-6.067443470647860826e-01,-3.721289945040087699e-01,-7.941883877462655450e-01,1.605405279834297705e+00,-8.224736452813410370e-01,-7.415086871181357786e-01,-8.384009901440866441e-01,1.125123069545479693e+00,-1.121637939153078634e+00,-4.901449364633378991e-01,8.459120503599689700e-01,-8.870062652521186752e-01,1.871899314501820205e-02,3.429945353420227883e-01,1.132378564857016379e+00,-7.906127128517278502e-01
1.063749446974426860e+00,-8.188022221732345063e-01,-5.302582212106455861e-01,-1.771757454599194315e-01,4.385048664003864394e-01,1.803984285782362917e+00,2.096904845845209975e-01,-8.980145023982286645e-01,-6.465305456614770518e-01,-1.045729702701344133e+00,8.499223279689898103e-01,-7.948488006236397174e-01,3.522071589299377026e-01,1.235408841275242864e+00,9.284084107448502543e-01,-6.747406766936365763e-01
7.293375499379763927e-01,1.540204133846583834e-01,-9.300657670984742442e-02,7.828264523583746692e-01,-3.028863349927372606e-01,7.740152118932026593e-01,-1.256833657786416092e+00,-5.684232511015958611e-01,-3.983298288871281456e-01,2.456744519767159740e-01,-4.590711672856799819e-01,-2.412554296366418161e+00,1.386691122797090343e-02,-1.442866482797343197e+00,5.346068737088731648e-01,6.914599538038294080e-01
1.174138508311146356e-01,-1.143272665400105970e+00,-6.009568960010788774e-02,5.876760889183206826e-01,-1.296624602096018153e+00,-5.203223097349835014e-01,1.387621052790757314e+00,-1.670833873770108502e+00,4.109645771467367315e-01,-6.827528681298481450e-01,2.490341174836027793e+00,-1.957442814566157763e+00,-1.989041750907126982e+00,-3.861547929463883810e-01,-4.244888248806640008e-02,1.039467102857262626e+00
-5.218342600425971423e-01,7.557474559766530486e-01,-6.789090379098076111e-01,2.523482181713731509e-01,4.363972718773712622e-01,2.194149266574777268e+00,1.627795367003713467e-01,1.676775120915335648e+00,6.058940792181508606e-01,9.435564642759585174e-01,1.428382998463342268e+00,-1.186693583461209567e+00,-1.840542486069298711e+00,-2.604461069013741081e+00,-2.597244951067297358e-01,1.083388866696454400e+00
1.851268651020358202e+00,3.399037473998847009e-02,-1.273573597917082023e-01,7.118609085512361823e-01,-4.891663643515284932e-01,5.845571000154383551e-02,2.688836942836254629e-01,-6.927513300133193441e-01,1.498706790812243561e+00,1.681569095771822786e+00,-1.103954381778179172e+00,-2.109194939568598937e+00,-1.120182164015806059e+00,-5.648429493064914542e-02,-1.953256286207227133e+00,2.774582492205367873e-03
2.763279915135672393e+00,-6.550999312307460576e-01,-1.665161707210921271e+00,5.352074079827366937e-01,8.011687122027079111e-01,-1.262416413431797668e+00,7.091194889436780446e-02,-9.027266443353397785e-01,2.418840306172621579e-01,3.125969913280579604e-02,8.423655022625922695e-02,-1.325946091083130884e+00,1.181221663991266491e+00,-1.761326036362510949e+00,7.706867843905951254e-01,3.887906509625516649e-01
2.074170170671169711e+00,-1.525834613182865063e+00,1.019215601990583364e+00,2.753959318162279568e-01,-1.433948205772525686e+00,-2.214961440445968877e-01,1.787811988194216717e+00,1.279466553808911167e+00,6.746061522196630245e-01,2.579544986313561661e-01,1.662359605744633262e+00,-8.491534591576449520e-01,9.702920401363086533e-01,7.783429819198286470e-01,-1.196008980467884175e+00,8.912054465553999050e-01
2.220952882124661798e+00,-2.229580586689557387e-01,-1.461243884013728067e+00,-4.060320519055773958e-01,1.077660928767741666e+00,-2.166576609800456410e+00,-5.876025789796327503e-01,1.234106898364595306e+00,-5.073564282671605419e-01,-9.278884155415789703e-01,8.684500498921691181e-01,-1.665440406445741539e+00,9.300310355990922817e-01,1.020704487257513060e+00,9.444022290782418116e-02,8.374463871708808238e-01
-1.657945876693376341e+00,-1.483007784931903439e+00,-9.170006862117056068e-01,2.936866948832461133e-01,-4.049305122606075558e-01,-1.380355504065998717e+00,-3.679609738355062859e-02,-6.323131649404643007e-01,7.944634685321297907e-01,-1.630608797453822811e+00,-3.997232190438086974e-01,3.000875596065382123e-01,-2.228149236753798890e-01,3.617284878381625823e-01,9.013150205417640448e-01,-1.351151213075626023e+00
4.456407789683660692e-01,-3.293837867316722900e-01,-3.452630165436860188e-01,9.016638091102581187e-01,1.280637687220111121e-01,-2.244539637353956785e+00,-4.424910124410967871e-01,-4.164880932999611707e-01,4.043131632135580911e-01,5.531841923289642082e-01,-1.897743036608738887e-01,-2.977212439486323636e-01,-1.488704199006176676e+00,-4.013433539547898166e-01,-7.425042882017051094e-01,1.099153812611975312e+00
